nep4_zbl 3 Li Zr Cl 
zbl 0.6 1.2
cutoff 6 5 51 31
n_max 8 8
basis_size 12 12
l_max 4 2 0
ANN 50 0
  1.4934868e-01
  4.4099423e-01
  4.8878148e-02
 -2.0312184e-01
  9.5173210e-01
 -2.1049561e-01
  2.1626997e-01
 -8.7628436e-01
 -2.0089017e-01
  4.2894879e-01
  7.6789600e-01
 -2.0856518e-01
 -1.0411367e-01
 -3.7998635e-02
  6.7916349e-02
  4.7420827e-01
 -1.9655041e-01
  7.0538975e-02
 -6.5116368e-02
 -8.3453692e-02
 -4.8674783e-01
  1.8354818e-02
 -1.2255933e-01
 -4.4427899e-01
  1.0868242e-01
 -1.0540367e-01
 -3.5067180e-03
 -1.6667880e-02
 -1.2842421e-01
  2.9398423e-02
 -3.0771542e-01
  3.1452844e-01
 -4.2587650e-01
  2.9383063e-01
  1.6357407e-01
  7.3870307e-01
 -3.3451058e-02
  2.8145185e-01
 -3.7795854e-01
 -6.8301421e-01
  2.4989267e-01
  1.2493252e+00
  7.2678506e-01
 -1.4197658e-01
 -7.9306948e-01
 -2.9443404e-01
  3.9095002e-01
 -1.8805018e-01
 -2.8026471e-02
 -7.0934124e-02
 -3.3036318e-01
  4.5541629e-01
  6.2399483e-01
 -4.4123885e-01
 -3.8845292e-01
  1.3728461e-01
 -6.9365971e-02
  8.7043893e-01
 -3.4413821e-01
 -8.9613080e-01
  5.5982941e-03
 -4.7801975e-02
 -1.1552072e-01
 -1.5229650e-01
 -8.7952447e-01
  1.7084530e-02
 -6.4182425e-01
  1.4882755e-02
  8.5939571e-02
  1.6300154e-01
  4.2233649e-01
 -6.6342992e-01
 -1.0039974e+00
  7.0674539e-02
  1.3399322e-02
 -5.7240790e-01
  2.5317916e-01
 -1.6980392e-01
 -4.1030120e-02
  3.0490315e-02
 -6.0365307e-01
  1.9738580e-01
  1.4198579e-01
 -9.6336353e-01
  1.6841154e-01
 -2.6116173e+00
  5.0938364e-02
  7.0136154e-01
  2.7466363e-01
 -7.5309120e-02
  2.3379327e-01
  2.6701545e-02
 -1.7993912e-01
 -4.1197452e-01
 -2.3119120e-01
 -1.8930614e-01
 -1.3477324e-01
  5.0864872e-02
 -5.1878351e-01
  1.4990319e-01
 -1.6811289e-02
 -1.2997587e-01
  5.0256491e-01
 -2.1598090e-01
 -3.4955418e-01
 -9.4202295e-02
 -2.1047081e-01
 -1.4777306e-01
 -9.5569417e-03
  5.3065884e-01
 -1.8653441e-02
 -4.3743275e-02
  1.6602011e-01
  2.5891118e+00
  1.4819802e-01
 -3.4760085e-01
 -1.1723633e-02
  1.1883677e-01
  1.7437406e-01
  5.0833011e-01
  2.4047377e+00
 -6.4060993e-02
  9.2193656e-02
  4.7273141e-01
  1.2448638e-02
  2.9633561e-01
 -4.6041027e-02
  9.8972782e-02
  3.6486655e-01
 -2.4081519e-01
 -1.4628358e-01
 -2.3938067e-01
  5.4975671e-01
  9.8070316e-02
  4.6846747e-01
  2.1181150e-01
 -6.7327696e-01
 -2.9719788e-01
 -6.8344903e-01
  1.7033541e-01
  1.4781667e-01
  6.5266579e-02
  6.3679025e-02
  1.6741593e-01
 -2.0363863e-01
 -7.8314990e-02
  5.8465308e-01
  3.4617666e-02
  6.2898725e-01
 -4.5242590e-01
  6.6939574e-01
  1.9229797e-01
  2.8292960e-01
 -5.6661689e-01
 -1.2852451e+00
  2.5110820e-01
 -1.8588690e-01
 -2.5620398e-01
  5.3256524e-01
 -5.0947571e-01
  1.2064118e+00
 -4.4593441e-01
  2.8216341e-01
 -2.9567782e-02
  1.1727346e-01
  9.1296107e-02
  1.2893070e-01
  3.7541205e-01
 -4.4559273e-01
 -2.9452914e-01
 -2.8016600e-01
  6.5926397e-01
  2.4222609e-01
 -2.9739261e-01
 -4.1394573e-01
 -5.5307537e-02
  7.4085057e-02
  3.6054242e-01
 -2.8766990e-01
 -4.5797795e-01
  4.1342694e-01
 -1.1314246e-01
 -2.0973754e-01
 -2.5937609e-02
 -4.2532405e-01
  3.3426911e-01
  2.8453514e-01
 -1.3392672e-01
 -1.2660919e-02
 -1.9384408e-01
  2.3090906e-02
  3.1920046e-02
  1.9143288e-01
  1.2786126e-01
  7.6476878e-01
  1.2173656e-01
  9.4172806e-02
 -1.2392435e+00
  1.7450304e-01
 -9.1377568e-01
 -7.6340646e-01
  2.0350586e-01
 -8.8238335e-01
 -1.6943450e-01
 -1.9700889e-01
  4.1979620e-01
  1.3012546e-01
  2.0789771e-01
 -5.6068474e-01
  9.6972518e-02
 -3.9866522e-01
  1.9326811e-01
 -7.3684514e-01
 -4.9625419e-02
  2.8536439e-01
  4.7775295e-01
 -4.1030675e-01
  2.0207079e-02
 -4.5607990e-01
  1.5034123e-01
  3.5012054e-01
  4.1452736e-02
  4.5355994e-01
 -5.4574585e-01
 -5.0913173e-01
 -6.5811470e-02
 -1.0201867e+00
  3.2484260e-01
  3.8455698e-01
  5.4251361e-03
 -1.2149546e+00
  4.4155934e-01
  2.5705376e-01
  1.8642332e-02
 -2.4915275e-01
 -1.4094274e-01
 -8.9384168e-02
  1.0265864e-01
 -2.1138696e-01
 -1.0755187e-01
  1.0407263e-01
 -1.7407119e-02
 -4.7807205e-01
 -5.1315337e-02
 -7.5177521e-02
 -6.5744340e-02
 -3.7568778e-01
 -6.1145473e-01
  2.3168644e-01
  4.0970388e-01
 -3.0141664e-01
 -1.6040027e-01
  7.8766578e-01
  8.0866891e-01
  4.6695728e-02
  5.3907174e-01
 -2.8894836e-01
  3.5157926e-02
 -2.6930580e-01
  1.5701710e-01
  6.4443626e-02
  1.0308475e+00
 -3.6361077e-01
  1.1177584e-01
 -7.8763679e-02
  5.9144485e-01
  3.6396822e-01
  8.9905650e-04
 -3.2144523e-01
  4.4041399e-02
  2.0334160e+00
  3.9989650e-02
 -9.8885857e-02
  3.5536665e-01
  1.7404640e-01
  1.0026783e+00
  1.3822174e-01
  3.4648740e-01
 -3.0154344e-01
  3.4145162e-02
  3.9361018e-01
 -4.4953790e-01
 -1.1379709e-01
  1.0553482e+00
 -2.0678091e-01
 -8.0684654e-04
 -2.9551676e-01
 -2.8159672e-01
 -2.1831146e-01
 -1.9083208e-01
 -4.6276364e-02
  2.0243999e-01
  2.9990181e-01
  3.8813111e-01
 -1.4066924e-01
 -2.3728654e-01
 -3.2982638e-01
  2.0981365e-01
 -9.4514908e-03
  4.9850801e-03
 -4.4712692e-02
 -6.7765731e-01
 -5.0870854e-01
  9.6780531e-02
 -2.6261342e-01
  6.9867820e-02
  7.9428709e-01
  1.3494423e-02
 -3.5221890e-01
 -7.7286661e-02
 -5.1213663e-02
  2.3842879e-01
  3.1087039e-02
  8.0113852e-01
  2.0112462e-01
 -1.3205644e-01
  2.2113254e-02
  1.4958498e-01
  7.0617700e-01
  9.7851706e-01
 -2.8217649e-01
  8.1062622e-02
  4.6883699e-01
  2.8576311e-01
  2.6838580e-01
 -8.3879835e-04
 -4.1077226e-01
 -8.3040610e-02
 -3.0379832e-01
  1.5602294e-01
  1.8955369e-01
 -6.1128014e-01
 -2.1987705e-02
 -3.5167098e-01
 -4.8471659e-02
  3.9308080e-01
 -7.0478939e-02
  3.7459609e-01
 -1.1749544e-01
  6.5698192e-02
  7.9049364e-02
 -5.6167386e-02
  6.9793278e-01
 -3.5401992e-02
  7.7356559e-01
  2.0790260e-01
  7.0779061e-01
 -3.3392209e-01
 -2.4403563e+00
 -9.1147405e-01
 -1.3077752e-01
 -1.1361649e-02
 -1.9476773e-02
 -6.2303042e-01
  3.0066946e-01
  9.0005929e-03
 -2.2308305e-01
 -6.9028333e-02
  2.3368748e-02
 -1.3109492e-01
  5.7512261e-02
 -9.5073253e-01
  2.1769577e-01
 -3.6485550e-01
 -6.9410086e-01
  3.7046522e-01
  6.9764212e-02
  1.0279757e+00
  1.3573357e-01
 -2.1152134e-01
  1.3603265e+00
  1.3421784e-01
  1.3460433e-01
 -6.0791320e-01
  5.8299474e-02
 -5.1662380e-01
  8.7142342e-01
 -4.7067752e-01
  5.3921159e-02
 -5.9571946e-01
 -1.1912335e-01
  2.2898977e-01
 -8.7679207e-01
  3.2696986e-01
 -2.3966910e-01
  1.7234032e-01
  3.3993819e-01
  2.1316136e-01
  5.0720769e-01
 -3.5274053e-01
 -3.2197069e-02
 -2.4125215e-01
 -1.3277818e-02
 -9.1392435e-02
 -4.7272395e-02
 -1.5395572e+00
 -2.2041313e-01
  2.7421829e-01
 -2.3950918e-01
  7.7301997e-01
 -2.9568357e-02
  4.2980582e-02
  8.7564446e-02
  6.9897604e-01
 -3.5408351e-01
  4.6982378e-01
  2.5371173e-01
  3.5883671e-01
 -8.4979534e-01
  6.6722822e-01
 -1.0709275e+00
 -4.6638098e-01
  1.9392481e-01
  5.1614262e-02
 -4.9655062e-01
 -1.6956671e-01
  4.6871716e-01
 -5.4299485e-02
  5.0956465e-02
 -2.3323616e-01
 -2.9604644e-01
  3.5644937e-01
 -2.6871774e-01
 -6.7754135e-02
  8.1293307e-02
  1.6427530e+00
 -5.7706600e-01
 -6.4878047e-02
 -1.1650179e-01
 -3.7964385e-02
  6.5019101e-02
 -1.2976173e+00
 -6.4200532e-01
 -8.0602551e-01
  5.5555992e-02
  5.6884497e-01
  5.1082686e-02
 -6.1642855e-01
 -1.5971981e-01
 -2.1312437e+00
 -2.6943335e-01
 -4.4004750e-01
 -2.6746660e-01
  1.0759298e-01
  3.4746796e-01
  3.0094218e-01
 -3.3157244e-01
  9.8364875e-02
  8.4475383e-02
  2.0186674e-02
  7.9181068e-02
 -1.5381384e-01
 -1.4881732e-01
  7.3403910e-02
 -1.7093544e-01
  5.6260377e-01
 -1.4060158e-01
 -1.8213865e-01
  3.5170597e-01
 -4.1303167e-01
 -2.2614630e-02
  2.9667502e-02
  4.9872849e-02
  4.0953612e-01
  4.5192424e-02
  5.1052207e-03
  8.6980176e-01
  4.5016140e-01
 -2.4306667e-01
  1.7723919e-01
 -5.0161290e-01
 -1.3298605e-01
  9.4213113e-02
  2.2203636e-01
 -1.1606802e+00
 -1.1805057e-02
  2.0819493e-01
 -9.6568406e-02
 -6.5813884e-03
  1.3593204e-01
 -3.1518489e-01
  3.7085474e-01
 -3.6080414e-03
  2.5300348e-01
 -2.7265874e-01
 -5.7490444e-01
  2.0736074e-02
 -1.0544264e+00
 -6.5841907e-01
 -1.0974316e-01
  1.4984724e-01
 -1.2210242e+00
  2.1804316e-01
 -3.1372824e-01
 -8.1108443e-02
  5.4033989e-01
 -1.0125984e-01
 -3.4648684e-01
  8.4120184e-02
 -9.4450273e-02
 -1.0277537e+00
  1.1148815e+00
 -2.1369649e-01
  7.8960055e-01
  5.9873234e-02
  1.5556327e-02
 -2.1382010e-02
  2.7467626e-01
  3.2670367e-01
  3.7889522e-01
  2.1448657e-01
  4.4373393e-01
 -3.2312530e-01
  5.8388042e-01
  1.2764186e-01
  4.5939538e-01
  2.0449670e-01
 -4.9697265e-02
  4.5203948e-01
  1.0239606e-01
  1.0363196e-01
 -1.0361211e+00
 -3.6379912e-01
  7.1737623e-01
  5.8555175e-02
  3.9118654e-01
  1.8960258e-01
 -4.7634807e-01
 -9.3070380e-02
 -6.7803584e-02
 -5.4324560e-02
 -1.9054163e-01
 -1.9844899e+00
 -1.9770514e-02
 -4.2102793e-01
 -3.8544290e-02
 -3.3210680e-01
 -6.7640811e-01
 -7.3592299e-01
 -5.6031692e-01
  5.0561894e-02
 -3.9420318e-02
  7.0456797e-01
 -4.1195893e-01
 -9.3487918e-02
  1.6590640e-01
 -6.4345968e-01
 -4.3530959e-01
 -4.2046517e-01
  8.8124931e-01
  2.7586740e-02
 -6.2228564e-02
  1.8661549e-02
 -3.9769188e-01
 -3.2762495e-01
 -9.7919643e-02
  7.7028781e-02
  9.1038778e-02
  1.5613724e-01
  6.0776997e-01
  4.1153213e-01
  2.4180825e-01
  4.3093011e-01
 -1.0451035e-01
  1.9583546e+00
 -7.6784480e-01
  2.2097969e+00
  2.2060546e-01
 -5.9294879e-02
  2.5816920e-01
  8.9459457e-02
 -6.4310139e-01
 -9.1766554e-01
 -6.0997725e-02
 -1.9659890e-02
 -6.1572295e-02
 -3.3384115e-01
  1.4858902e+00
  6.6882187e-01
 -8.4342575e-01
  4.8998436e-01
 -7.3775536e-01
 -5.6442136e-01
  4.1349396e-01
 -7.9008067e-05
 -1.0058638e+00
 -4.8350033e-01
 -4.7287352e-02
  1.3668445e-01
 -3.7809047e-01
 -8.8074893e-02
  3.2736811e-01
  1.0445262e-01
  4.3455574e-01
  2.2675493e-01
  1.4882869e-01
  3.5866031e-01
 -2.1679506e-01
 -3.6811441e-01
  2.3492897e-01
  1.1481102e+00
 -3.3913803e-01
 -1.0420472e-01
  3.6448458e-01
 -8.8548049e-02
 -3.1013949e-02
 -7.5653888e-02
  2.2114837e-01
  1.1574815e-01
 -2.7318364e-01
  5.9961635e-01
 -3.8921556e-01
  2.0926232e-02
  8.3495237e-02
  1.0444513e-02
 -3.7913474e-01
  6.5112889e-02
  4.8301308e-03
  3.1351570e-02
 -1.2180772e-01
 -3.4966853e-01
 -4.2258775e-01
 -4.9187399e-02
 -2.0634304e-01
 -1.0039792e+00
  3.3130817e-02
 -3.7319475e-01
 -1.7837514e-01
 -2.1963775e-01
 -3.8110092e-01
  1.5703355e-01
  8.3038032e-02
  6.5958090e-02
  3.6331940e-02
  2.8724959e-01
  1.4459101e-02
  1.0187568e-01
 -1.4011353e-01
  1.7180694e+00
 -3.0569014e-01
  1.0715761e-01
 -3.9922900e-02
 -4.2664877e-01
  2.4507982e-01
 -4.2924899e-01
 -3.9933276e-01
 -4.9234014e-02
  3.1261045e-01
  4.6210009e-01
 -4.5260614e-01
 -8.7360108e-01
 -5.2039742e-01
  5.4703015e-01
 -1.0191633e-01
 -4.7501683e-02
  8.4911853e-01
 -1.4501870e+00
  1.7850821e+00
  1.9416496e-01
  5.0897914e-01
 -7.6667249e-02
  1.3748333e-01
  8.3115153e-02
  1.4512871e-01
 -1.6317526e-01
  3.7817657e-01
 -3.3588937e-01
  3.5077438e-02
 -2.5200257e-01
 -1.5692656e-01
 -3.0546993e-01
  6.6932887e-01
 -1.1913896e-01
  1.8152110e-02
  4.3926945e-01
  4.4814566e-01
 -1.0479802e-01
  1.1530352e-03
  4.1536912e-01
 -8.0803108e-01
  2.4783665e-01
 -2.2544907e-02
  3.2125282e-01
 -1.7582601e-02
 -1.0235976e-01
 -8.0543831e-02
  1.8588439e-01
 -3.3535197e-01
 -8.0359735e-02
 -3.3254167e-01
  2.3337087e-02
 -5.8115220e-01
 -2.2843766e-01
  2.2914356e-01
 -4.3809542e-01
 -6.1310065e-01
  5.1986631e-02
 -3.9350951e-01
  6.6282453e-05
 -4.6902403e-01
  2.5345212e-01
 -1.3294178e+00
  6.7484975e-01
 -3.0671477e-01
  3.4118500e-01
  3.5366729e-01
  7.4025430e-02
  1.3437197e-01
 -8.9094497e-02
  1.2537601e+00
  4.0074494e-01
  1.4162207e-01
  4.1824895e-01
 -7.6858848e-01
  4.0284958e-01
 -9.3221605e-02
  3.3787936e-01
  5.1672268e-01
 -7.4051268e-04
 -5.7810229e-01
  1.4906932e-02
 -4.5625946e-01
  2.1672231e-01
 -2.2066087e-01
  1.9102265e-01
 -2.3988113e-01
  1.4729664e-01
  3.1973749e-02
 -7.0300788e-01
  1.0400099e-01
 -6.8139448e-03
  1.1941900e-01
 -5.1004734e-02
 -3.8087687e-01
 -1.1424429e+00
  2.4948098e-01
 -2.3053800e-01
 -3.7758976e-02
 -5.0010499e-02
 -1.9048508e-01
 -3.5054153e-01
 -1.5984713e-01
 -6.1239064e-01
 -5.1596500e-02
 -2.6282197e-01
 -1.6388042e-01
  1.9677882e+00
 -7.1683109e-02
 -1.5168056e-01
  9.2248306e-02
 -6.4881235e-01
 -8.1664169e-01
 -2.1247463e-02
 -7.9176247e-02
 -1.8256678e-01
  4.4186091e-01
 -1.6621470e-01
  4.5660302e-01
 -2.2957739e-01
  4.6495788e-02
 -4.1783229e-02
  6.0187900e-03
 -2.3170603e-03
  2.2177947e+00
 -6.1579490e-01
  8.8998872e-01
  4.5563477e-01
  3.6519295e-01
  1.0542607e+00
 -3.1116626e-01
 -4.0592358e-01
 -7.2125733e-02
 -9.7290583e-02
  5.9340600e-02
  5.7611074e-02
  1.3210896e-01
 -2.0125097e-01
  1.0722735e+00
 -6.1285603e-01
 -1.7912747e-01
  1.5570009e-02
  2.9802537e-01
 -6.1991084e-01
 -1.1034737e-01
 -4.5431077e-01
  5.0921835e-02
  3.3433475e-02
 -7.4731445e-01
  1.1864842e-01
  6.6514319e-01
  3.3763176e-01
 -2.2161196e-01
  3.8129571e-01
 -5.8183014e-01
  6.0783958e-01
  4.3148950e-01
 -4.6062934e-01
  6.5851100e-02
 -5.5330002e-01
  8.9752167e-01
  3.4274139e-02
  9.7587161e-02
 -2.3300052e-01
  2.7891216e-01
  5.6448293e-01
 -5.6245750e-01
 -3.6019945e-01
  3.3748910e-01
  4.5138147e-01
  3.8842835e-02
 -7.4383065e-02
 -1.6175145e+00
 -3.4393308e-01
  9.9019416e-02
 -6.5525049e-01
 -3.7136987e-01
 -1.0168365e-01
  1.2360066e+00
 -1.4590402e-01
  3.6155441e-01
  5.6573607e-02
  5.4169644e-02
  1.7741097e-02
 -6.3347958e-02
  7.3071634e-03
 -1.3413906e-01
 -7.4006343e-01
  5.9820097e-02
 -2.8804052e-01
 -1.0040299e+00
 -7.7667403e-01
  4.5927089e-01
 -2.2077306e-01
  4.0222698e-01
 -3.2881439e-01
 -5.8119458e-01
  5.0299216e-02
 -4.9906960e-01
  1.5598300e-01
 -2.4896587e-01
  3.4308840e-02
 -8.8785493e-01
 -1.3247786e-01
  9.4234371e-01
 -5.6075100e-02
  1.0679281e-01
 -3.6713859e-01
 -6.4777240e-02
  3.0972171e-01
  3.6788228e-01
 -9.5073193e-02
  9.7437099e-02
  2.1552081e-01
  2.2005881e-01
 -3.9382026e-01
 -9.8697040e-03
 -2.7307230e-01
 -1.3158913e-01
  2.2702660e-02
 -5.7177067e-01
  2.5325587e-01
 -4.5725852e-02
 -7.4370657e-03
  3.9622021e-01
  4.2191349e-02
  6.6426575e-01
 -9.5248336e-01
 -5.5883336e-01
 -1.3317244e-01
 -2.9646587e-01
 -1.5817690e-01
 -5.6503434e-02
  1.3743253e+00
  6.3411102e-02
 -7.6431647e-02
  1.3061936e-01
  1.2069482e-01
  6.1723221e-02
 -2.3759741e-01
  1.0859933e-01
 -7.3057258e-01
  4.3709558e-02
 -1.4956117e-01
  5.7321072e-01
  2.2200169e-01
  2.3608981e-02
 -2.4170391e-02
 -8.1158780e-02
  4.3902871e-01
 -1.2435286e+00
 -3.6762193e-01
 -1.8451644e-01
  3.6813032e-02
  7.0683962e-01
  5.8387127e-02
 -4.5808136e-02
 -4.1718267e-02
  4.2542258e-01
 -2.7509713e-01
 -3.0248576e-01
  9.4589457e-02
 -5.2641475e-01
 -3.1701315e-02
 -4.9753830e-01
 -9.5327204e-01
 -3.5476053e-01
 -9.3261942e-02
  7.6740742e-02
 -5.0302076e-01
 -1.5593353e-03
 -3.0499734e-02
  1.0847373e-01
 -2.2726977e-01
 -4.0719983e-01
 -4.5588893e-01
  4.5732030e-01
  2.2225153e+00
  1.2077327e+00
  7.0318061e-01
  3.8029961e-02
  5.3261888e-01
  2.8993678e-01
 -1.5951127e-01
  4.6967936e-01
 -2.1574485e-01
  1.1003312e+00
  1.2033333e-01
  5.7339692e-01
 -6.9334126e-01
 -6.5952865e-03
 -2.5083045e-03
 -1.3156039e-01
 -4.1433409e-01
  1.6136241e-01
  2.5139380e-01
 -8.1382424e-02
 -1.1253482e-01
 -1.0409698e-02
  1.9289359e-01
  8.7799895e-01
  5.0701720e-01
  2.7131182e-01
  9.6570380e-02
 -1.9969454e-02
 -1.5673205e-01
 -6.8228826e-02
  2.9325712e-01
 -1.1571649e-01
  9.5444247e-02
  6.7447484e-01
  4.3711908e-02
  4.7253338e-01
 -3.5114476e-01
  6.0076857e-01
  3.5505599e-01
 -2.9860815e-01
  6.3092813e-02
  6.7688149e-01
  1.6663668e-01
 -9.0009058e-01
  3.6524954e-01
  4.6108446e-01
  4.3200832e-02
  1.9014432e-01
  6.9546229e-01
 -2.6344430e-01
 -2.0288344e-01
  3.0506077e-01
  3.4436268e-01
 -6.9865561e-04
  1.8713787e-01
  3.4913641e-01
  2.7287158e-01
  4.2528093e-02
  8.5497484e-02
 -3.6688414e-01
  8.7179653e-02
 -6.7403883e-01
 -1.0197256e-02
 -1.1138608e-01
  1.2730646e-01
  2.0527959e-01
  8.0430496e-01
 -3.8113189e-01
  1.7707247e+00
  5.7649400e-02
 -3.2272744e-01
  1.4595798e-01
 -4.3303043e-01
 -1.5503488e+00
  2.8399618e+00
  1.4956723e-03
  1.1684946e-02
  2.5073797e-01
  2.6049778e-01
 -7.0494153e-02
 -5.0667429e-01
  2.7608883e-02
 -9.9500157e-02
 -4.5488068e-01
  1.4487007e+00
 -1.2853799e+00
 -2.7130914e-01
  1.3185033e-01
  7.5636037e-02
 -1.2299277e-01
  3.4007841e-01
 -6.8003237e-02
  1.3425298e+00
  9.5649570e-02
  9.3596876e-02
 -5.8488923e-01
  1.0126950e-01
  8.5584484e-02
  1.0769640e+00
  2.0585255e-01
  5.7781047e-01
  1.5523216e-02
 -1.2424695e-01
  1.2724830e-01
 -3.1613618e-02
 -8.3761752e-02
 -9.6933305e-02
 -1.4202936e-01
 -1.6201303e+00
  2.2412026e-01
 -7.1830019e-02
  4.8652169e-01
  5.2608263e-01
  1.1548809e-01
  9.3360925e-01
 -5.8406317e-01
  2.2484143e-01
  2.6786569e-01
  1.0864860e+00
 -1.4182988e-01
 -6.4222789e-03
 -1.2969749e+00
 -4.9662414e-01
  1.7218025e-01
 -9.3353219e-02
 -2.5626481e+00
  3.1843331e-01
  7.0761287e-01
 -1.2134957e-01
 -7.4006730e-01
 -9.5034704e-02
  3.2270916e-02
 -4.8359960e-01
  5.1372480e-01
  2.5127465e-01
 -4.7656873e-01
 -7.6124482e-02
 -4.3245184e-01
  9.5499963e-01
  1.9744745e-01
 -1.3446163e-01
 -4.9495226e-01
 -9.4197886e-03
 -9.7933285e-02
  6.0217738e-01
 -6.7239469e-01
  9.6538886e-02
 -1.8507765e-01
  6.0363390e-02
  2.4474226e-01
 -3.4775898e-01
 -9.1061927e-02
  4.5785818e-02
 -3.1894052e-01
 -5.6404060e-01
 -9.5768452e-02
 -9.9872001e-02
  4.2529017e-01
  1.0955559e-01
 -2.8570366e-01
  6.0149330e-01
 -4.0451664e-01
 -5.9248041e-02
 -7.0147857e-02
  4.8147645e-03
  2.5890407e-01
 -3.7487566e-01
  1.8949760e-01
 -2.7090460e-01
  3.4683490e-01
  3.7558910e-01
 -6.7512554e-01
 -8.2454956e-01
  4.5848757e-01
 -9.7837495e-03
 -8.3995807e-01
 -2.3827060e-01
 -5.8186628e-02
 -9.4543658e-02
  4.3265693e-02
 -2.1302690e-01
  7.3010242e-01
 -2.9586753e-01
 -2.4723313e+00
 -2.4673252e-01
 -8.1369746e-01
 -1.7767598e-01
  2.7045327e-01
 -1.0913507e-01
 -4.5297366e-02
 -1.1430210e-02
 -2.5348827e-01
  9.9811085e-02
 -3.4469736e+00
 -4.3670511e-01
  6.3397855e-02
  1.1979242e-01
  4.8808524e-01
  5.0587469e-01
  5.2423980e-02
  1.4296849e+00
  7.5303334e-01
  1.4280818e-01
 -6.6594392e-02
  1.6266489e-02
 -9.9600330e-02
  1.9185023e-01
 -1.6927607e-01
 -2.2975309e-02
 -2.1023357e-01
 -1.0478700e-01
  3.9908413e-02
 -1.4875517e+00
 -7.0942885e-01
  3.2456750e-01
  5.0811026e-02
  9.6236390e-01
  7.7424891e-02
  6.3598531e-01
  9.3061316e-01
 -2.5049677e-01
  7.5193211e-02
 -1.2874605e-01
  4.8269462e-02
 -1.9365454e-01
  9.7529596e-01
  3.8638774e-02
 -6.2388040e-02
 -9.1428377e-02
 -3.4720182e-01
 -2.2471558e-01
  2.9191515e-01
 -3.0259591e-01
 -2.0234670e-01
  4.0426025e-01
  2.7606812e-01
 -3.7354261e-02
 -7.7422172e-02
  5.0089371e-01
  6.5310872e-01
 -4.4401973e-01
 -2.1745594e-01
  1.9682708e-01
  3.8000911e-01
 -1.2138211e+00
 -3.3723694e-01
  2.4695647e-01
 -9.4530091e-02
 -3.0633605e-01
  2.4230037e-02
  4.2181450e-01
  1.6654736e-01
 -1.5182722e+00
 -3.5912174e-01
 -3.7595451e-01
  3.8315848e-02
 -1.2456731e-01
 -6.2586498e-01
  5.1957065e-01
 -2.2717887e-01
 -8.2546026e-01
  4.3354604e-01
  2.2657363e-02
  1.6398600e-01
  5.2268487e-01
  5.3628528e-01
 -1.1907564e-01
  2.9284707e-01
 -3.0962542e-01
 -1.9991117e+00
  2.9470685e-01
  9.9845243e-01
 -2.0019250e-01
  2.1086273e-01
  1.7787221e-01
  2.4162549e-01
 -1.3761012e-01
 -8.9886859e-02
  2.3395509e-01
 -4.7013007e-02
 -1.7472911e-01
 -1.5500536e+00
 -5.1550567e-02
 -1.3429030e+00
  7.7535862e-01
 -1.3903713e+00
 -9.6418381e-02
  1.3787426e-01
  5.0494814e-01
 -7.4084356e-02
  4.3863561e-02
  3.5357451e-01
  9.7791895e-02
  4.4179046e-01
 -2.8659749e-01
 -6.9751281e-01
 -2.9766068e-01
 -2.4825382e-01
  2.5094488e-01
 -1.4345083e-01
 -2.0928513e-01
 -4.1183439e-01
  9.1099191e-01
 -2.0113049e-02
  4.7542568e-02
 -4.5140472e-01
  1.4282705e-01
  2.2235763e-01
 -4.0294990e-01
 -1.6146192e-01
  4.7553442e-02
  7.2197098e-01
  3.1245446e-01
  7.3371208e-03
 -1.8015139e+00
 -2.3857521e-01
 -2.7920434e-01
 -9.7564302e-02
  3.7863679e-02
  4.0872243e-01
 -1.0908741e-01
  1.0644691e-01
 -1.3470697e-01
 -7.4466117e-02
  8.5349716e-02
  3.7531430e-01
  1.9627540e-01
  2.9726428e-01
  7.4655181e-01
 -9.8665959e-01
 -2.5346470e+00
  9.5356870e-01
 -7.1239656e-01
  1.3315372e-01
  3.0867651e-01
 -1.1525664e-01
 -6.5854222e-01
 -1.1145367e-01
  1.3588439e+00
 -1.3275504e-01
  1.3577266e-01
 -7.0687509e-03
  6.7448902e-01
  3.2466430e-02
 -3.7785453e-01
 -2.6585698e-01
  5.7654107e-01
  1.7079121e-02
 -2.8295532e-01
 -5.4741800e-02
  1.6383574e+00
 -2.8469908e-01
 -4.0073261e-01
 -7.2508883e-01
 -3.3405998e-01
  2.8397501e-01
  1.8247327e-01
 -3.0439693e-01
  2.2735661e-01
  2.2778292e-01
 -1.7896402e-01
 -1.4265028e-01
 -1.4576663e-01
 -1.8702097e-01
 -5.2628523e-01
  3.3767051e-01
  5.5273712e-01
  4.8448257e-02
  3.2561794e-01
  3.6967862e-01
 -3.8818502e-01
  7.4105293e-01
 -5.6927051e-02
  4.2170569e-02
 -1.5873086e-01
 -5.4744619e-01
  2.6725596e-01
 -1.7046623e-01
 -2.1674772e-01
 -2.3643608e-01
  8.3263211e-02
 -1.1042619e+00
 -1.3959174e-01
  1.7875245e-01
 -9.9314088e-01
 -6.8603861e-01
  3.5460472e-01
  1.1604660e-01
  3.7755478e-02
 -5.0356930e-01
  2.4754438e-01
  3.7203163e-01
  3.8263980e-01
  7.0450096e-03
  4.6359903e-01
  4.1172007e-01
 -4.0919659e-01
 -2.9053304e-01
  2.6498619e-01
 -5.3344149e-02
  4.5549601e-01
  4.7479518e-02
  6.8852574e-01
 -1.7633675e-01
 -2.5211611e-01
  5.7320893e-02
  3.6238596e-01
 -3.1099737e-02
 -2.3882447e-01
  4.6957996e-02
  7.8001589e-02
 -1.9906150e-01
  9.5909365e-02
  8.2544088e-02
  6.5721117e-02
 -2.0132259e-02
 -8.5443184e-02
  3.5247019e-01
 -6.5600500e-03
 -4.3640774e-01
  3.1322396e-01
  2.2890408e-01
 -9.9620348e-01
  3.2173595e-01
 -3.7334582e-01
 -2.9619339e-01
  6.5596467e-01
  9.5788173e-02
 -8.4466450e-02
  8.6772824e-03
 -1.0338674e+00
 -5.1001366e-04
 -7.5200224e-01
  1.0918435e-01
  5.3113621e-02
  6.3192689e-01
 -4.1217855e-01
 -4.9183255e-01
 -1.5308283e-01
 -9.7852379e-02
 -2.5563467e-01
  8.3300203e-01
 -2.1489923e-01
 -2.1307208e-01
 -1.8496305e-01
  7.2405301e-03
  6.1175382e-01
  3.4788159e-01
 -2.0750755e-01
  1.3744457e+00
  2.6862952e-01
 -4.9107885e-01
  1.6546483e+00
 -1.6676211e-01
 -5.4580462e-01
  2.3300966e-02
 -4.3242830e-01
 -4.2796098e-02
  2.5215412e-02
 -1.1082489e-01
  8.6230554e-02
 -6.2437441e-02
  2.3590821e-01
  1.6392209e-01
 -4.8179314e-01
  1.3800487e-01
 -4.2080432e-02
  1.0193937e+00
 -4.8896709e-01
  4.2827582e-01
  2.6382965e-01
 -1.4051817e-01
  1.2837942e+00
 -7.0795804e-02
  4.0556389e-01
  9.2473857e-02
 -2.4057733e-01
 -8.1038885e-02
  3.8885751e-01
  6.0031193e-01
  1.6264692e-01
  3.2571572e-01
 -1.3265905e-01
  4.6090257e-01
  7.3159659e-01
 -2.6005906e-01
  2.9207888e-01
 -1.0933645e-01
  1.9451344e-01
 -1.1435577e+00
  3.5729489e-01
  9.0116888e-01
  2.5048241e-01
  6.8324134e-02
 -4.1773263e-02
 -4.5295835e-01
 -1.5278791e+00
  3.8779911e-02
 -4.0790313e-01
 -1.1273866e+00
  2.3729350e-02
  3.0729169e-01
 -1.9243184e-01
  9.4849837e-01
  8.7084129e-02
 -1.2987244e-01
 -2.9497376e-01
  2.6287150e-01
  1.0714747e+00
 -3.1322524e-02
 -6.4515483e-01
  3.7874267e-01
  5.2061506e-02
 -2.9951361e-01
 -1.8627118e+00
 -7.7787656e-01
 -1.2321048e-02
  2.0969968e-02
  2.9380314e-02
  7.2506160e-01
  1.8429144e-01
 -2.4195130e-01
  5.3784335e-01
 -3.2661405e-01
 -6.4080134e-02
 -1.4114076e-01
 -1.9112466e-01
 -5.2731174e-01
  3.0912869e-02
 -2.8638303e-01
 -6.3423383e-01
  1.0976572e-01
  1.2610726e-01
  3.1659290e-01
  1.1900726e-02
  4.2316654e-01
 -2.7628154e-01
  1.6641298e-01
  5.7412949e-03
 -2.4023718e-01
 -1.1071113e-01
  1.5828817e-01
  5.5602825e-01
 -4.4748716e-02
 -2.6655093e-01
  1.5534056e-02
  5.9948790e-01
  4.6492508e-01
  2.1006535e-01
 -6.3015372e-01
 -2.2937496e+00
  1.3305865e-01
  7.3036149e-02
 -2.8421563e-01
  7.9373711e-01
  4.2869338e-01
 -5.9930074e-01
  3.5610594e-02
  2.0602091e-01
 -4.7640884e-03
 -1.9105273e-01
  2.0136328e-01
 -9.8863998e-03
  1.1981388e-01
  5.7705361e-01
  6.0847080e-01
 -3.3422852e-01
 -3.2080910e-01
 -3.0300155e-01
  1.1848848e-01
  1.3341737e-01
  1.6605327e-01
 -2.6063401e-01
 -2.9524660e-01
  2.4508029e-01
 -3.4011263e-02
 -1.4225593e-01
 -1.8150337e+00
 -2.6482660e-01
  1.4976013e-01
  8.0943830e-02
 -4.6155605e-02
 -6.6377781e-02
  1.8943144e-02
 -1.3516195e-01
 -4.3504679e-01
  5.0488960e-02
 -3.2516715e-01
 -4.5667452e-01
 -4.1389000e-02
 -1.9874017e-01
 -7.2742544e-02
  2.8416258e-01
 -2.0394355e-01
 -2.3465900e-01
  7.2181141e-01
  7.9086147e-02
 -1.0619199e-01
  6.2541299e-02
  3.2710459e-03
 -1.8631393e-01
  1.8984395e-01
 -4.7634132e-02
 -1.3945045e+00
 -1.0054818e-01
 -3.0185318e-01
  5.3789265e-02
 -2.1892819e-01
 -5.6245881e-01
 -4.2266372e-01
  3.8125324e-01
  2.4932921e-02
  7.7631193e-01
  4.1543898e-01
  8.6563967e-02
  4.8556349e-01
  7.7588223e-02
 -3.4368169e-01
 -3.7879577e-01
 -1.9574276e-01
 -4.2032075e-01
  3.9719561e-01
 -1.3209383e-01
  3.4203970e-01
  2.5969240e-01
 -1.2644382e-01
 -6.0786003e-01
  4.7849741e-02
 -4.1968808e-01
 -2.8035915e-01
 -3.5188270e-01
 -4.3207026e-01
  1.2198064e-01
  9.8904297e-02
  3.2483004e-02
  1.5262928e+00
  3.3360910e-01
  1.0949380e+00
 -4.9264070e-01
 -6.5988219e-01
 -4.1354755e-01
  7.0201844e-02
 -1.1703529e-01
  1.5268102e-01
 -1.1058703e-01
  1.5640137e-01
  3.4054172e-01
 -4.0756887e-01
 -2.9547992e-01
 -6.7769903e-01
  1.1947626e+00
 -9.0817231e-01
 -4.5885262e-01
 -7.9123288e-02
  1.1798217e-01
 -5.0289625e-01
  4.7412790e-02
  1.0015450e-01
 -1.0786206e-01
 -2.4999149e-01
 -5.5035155e-02
 -1.0905216e-01
  2.2398661e-01
 -1.7958111e-01
  2.8118685e-02
  6.5031153e-01
 -1.0770392e-01
 -1.4717127e-01
  9.9471278e-02
 -3.4697250e-01
  2.2301525e-01
  1.5856695e+00
  3.0967358e-01
  4.9723372e-01
 -2.4932723e-01
 -8.6808071e-02
 -3.5622370e-01
 -4.8339379e-01
 -2.5786370e-01
  2.7991319e-01
  1.1385544e-01
 -4.3992960e-01
  2.7184400e-01
  4.8238149e-01
 -1.9126092e-01
 -6.6594936e-02
 -6.8504119e-01
 -3.1213108e-01
  1.1151965e-01
 -1.6347408e-01
  1.2463695e-02
 -5.4022646e-01
  2.1626750e-01
 -1.4173135e+00
 -7.3841617e-02
  4.4372770e-01
 -7.6262575e-01
  2.9150891e-01
 -9.8627472e-01
 -4.6179053e-01
  3.8893643e-01
  2.3950182e-01
 -8.0074382e-01
 -3.7895437e-02
  6.4816140e-02
 -2.3587739e-02
  3.5821009e-01
  6.0172766e-02
 -6.0747910e-02
 -2.4726631e-01
  2.4117917e-01
 -6.2864566e-01
  2.8125602e-01
 -5.1216161e-01
  2.5014782e-01
  2.2022773e-01
  3.9254694e+00
 -5.1600373e-01
 -6.6071194e-01
  6.8076253e-01
 -2.8156036e-01
 -3.9480293e-01
  3.4329760e-01
 -1.1434667e-01
  6.8435383e-01
  3.3458825e-03
 -4.4413415e-01
  1.1286963e+00
  4.3007520e-01
  4.4261366e-01
  4.8067916e-02
 -7.5949572e-02
 -3.1819648e-01
  9.6322767e-02
  4.9397269e-01
 -2.2271435e-01
  7.4201748e-02
 -2.4620797e-01
  1.9171299e-01
  1.8758503e-01
  5.7800557e-02
 -1.3284651e-02
 -7.6498743e-03
  1.5463050e-02
  3.5671109e-01
  4.1988957e-01
  9.9870272e-02
 -2.5814125e-01
 -2.8015730e-01
  3.7086200e-02
  6.3965428e-01
  2.0153670e-02
 -4.2736296e-02
 -1.3805942e-01
  5.4561323e-01
  6.6704716e-04
  1.1442830e-01
  3.2228482e-01
 -4.2230600e-01
  6.1167920e-01
  3.9785674e-01
 -3.1215139e-02
  1.2877410e-03
  6.9496304e-01
 -1.9302531e-01
  4.9548459e-01
  1.1179683e+00
  2.9308829e-01
 -3.0132073e-01
  1.5123564e-01
 -2.4022900e-02
 -1.1034346e-01
  3.1015265e-01
  1.7316534e-01
  1.1688750e+00
  5.2351189e-01
  3.3274156e-01
 -9.5128751e-01
  2.6294236e+00
 -6.6841714e-02
  2.0594917e-01
  1.0827309e-01
  6.2219876e-01
  1.5389979e-01
 -2.7683337e+00
 -1.1833031e-01
  5.9382987e-01
 -6.8899110e-02
  5.6053603e-01
 -2.7781808e-01
 -4.5704916e-02
 -5.2523744e-01
 -7.6562539e-02
  4.1967127e-02
  2.1091640e-02
 -2.3021129e-01
  5.7651579e-01
  3.6364067e-01
  3.0733442e-01
 -6.6882807e-01
  5.6099796e-01
  4.8686716e-01
  1.0082415e-01
  1.1615435e+00
 -1.7010883e+00
 -4.6551692e-01
 -2.4756273e-02
  3.2492593e-02
  1.3808075e-02
  1.3795169e-01
  4.1125536e-02
 -3.8134411e-01
 -2.3663104e-01
 -3.8511634e-01
 -7.0609629e-01
 -5.6332392e-01
 -8.0808550e-01
  1.3316054e+00
  2.2252992e-01
  1.1965251e+00
 -2.7609310e-01
 -6.2611264e-01
  3.0652323e-01
  5.2840769e-02
  2.6851108e-02
 -9.6779779e-02
  3.2775283e-01
  4.6644205e-01
 -7.5682148e-02
 -5.6035066e-01
 -4.7276143e-02
  8.8991398e-01
  7.2692537e-01
 -1.4967361e-01
  4.2177877e-01
 -7.0020117e-02
  1.2676263e-01
 -2.2234616e-01
 -4.1817701e-03
  1.2273415e-01
 -4.3254367e-01
  4.3211678e-01
  4.6817441e-02
  1.2673154e-01
 -5.7216483e-01
 -1.0426943e+00
 -1.5140022e+00
  4.9315518e-01
 -1.7891425e-01
 -1.1239501e-01
  4.8290423e-01
 -9.6085913e-02
 -6.1534852e-01
 -7.7724196e-02
 -1.9035384e-02
  5.4413044e-01
  7.7137369e-01
  1.6750218e-01
 -1.2883316e-01
 -3.5223919e-01
 -1.8106203e-01
  8.8813439e-02
 -2.4113575e-01
 -1.1316222e-01
 -3.6126214e-01
  6.6452479e-01
 -4.9223077e-01
 -1.7468368e+00
  6.7661345e-02
 -7.1191847e-01
 -6.7682731e-01
 -4.5892754e-01
  3.2059610e-01
  5.4879475e-01
 -6.0540569e-01
  4.2681825e-01
 -1.1252136e-02
  3.2608005e-01
  1.7954282e-01
 -3.9575550e-01
  1.2862657e-01
  2.0977210e-01
  2.8774565e-01
  3.0515550e-02
  6.6445604e-02
  4.0541884e-01
  5.2263498e-02
  9.2821544e-01
  6.4407343e-01
 -2.0628420e-01
 -3.4997575e-02
  2.0628168e-01
  2.9811952e-01
 -5.9875618e-03
  4.9837828e-02
  1.3112873e-01
  6.6852406e-02
  4.0903077e-01
 -8.8359592e-03
  2.1164622e-02
  1.1786906e-01
  5.1431507e-01
 -2.1957150e-01
 -1.1072572e-01
  8.8340372e-02
  2.8394756e-01
  6.1725247e-01
  7.0451170e-02
  1.5438169e-01
 -4.0595451e-01
 -1.7039037e-01
 -4.1688684e-02
 -2.7584067e-01
 -3.5242002e-02
  5.6679368e-02
  1.6451670e-01
 -8.1720911e-03
  7.1603380e-02
 -6.9754384e-02
  1.1915736e-01
 -2.3484610e-01
  5.0797367e-01
 -1.1856929e+00
  1.9508380e-01
  4.5954268e-02
  1.6255298e+00
 -2.4448900e-02
  2.8976843e-02
 -9.7465539e-01
 -6.0952687e-01
 -1.9440727e-02
 -9.9558219e-02
  3.9596739e-01
 -7.6856095e-01
 -2.5475533e+00
 -1.4122838e+00
  1.5081565e-01
 -1.8870215e-01
 -1.8747689e-01
 -7.5797811e-02
  4.4619802e-01
 -2.1729399e-01
 -3.6520322e-03
  2.5116210e-03
 -4.5021176e-02
  5.6356615e-01
 -2.9155698e-01
  2.5090688e-01
 -3.7304357e-02
  1.4613076e-01
 -5.5507976e-03
 -3.3927792e-01
  3.2884774e-01
  2.0988783e-01
 -3.5759780e-01
  2.5230387e-01
  3.2882658e-01
  2.1341774e-01
  6.1524594e-01
  1.6870518e-01
  1.8555114e-01
  6.9702998e-02
 -3.0803142e-02
 -4.8484955e-02
  2.3429747e-01
  8.0993719e-02
 -4.9126315e-01
 -2.0274848e-01
 -4.6165943e-01
 -3.6262345e-02
 -3.0525985e-01
  2.3561871e-01
  1.6801876e-01
 -7.6807998e-02
  3.6613458e-01
  1.8634552e-01
  2.9134083e-01
 -8.1977433e-01
 -3.0959266e-01
  1.0904540e+00
  1.5193346e-01
 -2.6391095e-01
 -2.5758467e+00
  4.2912316e-01
  5.1215023e-02
 -5.9649187e-01
 -6.6209801e-02
 -9.0919882e-01
 -1.1051904e-01
  1.0170703e-02
 -9.5821723e-02
 -2.0380510e-01
  4.4618917e-01
 -8.0150180e-02
 -2.2005861e-01
  2.5095007e-01
  1.0358552e-01
  2.0709720e+00
 -3.9065099e-01
 -2.0434196e+00
  2.0667215e-01
  1.3383104e-01
  1.0587498e-01
  1.4182305e-01
 -3.5847059e-01
  5.0547665e-01
  6.3160950e-01
  6.4142294e-02
 -1.6801949e-01
  6.5029219e-02
 -1.0819598e-01
  2.7565250e-01
  4.4252920e-01
  1.7188597e-01
  7.9924323e-02
  8.3850348e-01
  4.1802466e-01
  3.8034120e-01
  6.0082370e-01
 -3.0894697e-02
  1.2465824e+00
 -1.4235987e-01
  1.4665920e+00
  5.0732613e-02
 -3.3217245e-01
 -1.9882890e+00
  2.4121064e-01
 -2.9957561e-02
 -1.9575708e-01
 -2.9488569e-01
  1.9985566e-01
  5.1572585e-01
  2.0114264e-01
 -6.8670523e-01
  4.2917323e-01
 -3.9009601e-02
 -3.2842982e-01
 -3.7004974e-01
  1.3566189e-01
  3.6941689e-01
 -5.2208680e-01
 -3.1904466e-02
 -6.3783288e-02
 -7.6662683e-01
  5.8195126e-01
  3.9567146e-01
 -1.3252364e-01
 -6.8162210e-02
 -4.6410340e-01
  6.7807817e-01
  1.9915074e-01
  2.5588477e-01
  4.8661047e-01
 -7.2211206e-02
  7.3772326e-02
  2.2078113e-01
  4.8711431e-01
 -2.9478283e+00
  6.4718419e-01
 -4.4347305e-02
  2.9102793e-01
 -2.2316493e-01
 -5.8224779e-01
 -2.4245669e-01
 -1.9347509e+00
  2.1680260e+00
  8.3252317e-01
  3.8699368e-01
  6.7992568e-02
 -2.9246432e-01
 -1.9789726e-01
 -1.7486863e-01
 -2.2874513e-01
  2.6562074e-01
 -1.1977825e-01
 -8.9155450e-02
  4.1694731e-01
  3.4680295e-01
  6.8772143e-01
 -6.6571005e-02
 -3.2302734e-01
  4.4909018e-01
  2.1019123e-01
 -3.6628023e-02
  4.6043199e-01
 -3.1677234e-01
  4.4083086e-01
 -1.9312805e-01
 -1.0346354e+00
 -1.9436020e-01
 -5.2830953e-02
  5.1289088e-01
 -1.6900134e+00
 -8.6152428e-01
 -2.4466550e-01
 -1.1762922e-01
 -3.1371695e-01
  6.8861687e-01
  2.5669369e-01
 -1.8960345e-01
 -7.0238322e-01
 -7.6060623e-02
  3.7054464e-01
  4.9610597e-01
 -1.8316463e-01
  3.3772595e-03
  2.0072591e+00
 -6.3556087e-01
  1.7162408e-01
 -1.2184021e-01
  1.9591759e-01
 -1.9232364e-01
 -1.1526940e-01
  1.6808651e-01
  3.7230873e-01
  2.6313049e-01
 -2.8079331e-02
 -2.7223530e-01
  1.0360639e-01
 -1.2965517e+00
 -4.9381718e-01
 -9.6546382e-02
  6.2820725e-02
  6.8705641e-02
 -3.0622950e-01
 -1.9352999e-01
 -1.0539225e-01
 -1.7889901e-01
 -1.4839996e-01
  4.2967263e-01
 -1.6616310e-01
 -2.4566717e-01
  1.8051754e-01
 -1.6794197e-01
  5.0560378e-02
 -1.0825746e-02
  1.7031062e-01
 -6.1248016e-01
  9.5969707e-01
 -4.9435404e-01
 -2.2691753e-02
 -6.9664210e-02
 -5.9990293e-01
 -7.4676901e-01
 -5.5296546e-01
  5.8456552e-01
  9.8763034e-02
  1.2917618e-01
  4.0801269e-01
  3.1042439e-01
  6.4810967e-01
 -2.0365307e-02
 -5.8535796e-01
 -7.4826606e-02
  2.3208974e-01
 -8.5514206e-01
 -1.2732080e-01
  9.8917049e-01
  1.8746531e-01
  5.5033070e-01
 -9.1744037e-03
 -1.4193769e-01
  9.0916067e-02
  1.5049249e-01
  1.8660747e-01
 -3.5886461e-01
  2.9308456e-01
  7.1071267e-01
  4.9976423e-01
  1.6031738e-02
  1.3276068e+00
  5.3111896e-02
 -4.4396862e-01
 -8.1406647e-01
 -5.1085103e-01
  6.0733438e-01
 -4.0213302e-01
  1.6956306e-01
  9.6681893e-01
 -5.4217744e-01
 -9.9363551e-03
  7.1030304e-02
 -2.1658844e-01
  1.2095278e-02
 -7.3172748e-02
 -5.5955619e-01
 -7.1858324e-02
  2.1595024e-01
 -8.2903430e-02
  1.1843723e-01
 -7.0674688e-01
  1.9685728e-03
  1.1983028e-01
  2.9566931e-02
 -2.8993359e-02
 -8.7034804e-01
  1.3067031e-01
  5.6164157e-02
 -5.8035228e-02
  1.0884138e-01
 -1.4036731e-01
 -1.8831403e+00
 -6.1082697e-01
  1.2608109e-01
  3.0488119e-01
 -6.5236092e-02
 -1.7479291e+00
  1.6856441e+00
 -1.5057531e-01
  8.6973935e-01
  2.8412439e-02
 -1.3308311e-01
  1.9314642e-01
  7.0987773e-01
 -5.2821893e-02
  3.3713913e-01
 -9.0628290e-01
  3.3712149e-01
 -3.2812729e-01
 -1.3797781e+00
  1.2800556e-02
 -6.0269743e-02
  2.9236948e-02
  9.6724391e-01
 -3.1106910e-01
 -7.1304381e-02
  1.7347411e+00
 -3.7598425e-01
  1.8317918e-01
  3.6465771e-02
  2.4073045e-01
 -1.4028766e-03
 -5.0371259e-01
 -1.3308659e-01
 -1.9419712e-01
  2.3289053e-02
 -1.4883971e-01
  1.0999568e-01
  4.9238265e-03
 -6.9153935e-02
  1.9948456e-01
 -2.9110935e-01
  8.2150869e-02
  3.6201599e-01
 -1.9923348e+00
  1.0911158e+00
 -1.4911823e-01
  5.2463609e-01
  2.0044978e-01
  3.1830299e-01
  2.1519443e-01
 -2.6996273e-01
 -1.3182715e-01
  1.6149509e-01
 -2.8632003e-01
  6.4735454e-01
 -6.9966871e-01
  7.2608605e-02
 -3.9105918e-02
 -9.8755980e-01
 -1.7196877e-01
  6.3121027e-01
 -3.4898198e-01
 -4.0565571e-01
  1.3903061e-01
  4.4407693e-01
  9.7915959e-01
 -5.9653535e-02
 -4.4978049e-02
 -3.1178070e-02
 -8.5469890e-01
  1.7687817e-01
  7.3320591e-01
  2.2719927e-01
  1.4646669e-01
  6.1404991e-01
  1.3397281e-01
  7.0980823e-01
  6.4972527e-02
 -1.6560745e-01
  2.2115839e-01
  2.4287003e-01
 -2.4973325e-01
  1.3275282e+00
  5.6040704e-01
 -3.6314872e-01
  8.2313314e-02
 -6.1274436e-03
  7.8431562e-02
  5.5912024e-01
 -4.8264605e-01
  3.6792618e-01
  4.0178093e-01
  2.2920817e-01
  1.3694292e-01
  7.8409627e-02
 -2.7208301e-01
 -6.5665716e-01
  4.9871724e-02
  3.5766688e-01
  2.9911706e-01
 -1.6877194e-01
  2.5773355e-01
 -5.3051496e-01
  5.4813308e-01
  2.5396064e-01
  1.6972835e-01
 -4.5227565e-02
  2.4930392e-01
 -1.1614935e-01
  2.1696170e-01
 -7.0643622e-01
 -1.8589166e-01
 -5.3735089e-01
  1.5293421e-02
 -3.3237883e-01
 -8.0352694e-02
 -1.4811482e-01
  6.7360356e-02
  8.1121065e-02
 -3.7441036e-01
  1.7739730e-01
 -1.3321384e-02
  4.8950973e-01
 -8.9336447e-02
 -3.3363861e-01
 -2.3734393e-02
 -2.9791105e-01
 -3.1199482e-01
 -8.2805747e-01
  3.1634882e-02
 -2.3858151e-01
  3.3395997e-01
  1.0714245e-01
  5.2630305e-01
  2.6538217e-01
 -5.8298844e-01
  1.8481304e-01
  2.8625133e-03
 -1.9394745e-01
 -3.7369129e-01
 -2.5283821e-02
 -4.0375575e-01
  6.7651117e-01
 -4.6639047e-03
 -3.2517472e-01
 -1.8577015e-01
  1.2395163e-02
  6.4313519e-03
  1.4210752e-01
 -9.4786592e-02
 -2.9598309e-02
 -2.8578657e-01
  5.2051928e-02
  6.9231761e-01
  2.9728763e-02
 -1.2352591e-01
 -1.7019701e+00
  1.0924727e-01
  4.8403376e-01
 -2.8673500e-01
 -4.2438734e-01
  3.8501361e-01
  1.1027560e-01
 -3.6261612e-01
 -7.6992935e-01
 -1.4012751e-01
 -5.0145078e-02
 -1.6657260e-01
 -9.4011463e-02
 -2.3991220e+00
 -2.9184151e-01
  2.9666960e-01
 -4.0506172e-01
 -1.7768246e-01
  5.7137495e-01
  7.6693785e-01
  3.7680936e-01
  3.6190119e-01
  7.1434751e-03
 -3.6372580e-02
 -5.4418290e-01
 -7.8586400e-02
 -7.8306884e-01
 -9.8450311e-02
 -3.1925404e-01
 -1.1794657e-01
 -2.2508503e-01
  7.3715633e-01
 -1.3699892e-01
 -7.3035157e-01
 -1.3841548e-03
 -1.0820860e-01
  4.4258130e-01
 -2.4162361e-01
  4.1598380e-02
  3.9293036e-01
  1.3482679e+00
  1.1443183e-01
  3.0596006e-01
  4.2246293e-02
  8.0247186e-03
  1.0157000e-02
  2.1811883e-01
 -2.8625286e-01
  1.8508749e-02
  1.2756115e-01
 -2.2756305e-01
  1.8046415e-01
  2.3253675e-01
  1.2443002e-01
  1.3979451e-03
 -2.1835457e-01
  8.3223945e-01
  7.3183018e-01
 -1.8931709e-01
  2.8076643e-01
 -7.4759148e-02
  5.3021061e-01
  3.9000040e-01
  1.2391973e-01
  1.2092855e+00
  3.2420018e-01
  5.3479731e-01
  3.7497830e-01
 -1.3128417e+00
  1.3427246e-01
  2.0354784e-01
  1.7301753e-02
 -4.4692621e-02
 -2.4775761e-01
  1.4621128e-02
  2.8080276e-01
  1.8356684e-01
  3.0363965e-01
 -6.2887347e-01
 -1.4940783e-01
  2.6708227e-01
  1.1164038e-01
  1.2265858e-02
  1.9191170e-01
  3.4911674e-02
  4.6597120e-01
 -9.2844963e-02
  1.4058289e-01
 -1.4389023e-01
 -1.8453027e+00
 -2.3303060e-02
  8.4695303e-01
  3.3988109e-01
  1.3086339e+00
 -2.0059630e-01
  1.9010893e-01
  3.7528792e-01
 -5.4396231e-02
 -5.8357574e-02
 -4.8217005e-01
 -4.9670920e-01
  1.3666868e+00
 -4.4241235e-02
 -3.0598590e-01
  5.5908066e-01
  8.8657075e-01
  5.8977287e-02
  2.9946569e-01
  6.1163694e-01
  1.2569951e-01
  4.1439747e-03
 -4.7725087e-01
  2.2818790e-01
 -2.3492636e-02
  8.9298820e-01
  1.2558322e-01
  1.1756469e-02
 -5.9827793e-01
  1.8308593e-02
  6.9481353e-03
  2.3497264e-01
 -3.8847500e-01
 -5.7102883e-01
  8.6298995e-02
 -1.9320698e-01
  2.7264717e-01
 -8.9125082e-02
  2.2977895e-01
  2.1080977e-01
  2.2817727e-02
  1.1021614e-01
 -7.9781108e-02
  4.4142071e-02
  1.1958297e-01
 -7.4372560e-01
 -3.2690842e-02
 -1.0008456e-01
 -2.6072390e-02
 -1.6685630e-01
 -6.8754125e-01
  1.7667982e-01
  2.9189152e-01
  2.3934673e-01
 -9.6349373e-02
  2.5794581e-01
 -3.1541806e-01
 -4.0362790e-01
 -2.5298339e-01
 -3.0373141e-01
  7.1833424e-02
  3.7869710e-01
 -1.6170228e-01
 -2.3212518e-01
  2.4811579e-01
 -1.6012928e-01
 -1.8579797e-01
 -2.0307779e-01
 -2.8504273e-01
  2.1642195e-01
  1.2401480e-01
  3.0365419e-01
 -4.5435857e-02
 -7.3815978e-01
  4.2378511e-02
 -1.9873917e-01
  4.8169607e-01
 -2.8182799e-03
  1.7791605e-01
 -2.3701140e-01
  1.0253217e-01
 -4.4146386e-01
 -9.0174603e-01
  4.5965835e-03
  1.9711511e-01
 -1.1413541e-02
  2.5379878e-01
 -1.6419435e-01
  2.7785748e-02
 -1.1928289e+00
 -4.4381663e-02
  4.1882530e-01
 -7.4257120e-02
 -6.7043585e-01
 -6.1596882e-01
 -1.8873399e-03
  1.4506598e-01
 -7.1428418e-01
 -6.4869821e-01
 -1.3418278e-01
 -3.7058064e-01
 -1.4605072e-01
 -7.5870693e-01
  9.6731834e-02
 -1.7867470e-01
  1.0692468e-01
 -9.2714235e-02
  9.8651841e-02
 -8.6272852e-03
  1.3534394e-01
  3.2376900e-01
  1.4514819e+00
 -3.6627796e-01
 -1.8464783e-01
 -3.8279393e-01
 -3.2112274e-01
 -8.4140189e-02
  6.8426430e-02
 -5.3547567e-01
  2.5097972e-01
 -3.4883776e-01
 -3.0743438e-01
  6.6075072e-02
 -9.1985637e-01
 -2.0279860e+00
 -2.6909479e-01
 -4.7716680e-01
 -5.5736107e-01
  3.8302723e-01
  2.7701633e+00
 -6.6362965e-01
  7.3651485e-02
 -7.6604146e-01
  3.9013171e-01
  9.6676016e-01
 -4.0478162e-02
  1.2102994e-01
  3.5692039e-01
 -1.7303146e-01
 -4.7285676e-01
 -1.1278675e-01
  3.4494931e-01
  9.8172188e-02
 -1.2068000e-01
  7.4800682e-01
  3.2114497e-01
  7.6714480e-01
 -4.0210089e-01
 -1.7392251e-01
 -9.3585610e-02
 -7.2273082e-01
 -1.2634349e+00
  2.4823059e-01
 -5.0156289e-01
  1.3253860e-01
 -1.6066039e-01
 -2.4253848e-01
  1.7604329e-01
  1.5210694e-01
 -1.0423204e-01
  1.4960364e-01
 -2.1824746e-01
  2.8843135e-01
  6.5206587e-02
  1.1462437e-01
  4.0219581e-01
 -1.5771499e+00
  1.4271402e-01
  2.2673631e-01
 -3.4017715e-01
 -3.2830858e-01
 -8.1481546e-01
 -4.1224152e-01
  2.3097350e-01
  9.4763511e-01
  1.1211920e+00
 -4.2588690e-01
 -3.7837309e-01
 -5.7999009e-01
  1.0543662e-01
  2.3540204e-02
 -1.1409298e+00
 -3.8082209e-01
  2.8394043e-01
 -4.0022710e-01
 -4.3928355e-01
 -2.6290038e-01
 -6.4345017e-02
 -2.7982882e-01
  1.0819867e+00
  4.1335106e-01
  7.9107374e-01
 -2.9896092e-01
 -3.6476839e-01
  3.7630367e-01
 -3.5965700e-02
  6.2107223e-01
  3.1585911e-01
 -1.2227236e-01
 -3.0822709e-01
 -1.5665513e-01
 -3.1237705e-02
 -2.6004985e-01
 -8.7663871e-01
 -1.4385653e-01
  7.0370936e-01
 -2.0119645e-01
  2.7388102e-01
 -7.0222044e-01
  1.3506570e-01
  8.2727581e-01
  3.5844885e-02
  4.2329916e-01
  3.3968490e-02
 -3.8692344e-02
 -3.5100259e-02
 -7.3842846e-02
 -1.6991940e-01
  8.0503568e-02
  1.1845657e+00
  1.0486654e-01
 -5.3482909e-02
 -6.2312663e-02
  3.1401786e-01
 -1.1132847e+00
 -6.4161092e-02
  6.7272998e-02
  4.6695960e-01
 -3.4075472e-01
 -8.6058176e-01
 -3.4610745e-02
 -1.1386242e+00
 -3.5217029e-01
 -1.4686021e+00
 -3.0536704e+00
  7.6198526e-02
 -4.5800079e-02
 -7.0029926e-01
  7.1143530e-02
  1.8341912e-02
 -4.7399008e-01
  1.3914721e-01
 -1.2336574e-01
  1.4980031e-02
  7.8792620e-01
  2.9296812e-01
  1.4901860e-02
  9.8952064e-03
  3.4520653e-01
 -9.3173333e-02
 -1.8169069e-01
 -5.5080497e-01
 -6.5996307e-01
 -4.8881683e-01
  3.2098109e-01
  2.4528460e-01
 -1.8277462e-01
  1.9992703e-01
  2.3214174e-02
  1.5955238e+00
 -6.7792334e-02
 -1.9336331e-01
  1.0944474e-01
  2.2645218e-02
 -4.7653481e-01
 -2.2447103e-01
 -2.9446945e-01
 -3.4569335e-01
 -2.1019593e-02
  3.9845444e-02
 -4.4927904e-01
 -2.2775142e-01
  3.4805772e-01
 -2.0870568e-01
  1.3481686e-02
  7.3704159e-01
  1.3907829e-01
 -1.5073961e-01
  2.9187518e-01
 -2.5127444e-01
 -9.7018605e-01
 -2.6658174e-01
 -1.7449081e-02
 -3.2275405e+00
 -3.8352585e-01
  1.4955356e+00
 -2.2494313e-01
 -2.1754839e-02
  1.3830910e-02
 -5.8026862e-01
  6.5313947e-01
  8.3365530e-02
  9.1359305e-01
 -6.0972303e-01
  2.6018646e-01
  1.5187190e-01
  6.4272535e-01
 -9.3429238e-03
  3.4686404e-01
  2.1610055e-02
 -1.2554330e-01
 -1.3543625e+00
  3.1925458e-01
 -2.4960868e+00
 -1.7295964e-01
 -3.5855028e-01
 -1.1037704e-01
 -3.8371950e-01
  2.9777423e-01
  6.1279285e-01
 -1.0654058e+00
  1.8298338e-01
 -9.8919404e-01
 -3.5142958e-01
  9.0766348e-02
 -7.9004270e-01
  1.6743628e+00
  6.0463063e-02
  1.9458646e-01
 -1.9594902e-01
 -3.5274544e-01
  2.9423210e-01
 -6.5033518e-02
  1.3977501e-01
  1.5620109e-01
  1.3265732e-01
  2.0569998e-01
  1.2929739e-02
 -1.4347306e-02
  5.2881020e-01
  3.6532465e-01
  1.8748030e-01
 -8.9836794e-01
  2.4397956e-02
 -5.2879192e-02
  8.7889388e-02
  1.3038779e+00
 -2.1415457e-02
  4.3784231e-01
  2.6385632e-01
  8.9038771e-01
 -4.8161883e-02
  2.5737619e-02
 -2.6735073e-01
  8.0555016e-01
 -7.4588323e-01
 -1.9581442e+00
 -1.5092807e+00
  4.6655835e-04
 -2.5442281e-01
  4.2358306e-01
 -1.3296913e-01
 -9.3951739e-02
  2.3151750e-02
  5.4716176e-01
 -4.7380123e-01
 -7.0189960e-02
 -3.5205609e-01
  1.4745758e-01
  7.6416135e-02
 -3.7609494e-01
 -4.8333767e-01
 -1.7456925e-01
 -1.3512828e+00
 -4.0321294e-02
  2.6290560e-01
  1.4413881e-01
 -9.8577535e-01
  4.3498319e-01
  8.0257225e-01
  5.5992478e-01
  2.0497155e-01
 -3.7813520e-01
  4.3717757e-01
  1.1917236e+00
  2.9692841e-01
  1.6178055e-01
 -7.3907626e-01
 -1.2233775e-01
  2.2167282e-01
  5.5075741e-01
 -3.8965365e-01
  1.0329623e+00
  7.9395229e-01
 -2.1638839e-01
 -2.8343955e-01
 -6.9112532e-02
 -6.3027000e-01
  1.3724475e-01
 -3.8031831e-01
  7.6781362e-01
 -9.6703984e-02
 -2.8380430e-01
 -9.3805707e-01
 -7.0845917e-02
  1.3362356e-01
  9.3337737e-02
  7.5134642e-02
  2.8440174e-01
 -2.4551637e-02
  1.2004963e-02
  4.0247625e-01
 -5.6193429e-01
 -3.6397539e-02
 -4.4100799e-02
 -2.3299703e-01
  8.3467059e-02
 -5.2188134e-01
  1.2815724e-01
  5.4412025e-01
 -6.5691091e-02
  8.9058898e-02
  7.5397953e-02
 -3.7591569e-02
  4.6057823e-01
  3.4945276e-01
 -9.8453902e-02
  1.1926831e-01
 -2.6888067e-01
  6.0544205e-01
 -4.5822674e-01
  5.7791013e-01
 -6.8797988e-01
 -1.0410703e+00
  2.2251992e-01
 -1.4973833e-02
  9.1401422e-01
  3.8418289e-02
  3.8634542e-01
 -4.0576968e-02
 -1.9393696e-01
 -6.4393610e-02
 -4.9361888e-02
  2.3617257e-01
 -1.4303076e-01
 -3.7929073e-01
 -2.9294318e-01
 -9.7704065e-01
 -2.7045131e-01
 -1.3733580e+00
 -1.2349387e-01
  1.9882280e-01
 -1.2677073e+00
 -5.3671032e-01
  5.4260337e-01
 -1.4753923e+00
 -2.4915795e-01
 -8.9032669e-03
 -1.4805710e-01
  3.7823108e-01
 -1.2022858e-01
 -3.7873103e-04
  1.1036632e+00
 -1.0719265e-02
  2.3468220e-01
  2.9166716e-01
  3.0736870e-01
  5.4636076e-02
  9.2856520e-01
 -3.5557471e-02
  5.0163221e-02
 -5.3110331e-01
 -1.2511499e+00
  1.3170400e-01
 -1.9113463e-01
  6.8090081e-01
 -1.3581240e+00
  3.3192325e-01
 -4.1961664e-01
 -1.1425452e+00
  1.0423546e-01
 -7.4150717e-01
  1.1964979e-02
  4.8324186e-02
 -2.7359155e-01
 -5.2763116e-01
 -8.6685818e-01
  8.5954124e-01
  2.7877066e-01
 -4.0197831e-01
  1.4001936e-01
 -2.2945561e-02
 -2.4681637e-02
 -6.2611276e-01
 -3.4404692e-01
  1.1667140e-01
 -3.5124683e-01
 -1.6206935e-01
  2.3977870e-01
  3.7236574e-01
 -8.0804986e-01
 -8.5789913e-01
 -1.6968004e-01
 -4.7121030e-01
 -5.6739199e-01
 -2.4063756e-01
  4.6300018e-01
  8.2249272e-01
 -5.9423810e-01
  1.0161641e+00
 -2.6457232e-01
 -1.0543098e+00
  1.2487053e-01
 -6.2103528e-01
  1.2905300e+00
  3.0759373e-01
  9.3486160e-02
 -1.9307109e-02
 -7.3878300e-01
 -5.2393982e-03
 -1.5195504e+00
 -1.5014431e-01
 -4.7986227e-01
  1.8340164e-04
 -4.2072573e-01
 -5.6914848e-01
  1.6890562e-01
  4.3719161e-01
 -3.1561249e-01
  1.4057378e-01
 -1.9892669e-01
  1.2127102e-01
  4.1559353e-01
 -3.1534094e-01
 -8.0387759e-01
 -4.9808726e-01
 -7.2731106e-03
  3.4852698e-01
  4.7459432e-01
  1.7855400e-01
 -1.0689144e-01
 -1.0787799e+00
 -2.2063477e-02
 -2.5767991e-01
  7.7859294e-01
  1.9682081e-01
 -3.8098827e-01
 -1.9020578e-01
  5.9873417e-02
 -1.1075138e-01
  2.5175884e-01
 -1.8045367e-01
  6.2622368e-02
 -4.3189481e-02
 -7.5577098e-01
 -1.1104409e+00
 -1.7800471e-01
 -9.9362373e-01
 -1.8793263e-01
 -8.8486743e-01
 -1.9417633e-01
 -4.0528709e-03
  8.7332463e-01
 -1.4015235e+00
  1.4498196e-02
  2.1909436e-03
  2.7371114e-01
 -3.6848670e-01
  2.5570294e-01
 -5.8395557e-02
  9.2418604e-02
  7.1673885e-02
 -5.0517547e-01
 -1.8174129e-02
  4.3324590e-01
 -4.8867244e-02
 -2.2345009e-01
  6.5944326e-01
 -2.1449780e-02
  4.3591219e-01
  9.9648041e-01
 -1.9973077e-01
 -1.8428093e-01
  1.8198746e-01
  1.2397605e+00
 -8.6950690e-01
  7.6734447e-01
  3.4452471e-01
  2.3892066e-02
  3.4473971e-03
  1.1889514e-01
  2.2423324e-01
 -1.8363118e-01
 -8.3453196e-01
  1.6470300e-01
 -2.0280713e-01
  2.4282224e-01
 -8.5298449e-02
  2.3190708e+00
  3.4494948e-01
 -3.9512566e-01
  2.2123974e-02
 -8.7933756e-02
 -1.2806050e-01
  4.2757243e-01
  4.6673901e-02
  1.1376810e-01
  4.7372398e-01
 -4.6406910e-02
 -2.1560359e+00
  1.7291862e-01
 -5.0413585e-01
 -1.8982214e-01
  1.8709646e-01
  1.1660821e+00
  8.5632598e-01
 -3.2828417e-01
 -6.2958795e-01
 -2.5782737e-01
  3.1205388e-02
 -2.0225802e-01
 -6.1376631e-01
  8.0241668e-01
 -4.0703040e-01
 -1.5955155e-01
 -2.3535794e-01
  2.4588175e-01
 -2.3864296e-01
  5.7010508e-01
 -2.1621430e+00
  2.8605717e-01
 -4.1801412e-02
  3.3548310e-01
  2.0390302e-01
 -4.4935378e-01
  2.5814828e-01
  3.2973072e-01
  1.9706838e-01
 -1.4710982e-01
  1.0279723e+00
 -5.7837319e-01
 -2.4420173e-01
  3.1311905e-01
 -1.6981800e-01
  4.2920107e-01
 -3.6235577e-01
 -6.8400091e-01
 -2.5666663e-01
 -2.8184733e-01
 -1.2251620e-01
  5.0155643e-02
 -1.9304034e-01
 -1.6255207e-01
 -2.0423858e+00
  1.3667687e+00
 -3.7894955e-01
 -1.3327868e-02
 -8.5034645e-01
  2.2607116e-01
 -8.5840517e-01
 -1.7511550e-01
 -4.3882981e-02
 -6.2881237e-01
 -6.7438543e-01
 -8.1341892e-01
  4.2928778e-02
  1.0740610e-01
  3.2540944e-01
 -1.3390124e-01
 -3.5109696e-01
  4.6811733e-02
  5.1266336e-01
  1.5705858e-01
 -1.5087030e+00
 -1.4792471e-01
 -4.6120360e-02
  1.6647778e-01
 -1.5185422e-01
 -1.1516945e-01
 -3.1057531e-02
 -1.2379976e-01
 -6.5670051e-03
 -3.8142685e-02
 -2.3972531e-01
 -1.1307298e-01
 -6.8975799e-02
 -8.2319403e-01
  4.1254801e-01
  5.4600573e-01
  3.0279040e-01
 -5.8826047e-01
  3.6776051e-01
  5.7453388e-01
  3.8113773e-02
  1.7204395e-01
  1.2275378e-02
  1.8202627e-01
 -7.5691259e-01
 -6.1728871e-01
  3.6223274e-02
 -3.4133814e-02
 -1.1241969e-01
 -1.5478805e-01
  1.9016947e-01
 -5.8788586e-01
  5.4774219e-01
 -6.4136103e-02
  2.0178087e-01
 -2.6391301e-01
  1.5832322e+00
 -8.1908506e-01
 -4.3328039e-02
 -7.1992621e-02
  2.5353357e-01
 -1.3149323e-01
 -2.4772349e-01
  2.9391795e-01
  3.1265095e-01
 -6.1416769e-01
 -2.1676119e-01
 -3.2237113e-02
  1.2260669e-01
  1.2289392e+00
  3.0757695e-01
 -1.7990442e-01
  2.0261974e+00
 -4.5870802e-01
 -1.0974019e-01
 -7.4671917e-02
 -8.4532663e-02
 -1.6495831e-01
 -7.4009955e-01
  2.2635661e-01
 -3.0558586e-02
 -6.8397216e-02
  2.6770699e-01
 -9.5459893e-02
  2.4517587e-01
 -9.2357382e-02
 -1.5754607e-01
  6.2266105e-01
  6.0554379e-01
  1.0460333e+00
 -1.0923509e-01
  1.1013451e+00
 -1.2156776e-01
 -1.3040083e-02
  1.1130251e-01
  9.4493204e-01
 -1.2329857e-01
  3.9151341e-02
 -1.6263820e-01
  2.4924833e-01
  1.1212382e-01
 -1.6394854e-01
 -4.1346844e-02
  6.0637768e-02
  2.3034059e-01
  5.5128539e-01
  2.4704039e-02
 -5.3899276e-01
 -4.1654490e-02
 -1.5850036e-01
  3.5982817e-01
 -5.1844728e-01
 -6.2214690e-01
 -1.5425004e-01
  1.7814022e-01
  1.3191711e+00
  4.3108287e-01
  6.5896772e-02
 -5.6658976e-02
 -2.0623009e-01
 -1.8328975e+00
  9.1199152e-02
  2.8649905e-01
 -2.2814314e+00
 -4.6203941e-01
 -2.3003721e-01
 -5.1076051e-02
 -2.6978663e-01
 -5.1512450e-01
 -4.0176931e-01
  5.5231607e-01
 -2.9078323e-01
 -3.0122745e-01
  1.4887651e+00
 -8.4582818e-01
  1.7752622e-01
 -5.7614732e-01
  8.7967366e-01
 -2.0339360e+00
  2.3518422e-01
  1.0329137e+00
  1.5960583e-01
 -1.9612423e+00
  4.0345550e-01
 -2.0784242e-01
  1.0976310e+00
 -3.0030167e-01
 -8.7029970e-01
 -1.4216010e-01
 -2.6844755e-01
 -1.1574970e+00
 -3.5224149e-01
  2.5871912e-01
 -1.1757047e-01
 -3.7966120e-01
 -3.1211713e-01
  1.1361162e-01
  5.5724871e-01
  2.5843215e-01
  1.9770652e-01
 -2.4029868e-02
 -2.0886368e-01
 -4.2864811e-02
  3.0716872e-01
 -5.3532231e-01
  5.1055419e-01
 -3.8809744e-01
  3.3486071e-01
  3.8989684e-01
 -5.6272574e-02
 -1.0526015e-01
  3.5557568e-01
  6.1854936e-02
 -3.7667358e-01
 -1.1714839e+00
  1.2758995e+00
  2.0261820e-01
 -1.2553862e-01
  5.5141914e-01
  4.0176147e-01
  1.0856048e+00
  5.2229291e-01
 -4.1568270e-01
 -5.3096753e-01
  5.8035113e-02
 -3.8740140e-01
 -4.2699367e-01
 -6.4441729e-01
  3.8568296e-02
 -1.4687373e-01
 -1.2425053e-01
 -8.9993915e-03
  1.4114493e-01
 -2.8124112e-01
  1.7057765e-01
  2.9469272e-01
 -5.2039236e-01
  1.1970420e+00
  4.5666280e-01
  4.1199434e-01
  1.4084250e-01
 -1.5398179e-01
  2.4253151e-01
  6.4568979e-01
 -4.4843137e-01
  9.1460034e-02
  2.4967018e-01
 -6.1645591e-01
  5.0126290e-01
  6.1817163e-01
 -3.9375815e-01
 -7.7966130e-01
  2.1635243e-01
  1.7028740e-01
  2.4212049e-02
  2.2405143e-01
  3.7435964e-02
  7.4623173e-01
  1.0377702e-01
  5.1085877e-01
 -3.9004043e-01
 -4.1160461e-01
 -1.0721469e-01
 -6.5199293e-02
  2.1043593e-01
  1.7099370e-01
 -4.4524464e-01
  4.0928173e-01
  4.4588748e-01
  2.0865759e-01
 -2.8355673e-01
  1.1828029e+00
  1.7611747e+00
 -5.4482281e-01
  1.0211593e+00
 -1.3507173e+00
 -8.9511715e-02
  6.0134780e-01
 -1.2442491e+00
 -1.1179923e+00
  7.9574221e-01
 -1.8160683e-01
  6.6967338e-02
  8.3852100e-01
  3.9784354e-01
 -2.0206654e-01
  5.1389128e-01
 -5.7726645e-01
  2.2758438e-01
 -5.0789338e-01
  1.7851543e-01
 -1.9604307e-02
 -7.9215223e-01
 -4.1414422e-01
  5.9678651e-02
 -6.9164783e-01
 -1.7927146e-01
 -2.0043516e-01
 -1.0374800e-01
 -5.3890657e-01
 -1.1232861e-01
  1.1355408e-01
 -2.2191341e-01
 -1.5788571e+00
  1.0623117e-01
 -1.5360020e-01
 -7.2328168e-01
  1.0264914e-01
 -4.2407441e-01
  9.8950851e-01
 -4.0455145e-01
  1.9154198e-01
 -5.7347155e-01
  1.1645989e-02
 -4.9633190e-01
  4.3488333e-01
  3.0814311e-01
 -4.7708672e-02
  1.0504782e-02
 -3.4602100e-01
  5.2402848e-01
  4.6903872e-01
 -2.6592025e-01
  2.2262840e-01
 -9.3601656e-01
  4.3952236e-01
  3.6585209e-01
  1.0696852e-01
  8.5951567e-02
  5.3960288e-01
 -1.0777723e+00
  7.2729635e-01
  1.7608681e-01
  2.6986130e-02
 -3.2087401e-02
  6.3035196e-01
  2.6209670e-01
  8.7357135e-03
 -3.0028135e-01
 -1.9365089e-01
 -4.7806031e-01
  6.7223422e-02
 -9.8345518e-01
  1.1442181e-01
 -3.1190747e-02
 -4.6461144e-01
  4.1002458e-01
 -1.5099859e-01
 -1.1051767e-02
 -3.2090288e-01
 -4.3394962e-01
  5.0612956e-01
 -2.2579440e-01
 -4.3568537e-01
  6.4653292e-02
  5.4031765e-01
 -9.4790030e-01
 -2.2189565e-01
  4.6358612e-01
  3.0279529e-01
  5.6579214e-01
 -5.7998762e-02
  1.5710784e-01
 -5.4530263e-02
  2.5490707e-01
  1.1027085e-01
  3.3203056e-01
  3.4446687e-01
 -2.5702810e-01
  1.2402907e-01
  4.7951946e-01
  1.7691137e-01
 -1.5697426e-01
  9.8687537e-02
  6.7491645e-01
 -2.0643732e-02
  6.5573400e-01
 -2.9673651e-01
 -6.0604399e-01
 -3.9998934e-01
  2.6321691e-01
  3.3492997e-01
 -1.6047642e-01
  4.3620516e-02
 -5.7539999e-01
  1.3116124e-01
  4.3443480e-01
  1.2244217e-01
 -7.9439300e-01
 -1.3527430e-02
 -1.4297695e-01
  9.9752240e-02
  3.4738578e-02
  1.3159397e-01
 -1.4504126e+00
 -2.0992827e-01
  1.9075143e-01
 -4.6536547e-01
  1.8895736e-01
  6.6985101e-01
 -5.0321525e-01
 -2.2295509e-01
 -8.7859607e-01
  3.8217884e-02
  1.7799050e-01
  2.9100141e-01
  9.9811666e-02
 -6.4504093e-01
 -3.5172749e-01
 -7.2247736e-02
 -2.1611135e-01
  1.2593132e-01
  1.2918448e-01
 -5.9112914e-02
  2.0380758e-02
 -7.8451759e-01
 -1.5716264e-02
  9.6983775e-02
 -1.7551696e-01
 -5.9434569e-01
  1.2887288e+00
  8.3550394e-02
 -6.7137748e-02
  3.5297912e-02
 -4.4003049e-01
 -1.1758024e-01
  1.5346496e-01
 -1.0746120e+00
  2.0707700e-01
 -5.9048259e-01
  5.8688182e-01
 -1.6382486e+00
 -5.1108217e-01
 -2.5000107e+00
  1.3750547e-01
  1.1892641e+00
 -7.2691220e-01
  2.8512794e-01
 -4.3279919e-01
 -7.3910362e-01
 -7.2160885e-02
  1.1605669e-03
 -8.4825553e-02
  2.8476900e-01
  4.3308738e-01
 -1.3949800e-01
  3.1465787e-01
  8.4063299e-02
 -1.6758835e-01
 -1.4211892e-01
 -2.8701994e-01
  2.8305167e-01
  7.2997592e-02
 -1.6971099e-01
 -1.7622846e-01
  4.0367433e-01
  1.0081640e-02
 -1.3547708e-01
  2.4892768e-01
  4.8029491e-01
  3.0179685e-01
  6.2617785e-01
  7.6171562e-02
 -9.1188759e-02
  3.7889972e-01
  1.7859957e-01
 -4.1064823e-01
  1.9056860e+00
  8.0806875e-01
 -8.5400641e-02
  2.2017147e-01
  1.7146851e-01
 -2.3620358e-01
 -1.0495099e-01
 -1.3397057e-01
 -2.2048143e-01
  2.7271631e-01
  5.2620244e-01
 -7.5925696e-01
  1.9671078e+00
 -5.9684849e-01
  1.9966651e-01
 -9.4626419e-02
 -1.7946808e-01
 -1.0193032e+00
  1.7818344e-01
 -4.1523469e-03
  1.8110697e-01
  2.6502995e+00
 -3.6341029e-01
  2.1697041e-02
  7.6782680e-01
 -4.5395333e-02
 -4.5954868e-01
  6.3366450e-02
  1.9301872e-01
  9.2475347e-02
 -1.5850005e+00
 -2.2768749e-02
  5.6684952e-02
 -6.6397816e-02
  2.6579574e-02
 -6.3052736e-02
 -1.8855825e-01
  5.1852536e-01
  2.1931329e-01
  6.5916479e-02
 -1.5631764e-01
 -2.3807418e-01
 -4.7951213e-01
 -4.5747808e-01
  2.4106491e-01
  6.9638616e-01
 -1.0602843e-02
 -8.6625919e-02
  8.5094756e-01
 -9.9549800e-02
 -5.3060395e-01
  2.5726208e-01
 -4.2853883e-01
  1.3240462e-02
 -3.6140305e-01
  9.6970201e-03
 -5.3801846e-02
 -8.1126109e-02
 -4.0056053e-01
  3.6952254e-01
  5.3002521e-02
 -6.7313477e-02
 -1.1905574e+00
 -5.5234212e-01
  8.2022089e-01
  7.1849781e-03
 -7.4159116e-02
 -2.5129927e-02
 -1.8773052e-01
 -7.3533863e-01
 -1.1254647e-01
 -9.6270365e-01
 -7.1180053e-02
  3.4824647e-02
  1.6958427e-01
  1.8889214e-01
 -3.0838943e-01
 -3.2914639e-01
  8.2244956e-01
 -1.2269750e-01
  2.8042519e-01
 -3.0677170e-01
 -3.4395203e-02
  1.9330481e-01
 -3.6502120e-01
 -2.7661788e-01
  1.4016001e-01
  3.0857790e-01
 -2.0911369e-01
  1.3943228e-01
 -2.1706409e+00
 -1.1271234e+00
  1.2588076e-01
 -4.1237019e-02
  1.2378877e-01
  2.0807143e-01
 -4.4137985e-01
  3.0560490e-01
 -1.7545964e+00
 -3.0501553e-01
  6.1604965e-01
 -2.1684237e-01
 -2.3293991e+00
  2.9106336e-02
  1.2604633e-01
 -1.5239780e-02
 -8.8977115e-03
 -3.1807214e-01
 -3.5725901e-01
 -6.9214767e-01
 -7.7433664e-01
 -5.8403399e-02
 -7.1718270e-01
  2.3593879e-03
 -1.8466312e-02
  5.2689392e-02
 -3.4544590e-01
 -1.1135933e-01
 -3.8215795e-01
 -7.1233523e-01
  1.2102120e-01
  5.4091549e-01
  4.5241326e-01
 -1.6225301e-01
  1.8784091e-01
  4.2189047e-02
 -2.2482278e-02
  1.2630231e+00
 -3.0223912e-01
 -9.2784487e-02
  1.1063283e-02
 -2.7578843e-01
 -3.7050664e-01
 -1.5229741e-01
  4.7612894e-02
  4.0108588e-01
 -2.7485049e-01
 -4.7358975e-01
 -1.7575467e+00
  1.6910855e-01
  1.5925069e-01
 -2.6798889e-01
  3.5577145e-01
 -1.5070601e-01
 -3.1233868e-01
  1.1382619e-01
 -4.3082455e-01
  3.2105854e-01
  4.0225315e-01
 -1.7936459e-01
  5.9753776e-01
  6.9340223e-01
  1.5013841e-01
  2.0873497e-01
  1.3568461e-01
  1.9910908e+00
 -2.5383115e-01
 -2.1295473e-01
 -6.2228568e-02
  1.2850436e+00
  1.0771859e-01
 -7.7094895e-01
 -1.2683441e-01
 -2.6810767e-02
 -2.6983714e-01
  1.8392727e-01
 -2.0813788e-01
  1.5519936e+00
  4.8305142e-01
  1.2151480e-01
 -4.2453700e-01
  3.6609448e-02
 -6.2394748e-03
 -1.5057074e-01
 -1.5006970e-01
 -1.6061078e+00
  5.0129992e-01
  6.0917247e-02
  3.8647661e-03
 -4.2276636e-01
 -7.8254603e-02
  3.6415961e-01
  2.3838034e-01
 -5.0278461e-01
  7.8130776e-01
  6.0776633e-01
 -1.4437599e-01
 -1.0979073e-01
 -1.0581282e+00
  2.7453715e-01
  3.2459149e-01
 -4.9039982e-02
 -2.3650828e-01
  1.1586748e-01
 -3.0802201e-02
  7.1424037e-01
  1.7130105e-01
  2.7939243e-02
  3.7436211e-01
 -2.8126650e-02
  2.0911372e-01
 -2.4782386e-01
  1.8586297e-01
  2.0166884e-01
 -1.8945663e-01
  7.4735755e-01
 -4.4246706e-01
  4.7989568e-01
 -1.9745687e-01
 -2.4307257e-01
  6.2465662e-01
  3.6103722e-01
  2.3418443e-02
 -4.3259224e-01
  5.9953365e-02
  6.9964981e-01
  4.6869072e-01
 -8.2030773e-01
 -7.1760410e-01
  3.3070102e-01
 -2.1902718e-01
  3.7916422e-01
  1.2814431e-02
  8.2696587e-02
 -1.4689337e-01
 -5.2365053e-01
  4.1035196e-01
 -1.3540916e-01
  4.6285084e-01
  1.3423988e+00
  6.0468334e-01
  2.6400840e-01
 -7.1436018e-02
 -1.3219800e+00
 -4.0692586e-01
  5.0073946e-01
 -1.1772040e+00
  2.2165780e-01
  8.7254219e-02
 -1.0244827e-01
  5.6037444e-01
  2.7737185e-01
 -4.0779941e-02
 -9.8282648e-03
 -2.7832603e-01
 -1.4814191e-01
  3.7738600e-01
  2.7501285e-01
 -2.4742366e-01
  2.7213907e-01
 -8.3998911e-02
  5.5914164e-01
 -4.2187876e-01
  4.3713194e-01
  4.7496802e-01
  6.7736642e-03
 -7.4681401e-02
  6.7534387e-01
  6.3324386e-01
  5.3308077e-02
  7.5139336e-02
 -1.1287951e+00
  7.0183530e-02
 -2.6578072e-01
 -3.4510592e-01
 -1.8360825e-01
  3.6125743e-01
 -7.9180080e-01
  2.5920394e-01
 -4.4213927e-01
 -2.8981574e-02
 -2.4374937e-01
 -2.9971999e-01
 -2.3593779e-01
  7.1831465e-02
 -1.7142607e-01
 -1.6229264e-01
 -9.3021780e-02
  2.5649715e-02
  4.9688348e-01
 -2.5798302e-02
 -1.3059047e-01
  6.1896317e-02
 -1.7227277e-01
  2.5363237e-01
  9.3978502e-02
  1.3346694e-01
  1.0804992e+00
 -8.9462854e-02
  3.8517517e-01
 -5.8837909e-02
 -3.0497026e-01
 -4.9296600e-01
 -2.9530552e-01
 -1.3070659e-01
  5.7085383e-01
 -9.4201463e-01
 -1.8998094e-01
 -1.8701961e+00
 -4.0872720e-01
  4.4764870e-01
  1.0509089e-01
 -8.0033636e-01
  1.9599749e-01
  1.3935927e-01
  1.5279265e-04
  4.5330462e-01
 -1.6143465e-01
 -3.2465228e-01
  2.0212954e-01
  5.0014104e-03
  5.1228082e-01
  2.9790610e-01
 -2.0937396e-03
 -1.5371396e-01
  3.3496085e-01
  1.9483373e-01
 -1.5591918e-01
  3.3023894e-01
  3.6607033e-01
 -5.6634903e-01
 -4.8751913e-02
  4.3363866e-01
 -2.9554588e-01
 -9.6040118e-01
 -1.0515086e-01
  1.6870373e-01
  3.2831517e-01
 -6.3934505e-01
 -7.6132923e-01
  1.5277474e-01
 -2.2489183e-01
  3.9433485e-01
 -3.3295649e-01
 -6.2482661e-01
 -7.3968762e-01
 -1.7752733e-02
  2.5146950e-02
 -1.8526928e-01
 -3.8785017e-01
  7.8680569e-01
  3.5351658e-01
  2.7870557e-01
  9.6718425e-01
  1.2498047e+00
 -9.4591111e-01
 -4.0459496e-01
  9.9312198e-01
  2.0320894e-01
 -1.1541213e-01
  2.9582918e-01
  2.5159383e-01
 -2.2404444e-01
  7.0324339e-02
  8.5859105e-02
  2.1147671e-01
  2.7961612e-01
 -1.2879543e+00
  4.0320179e-01
 -5.2126712e-01
  1.9814554e-01
 -7.5194430e-01
 -1.3733250e-01
  4.7972519e-02
 -6.0667705e-02
 -5.4664689e-01
 -1.9624124e-01
 -3.0921316e-01
 -4.7573721e-01
  6.6449657e-02
 -3.2877454e-01
  2.1222973e-01
  1.1037034e+00
 -2.7218392e-01
  3.1439185e+00
 -1.9242474e-01
 -2.0351197e-01
 -5.9301920e-02
  1.6775684e-01
  9.1384196e-01
  1.5232470e-02
  1.2530518e-01
 -4.7892189e-01
  4.5874667e-01
 -5.2531242e-01
 -1.4503211e-01
  1.3419895e-01
 -6.6818953e-01
 -1.6405044e+00
 -4.9181461e-02
  1.1194018e-01
  2.7743024e-01
  1.1711599e-01
 -1.1286926e+00
  1.1999372e-01
 -2.5669024e+00
 -1.3829361e-01
  7.6960444e-02
 -1.4712057e-01
  1.0686447e-01
  1.2558588e-01
 -3.7777215e-02
 -9.4699405e-02
 -1.0120343e-01
  5.5183196e-01
 -3.0174962e-01
 -1.9758335e-01
  2.4815315e-01
  6.2298769e-01
  2.7526712e-02
 -5.4218485e-03
  8.6425297e-04
 -2.4165269e-02
  9.6815035e-02
 -4.6544269e-01
 -1.1006741e-01
 -1.4824882e-01
  3.6885757e-02
 -4.6557527e-02
  1.7947438e-01
  5.2158803e-01
  3.1428909e-01
  4.6144685e-01
 -8.1490718e-02
  2.2671664e+00
  4.2809796e-01
 -1.4627235e+00
 -1.3102522e-02
 -3.1437993e-02
  6.2875867e-01
 -2.7956271e-01
  1.7404155e-01
  4.6764821e-01
  3.6023003e-01
  1.6604984e-01
 -2.7683249e-01
  9.0179741e-03
 -1.9649258e-01
  5.0786813e-03
 -2.7885547e-01
  2.5827035e-02
 -6.5332675e-01
 -1.4036107e-01
  1.1056975e-01
 -2.8184205e-01
 -2.5818399e-01
  5.8299476e-01
  4.6654373e-02
  6.5098178e-01
 -7.0930082e-01
 -3.8957298e-01
 -8.3225012e-01
  8.9576162e-02
 -1.3189998e-01
 -2.1349932e-01
 -1.5136585e-01
 -6.9809341e-01
  1.3476222e+00
 -5.6389117e-01
 -1.2506371e+00
  7.5430310e-01
 -1.9033816e-01
 -2.3253789e-02
  3.5370219e-01
  3.8733956e-01
 -1.1047056e-02
 -2.7709326e-01
  2.6071498e-01
  1.8786509e-01
 -2.6883575e-01
  1.0450051e+00
 -5.6458771e-01
 -7.5392014e-01
 -1.3292015e-03
 -3.0271524e-01
  2.8287691e-01
  2.4390450e-01
  5.1709944e-01
 -5.0525045e-01
 -5.2531886e-01
 -3.1327453e-01
 -2.9667553e-01
  4.2006359e-01
  7.2784895e-01
  5.1731300e-01
  6.9162413e-02
 -3.5266399e-02
 -7.9953825e-01
  5.3798211e-01
 -2.3403037e-01
 -3.9242157e-01
 -1.4778742e-01
 -7.8067368e-01
  3.4023520e-02
 -1.2275486e-01
  1.1817715e-02
  3.0560318e-01
  1.6033746e-01
  1.6653256e-01
  1.9363515e-01
  6.8966776e-01
 -1.0418107e-01
  7.1817797e-01
  9.1912580e-01
 -9.0401538e-02
 -4.4972372e-01
  2.0145018e-01
 -3.1260559e-01
  5.6441993e-02
  9.0487158e-01
 -6.1795563e-01
  4.1322714e-01
  6.6860932e-01
  8.8608736e-01
 -2.1257107e-01
 -4.1496876e-01
 -3.4532458e-01
  6.6725329e-02
  5.8013988e-01
  7.6489347e-01
 -4.4578278e-01
  2.1962415e-02
  5.7262355e-01
  3.8110733e-01
 -1.1950208e-01
 -3.0701411e-01
 -2.0189917e-01
  8.2260692e-01
 -6.6177286e-02
 -2.9479872e-02
  1.0397751e-01
 -5.3774279e-01
  3.3796766e-01
  2.6702407e-01
  6.6555575e-02
 -2.5325960e-01
  3.7501347e-01
 -3.9986965e-01
 -6.7867500e-01
 -8.8160276e-02
 -1.1728708e+00
 -7.4698210e-01
  1.9070300e-01
 -2.7474415e-01
  1.1891767e-01
 -1.8409124e-01
 -1.5886768e+00
 -7.3564380e-01
 -9.4582886e-02
  4.1766307e-01
 -4.4639516e-01
 -1.3976943e-01
  1.1681713e-01
 -4.7192821e-01
 -2.2629103e-01
  1.3326406e-01
  2.3610707e-02
  1.7011980e+00
 -1.4034353e-01
  3.4655914e+00
  3.9115089e-01
  6.6902977e-01
 -3.7013423e-02
  3.4192465e-02
 -1.4596985e-01
  1.6264382e-01
 -8.6789405e-01
 -1.7424305e-01
  9.8814838e-02
  1.4983559e-01
  1.0260858e-02
 -6.0736036e-01
 -5.6030244e-01
  2.3024755e-02
  7.4229300e-01
  3.0496314e-01
  5.1037204e-01
 -7.0795798e-01
 -5.2687149e-02
 -5.2047286e-02
 -1.5808702e-01
 -7.8970325e-01
 -1.3148503e+00
  2.0466523e-01
 -3.6091728e-03
 -3.8031504e-02
  4.5257038e-01
 -4.7481501e-01
 -1.7960049e-01
 -4.5983080e-02
 -2.4429371e+00
 -7.7864748e-01
  2.5568196e-01
  6.1307770e-01
 -2.8689685e-01
  5.5786841e-02
 -2.8683573e-01
  4.1804975e-01
  1.2064495e-01
 -2.4820846e-02
  9.8121859e-02
 -3.8555589e-01
 -2.6947841e-01
 -2.0465359e-01
 -1.0162536e-02
 -2.7271770e-02
  1.7556002e+00
  8.0414735e-02
  2.2276418e-01
  1.1199987e+00
 -9.2605472e-02
  5.8183055e-02
 -2.0358478e-01
  4.4881684e-01
 -8.2728736e-02
 -9.0275168e-02
 -3.6701238e-01
 -4.4348706e-02
 -3.2610697e-01
  8.8851266e-02
  3.0591607e-01
  2.7111067e-02
  3.2770559e-01
 -1.1142667e-01
 -2.8180537e-01
 -4.2955685e-01
  1.5815297e-01
 -6.6971004e-02
  3.5302213e-01
  7.6456177e-01
  9.4948784e-03
 -5.1105875e-01
  2.5082144e-01
  3.9852807e-01
 -1.1700244e-01
 -6.8563968e-02
 -5.4797482e-01
  2.3721746e-01
 -1.8156973e-01
  1.5249962e-01
  5.4771560e-01
 -3.4628488e-02
 -3.3479071e-01
 -1.9851588e-01
 -2.0749971e-01
  4.8538741e-01
 -1.0017508e-01
  1.7373365e-01
  5.6786734e-01
  1.1913352e-01
  3.7871155e-01
  1.3120352e-02
  1.7937523e-01
  5.3508496e-01
  1.3672553e-01
 -6.0920161e-01
  2.1562979e-01
  5.2130818e-01
 -1.6961068e-01
 -2.2938965e-01
 -6.8210852e-01
 -4.6826202e-01
 -1.6884945e-02
 -4.2827162e-01
 -2.0228397e-02
 -3.1863868e-01
  1.4040160e-01
  1.6533071e-01
 -3.9057320e-03
 -2.1565530e-01
  1.6594368e-01
 -2.3419152e-01
 -1.5216711e-01
  2.5135778e-02
  1.1903833e-01
  1.5268692e-01
  1.3743935e+00
 -6.1470366e-01
  2.0096487e-01
 -3.1947531e-02
 -1.6017769e-01
 -4.0288597e-02
 -7.0804572e-01
 -1.1808355e+00
  3.0356684e-01
  1.4178251e-01
  9.8761570e-01
 -4.5319009e-01
 -5.2384876e-02
  5.5813777e-01
 -2.0976953e-01
 -1.0343299e-01
 -4.5475897e-01
 -4.2497480e-01
  4.1383874e-01
  6.3858628e-02
  5.6473285e-01
  1.1606807e+00
 -1.5891822e-01
 -1.0042626e-01
  3.2779120e-02
 -1.9870819e-01
 -6.8287916e-02
  2.3109140e+00
  9.7397594e-03
  9.8228484e-01
 -3.2227030e-01
 -2.9784608e-01
 -9.8206252e-02
  7.2826721e-02
  4.0810180e-01
  4.6332392e-01
 -3.7806383e-01
 -1.0509840e+00
  3.1942305e-01
 -7.4319196e-01
  1.0122513e-01
 -1.7189427e-01
 -6.5083787e-02
 -5.5167353e-01
  7.7384651e-02
 -1.7338285e-02
  2.9326260e-01
  3.0478936e-01
 -3.6046141e-01
 -3.5488579e-01
  7.8333038e-01
  2.0037150e+00
  3.7290332e-01
 -2.1190211e-01
 -2.2156851e-01
 -2.4419743e-01
 -1.6562623e-01
 -3.2666299e-01
  1.6205081e-01
 -1.1260685e-02
 -1.4598070e-01
 -1.8737809e-01
 -2.0570299e-01
 -1.6127408e-01
  2.7801650e-02
 -1.3499644e-01
 -6.2214100e-01
 -2.8810978e-01
  4.7826597e-01
 -1.0705005e-01
  2.0076624e-01
  3.2798725e-01
  2.8346017e-01
  3.4731448e-01
 -8.1129521e-02
 -1.6843012e-01
 -3.9848483e-01
  5.5071032e-01
 -5.8147315e-02
  5.4170754e-02
  1.9696166e-01
 -3.5404482e-01
  5.2795529e-02
 -1.3388698e-01
  9.5597044e-02
  1.2085209e-01
 -5.0799288e-02
  7.4409589e-02
 -3.7330685e+00
  2.4993293e-01
 -1.2180329e-02
  4.8693221e-02
 -4.6957325e-02
  1.2422147e-01
 -3.1921825e-01
 -1.5144496e-01
  2.6400002e-02
  4.0803921e-01
 -1.2001863e-01
  3.1265426e-01
  2.2515434e-01
 -3.4235284e-01
 -2.9050815e-01
 -1.6459646e+00
 -2.9461473e-01
 -1.3629587e-01
  9.3937166e-02
  8.7574989e-02
  1.4530735e-01
 -8.7608822e-02
 -6.9074363e-02
 -3.6540013e-02
 -5.8438545e-01
 -2.9197270e-01
  2.3842366e-01
  1.1600906e-01
 -2.5143227e-01
 -1.5106547e-01
 -4.1712511e-01
  1.0212103e+00
  1.5813969e-01
  1.3002479e-01
 -1.0328250e-01
 -3.3038884e-01
 -7.7515811e-02
 -1.9387910e-01
  3.2794183e-01
  8.4578127e-02
 -2.5431022e-01
  1.4776583e-01
  7.2266527e-02
  1.1968007e-01
  8.2606131e-01
 -3.3121744e-01
  4.2809677e-01
  4.0190566e-01
 -3.1386368e-02
  3.7193826e-01
  5.9706021e-02
  1.2157424e-01
  5.1910353e-01
 -2.6878612e-02
  6.0414600e-01
  9.3224555e-02
  6.0763168e-01
 -1.0690070e-01
 -1.0682862e-01
  6.6798162e-01
 -2.6042369e-01
  6.5809697e-01
  1.6975436e-01
  2.7387434e-01
 -3.8835627e-01
  1.7514196e-01
 -1.7819912e+00
 -3.3414230e-01
 -2.5776081e-02
 -1.5662500e-01
 -2.8899685e-01
  2.5596222e-01
  1.6780697e-01
 -4.2477649e-02
 -2.1519636e-01
  2.2570100e-01
 -5.4586649e-01
  2.7247939e-01
  1.1426608e-01
 -1.5429119e+00
  1.5544158e-01
 -4.1872552e-01
  3.4273583e-01
 -7.2528332e-02
  3.0306907e-02
 -5.7593888e-01
  2.5448120e-01
 -2.3614782e-01
 -1.7460598e-01
  7.1246344e-01
 -2.1983430e-01
  3.3701718e-01
  1.0762815e-02
 -2.4250881e-01
  3.9788514e-01
  1.4264632e+00
 -1.1457481e-01
  4.9950317e-01
  4.3185679e-03
  4.4353494e-01
 -5.1156580e-01
  1.1223266e-01
 -2.8805423e-01
  1.1231068e-01
 -2.7131855e-01
  2.3252508e-01
 -8.7659889e-01
 -1.1760149e-01
 -1.5499762e-01
 -7.5514466e-02
  1.5207462e-01
 -8.6737625e-02
  7.4302351e-01
 -4.9358806e-01
 -4.7166523e-01
 -6.5645859e-02
 -3.8457688e-02
  5.6803152e-03
 -8.5593462e-02
  3.8276741e-01
  5.7126331e-01
  1.8398450e-01
  1.1207646e-01
  1.0195723e-01
 -8.0087669e-03
 -3.1690314e-01
 -5.3548706e-01
 -6.6436654e-01
 -6.4984292e-02
  5.1587439e-01
  5.8172590e-01
  5.5432773e-01
 -2.2849967e-01
 -1.1407977e-01
 -1.4087792e-01
  1.3225353e-01
 -4.9732901e-02
  2.4012010e+00
 -2.7589524e-01
 -2.0982856e-01
  9.6686274e-01
  8.4390558e-02
  6.1515969e-01
 -3.7867433e-01
 -2.9534414e-01
 -2.7045372e+00
 -9.8500943e-01
  8.5741505e-02
  3.1698120e-01
  3.3013403e-01
  7.7830303e-01
 -3.1895375e-01
 -1.9751664e-01
  5.8453667e-01
  9.0860603e-03
  5.5305713e-01
 -7.3888250e-02
  6.3948804e-01
  5.4187715e-01
 -4.4810111e-03
 -1.7825119e-01
 -1.4723620e-01
 -1.8006407e-02
  1.2324891e-01
  1.7638938e-01
  9.6256405e-02
 -4.2778078e-01
  1.8704739e-01
 -1.0091498e-01
  3.0730623e-01
 -6.6734356e-01
 -1.9326512e+00
 -4.9974987e-01
  9.4999170e-01
 -8.9144832e-01
  2.7591434e-01
 -1.2152809e+00
 -3.6938477e-01
 -3.1750407e-03
  7.2386354e-02
  1.8767508e+00
 -2.9995313e-01
  9.0872884e-02
 -2.6406932e-01
 -1.4921622e-01
  3.2728305e-01
  9.7648025e-02
  1.7891479e-01
  1.5373562e-01
 -8.9678831e-02
  1.9361268e-01
 -2.2267656e-01
 -2.0802695e-01
 -3.6252975e-01
  2.8921768e-01
  1.2078991e-01
  2.5552818e-01
 -1.4565840e-01
  1.5815983e-02
 -1.3854515e-02
 -1.3199511e-01
  2.5839400e-01
 -1.9817179e+00
  4.9696844e-02
 -3.9330199e-03
  1.2925889e-01
  5.9889871e-01
  8.7467313e-02
 -1.0140810e+00
 -4.6939656e-01
 -4.1463759e-02
  1.7532569e-01
  5.7395403e-03
 -7.2861159e-01
  3.4633510e-02
 -4.9393117e-01
 -6.0973209e-01
 -5.2801812e-01
  6.0063159e-01
  1.9149362e-01
 -8.5660833e-01
 -2.4251667e-01
  1.8747315e-01
 -1.3639230e-01
  3.4784535e-01
  6.9968119e-02
  9.6756321e-01
 -4.1631874e-01
  1.1604953e-01
 -7.0158333e-01
  4.2263336e-02
  1.5415345e+00
 -2.9072799e-02
  2.1889567e-01
 -3.6331750e-02
  1.0752142e-02
 -2.1707535e-01
 -2.1142955e-01
 -6.1730450e-01
  1.4645408e+00
 -4.2243686e-01
  2.1807145e-02
 -4.9645463e-01
  1.2484054e-01
  5.4438084e-01
 -1.0832531e-01
 -3.6516097e-01
 -3.6388120e-01
  9.5045024e-01
  1.8032569e-01
  2.4970400e-01
 -1.3712649e-01
  5.3929977e-02
 -6.6113979e-01
 -1.3682317e+00
  1.2674515e-01
 -3.9781213e-01
 -1.5184847e-01
  4.4578844e-01
  4.3868065e-01
 -1.3374603e-02
  2.3951854e-01
 -1.0483291e-01
 -2.5788996e-01
 -3.9352497e-01
  1.7630862e-01
 -3.2879610e-02
 -7.3084742e-01
 -4.7271115e-01
  2.3250316e-01
 -2.6200458e-01
 -2.9674696e-02
  9.8201774e-02
  2.4807976e-01
  5.0003260e-01
 -6.7582452e-01
  3.3623224e-01
 -6.8845391e-01
 -6.4465934e-01
 -1.3077024e+00
 -1.2364064e-01
  3.9513877e-01
 -7.5305986e-01
 -1.2997565e-01
 -1.0713632e-01
  5.2438360e-01
  1.0466452e-01
  6.4716977e-01
  2.1439849e-01
  1.6832817e-01
 -1.6819119e-01
 -3.0754268e-01
 -3.2119289e-01
  3.1349176e-01
  5.1257527e-01
  1.1823045e-01
  4.1628152e-01
  1.4595762e-01
  8.8391319e-02
  1.4495210e-01
 -7.0117885e-01
 -4.9742293e-01
  1.2143374e-01
 -2.1210482e+00
 -2.5945571e-01
 -2.1416590e-01
 -4.1736610e-02
 -8.9324981e-02
 -1.6538136e-01
  4.9422792e-01
  2.8594628e-01
 -4.3549862e-02
 -2.2683951e-01
  1.1762539e-01
  1.5015613e-01
 -1.8556041e-01
  6.3368559e-01
  3.5099843e-01
 -2.8523156e-01
 -6.9557601e-01
  1.1105334e-01
 -1.3067102e-01
 -1.9389585e-02
  3.2295231e-02
 -7.2609365e-02
 -2.0055816e-01
  1.1479553e-01
 -6.3077383e-02
  2.2715202e-01
  1.1803254e-01
  1.1471024e-01
  7.3702201e-02
 -7.6215684e-01
 -1.2594988e+00
  1.8339673e-01
 -1.2641603e-03
 -6.2330914e-01
 -8.4297109e-01
  6.0068142e-01
  4.5706069e-01
 -1.0980250e+00
 -2.5520638e-01
  6.7328662e-01
  2.3436842e+00
 -9.9896640e-01
  8.9027154e-01
 -1.8007109e-01
  1.9431747e-01
 -5.9356737e-01
 -2.2422722e-01
  5.6767613e-01
 -7.7338928e-01
 -8.0407150e-03
  1.3633431e-01
 -3.9037448e-01
  4.5247281e-01
  1.1084171e-01
  2.2298391e-01
  2.7396005e-01
  9.4422273e-02
 -3.8628197e-01
 -1.0423990e-01
 -2.7345520e-01
  3.6193532e-01
 -3.5886592e-01
  3.1406412e-01
 -6.7029166e-01
  2.9289532e-01
 -9.1759540e-02
 -2.4448060e-03
  6.4839333e-01
 -5.0718337e-01
 -5.7521141e-01
 -3.3071154e-01
 -3.9515695e-01
 -1.0712028e+00
  7.9836860e-02
  4.4192529e-01
  1.8218943e-01
  1.9929174e-01
  1.9894044e-01
 -9.2399977e-02
  9.1832876e-01
 -9.4062343e-02
 -9.3612723e-02
  1.4001437e-01
  9.9686795e-01
 -9.0987617e-01
 -4.5189711e-01
 -6.7065597e-01
  8.5819401e-02
 -5.4023689e-01
 -5.7128584e-01
  1.0437565e+00
 -2.1632040e+00
  5.1082206e-01
  6.6376068e-02
 -1.0238536e-01
  1.0160611e-01
 -9.6798144e-02
  2.1566604e-01
 -1.1247362e+00
  1.4737554e-01
  8.4413093e-01
 -2.4595442e-01
  7.0000410e-01
 -8.3389330e-01
  1.2409567e-02
 -5.2223957e-01
  2.7319553e-01
  6.9742602e-01
 -2.9782471e-01
  3.2199103e-01
  2.0931783e+00
  2.6158938e-01
  5.9002882e-01
 -6.4058101e-01
 -4.2816299e-01
 -7.3814519e-02
 -1.0993166e+00
  1.0741439e+00
 -2.2338189e-01
  6.5644115e-01
 -1.1116806e+00
 -1.1252190e+00
  1.9200920e+00
  1.0925052e-01
  1.8097198e-01
  8.8175792e-01
 -2.3558664e+00
  2.1815471e-01
 -7.6373219e-02
  6.8868995e-02
 -1.3378890e-01
  1.7039835e-01
  2.3754880e+00
  1.1784857e-02
 -5.6678283e-01
  7.9302788e-02
 -6.6637415e-01
 -3.1549272e-01
 -1.0849603e+00
  7.1633607e-01
  2.3496971e-01
  1.6746346e+00
 -1.4243634e-01
  5.9043478e-02
 -5.3780007e-01
 -7.4507743e-01
  8.5504931e-01
 -7.2414413e-02
  8.5984118e-02
 -5.1124748e-02
 -9.6844219e-02
 -3.3187016e-03
  5.1505074e-02
  1.7219447e-01
 -1.8833269e-01
 -1.9458869e-01
  4.7091329e-01
  3.7816659e-01
 -2.5600165e-02
  3.1260967e-01
 -1.2755232e-01
 -1.3869873e-01
  2.8541552e-02
 -2.1664602e-01
 -1.6418445e-01
 -3.2606074e-01
 -1.1833571e+00
 -9.6380442e-02
  3.8829684e-01
  5.6502426e-01
 -4.2967445e-01
 -3.6254090e-01
  5.6586348e-02
 -1.7493927e-01
 -2.1924917e-01
  2.1882182e-01
  4.6534735e-01
 -2.3368952e-01
  5.7504004e-01
  5.9365138e-02
  2.4755517e-01
  1.5895554e-01
  5.3463042e-01
 -1.1002575e-01
 -3.9161570e-02
 -2.9951045e-01
  5.0158811e-01
 -6.5300092e-02
 -7.1886855e-01
  2.1044861e-01
  2.6994369e+00
  1.0980494e+00
  9.2916751e-01
 -1.6895957e+00
 -4.7834507e-01
  3.1048219e+00
  1.1236943e+00
 -1.7228077e-01
 -1.7096553e+00
 -2.9131204e-01
  5.9014034e-02
  2.6878378e-01
  2.8725228e-01
  9.8116928e-01
  4.3872780e-01
  5.9902853e-01
 -3.1026763e-01
  4.9363330e-01
  4.4492948e-01
 -7.9666394e-01
 -4.8009366e-01
 -2.2701392e-05
  1.4521989e-01
  1.4530267e+00
 -1.5244173e-01
 -1.0496404e-01
  2.2394021e-04
 -1.7036866e-01
 -9.6965158e-01
  7.4494171e-01
 -1.7466490e-01
 -1.9415127e+00
  4.6392597e-02
 -5.9559947e-01
  2.7375686e-01
 -2.6356809e-02
 -1.5048368e-01
 -3.7796721e-02
  1.7265862e+00
  1.8225622e-01
  1.7829788e-01
 -7.4902117e-01
  2.4099202e-01
  1.1196255e-01
  3.8448831e-01
 -2.5931016e-02
 -7.3978621e-01
  3.2050657e-01
  7.9768533e-01
  4.5192286e-01
 -1.8300593e-01
 -6.9744065e-02
 -1.4087799e-01
  7.8644723e-02
 -8.7638184e-02
  4.0522343e-01
  6.3338694e-03
  1.7362995e-01
  4.9918020e-01
 -4.0428266e-01
 -1.8948098e-01
  2.2536193e-01
 -4.7418100e-01
  6.4269654e-02
  3.7359451e-03
 -1.2515224e-02
  3.7117764e-01
 -6.0505349e-02
  7.1908450e-01
  5.9811860e-01
 -8.8813618e-02
 -5.0317764e-01
 -1.7274930e-01
  4.6816984e-01
 -2.0996472e-01
  2.8145865e-01
  2.0294221e-01
  5.8630664e-02
  3.8273793e-01
 -2.7920697e-02
 -4.8989449e-02
 -3.7375987e-01
 -1.4279096e+00
  1.8158880e+00
 -4.6699751e-02
  3.5082594e-01
  3.4655264e-01
  1.6879708e-01
  1.0345945e-01
 -3.0747160e-01
 -3.8950410e-02
  2.0780417e-01
 -1.8986039e-01
  2.1658677e-01
 -2.2625147e-01
 -1.6646695e-01
  2.7432898e-01
  9.1211557e-02
  9.8048829e-02
 -2.8137115e-01
 -8.0767207e-02
  2.9041103e-01
 -1.1590168e-01
  4.7582129e-01
 -5.5341177e-02
 -4.6006697e-01
 -1.2494864e-01
  7.5220078e-02
  3.0834144e-01
 -1.6972788e-02
 -4.3303394e-01
  2.9042378e-01
 -8.8691182e-02
  5.8853167e-01
  1.9379184e-01
 -6.8130694e-02
 -2.7674928e-01
  5.1970488e-01
  3.3089500e-02
 -9.3071336e-01
 -5.2310240e-01
 -4.1619906e-01
  1.4882203e+00
  7.1667397e-01
  3.9593646e-01
  1.3475513e-01
  9.8838761e-02
 -2.6999842e-02
 -6.0606569e-01
 -4.7496669e-02
  1.1263698e+00
 -8.7860100e-02
  2.2272300e-02
  3.4758410e-01
  7.0996475e-01
 -3.3890571e-02
 -1.8082106e-01
 -1.2787400e-01
 -8.2346732e-03
  1.2051392e-02
 -7.5104010e-01
 -1.7167890e-01
  2.0369133e-02
  1.4445426e-01
  1.0644735e-01
 -1.0650931e-01
  2.2152758e-01
  2.3095869e-01
  2.2072761e-01
  2.5343308e-01
  2.2001775e-01
 -1.3379948e-01
  5.9640069e-02
  4.5110768e-01
  1.1311414e-01
 -2.8081664e-01
 -1.0706989e+00
 -9.8890774e-02
 -4.6573627e-01
 -1.7220332e-01
 -7.6249428e-03
  7.0917428e-01
  1.7132699e-01
 -1.6363326e-01
  4.7419971e-01
 -1.2010659e-01
 -9.9823652e-03
 -6.1469597e-01
 -3.7976646e-01
  1.6541502e-01
  1.4630502e-01
  3.7148350e-01
 -4.9214089e-01
 -7.7180490e-02
 -1.0894924e+00
 -1.2731787e+00
 -3.1894065e-02
 -3.6962029e-02
 -2.0340011e-01
  1.0707655e-01
 -3.9538768e-01
 -5.8949627e-02
  1.2829663e+00
 -1.6902705e-01
 -1.4919311e-01
  6.6672564e-02
 -3.3412725e-01
  2.6850563e-01
 -7.6716191e-01
  3.1749150e-01
  1.4814414e-01
 -5.0372362e-01
  5.0733835e-01
  1.3835825e-01
 -7.9016238e-02
 -1.6033383e-01
 -1.0630450e+00
  3.0833255e-02
  1.0391881e-01
  6.3439053e-01
  4.7372171e-01
  1.3299687e+00
 -8.7789401e-02
 -1.4796673e-01
 -2.9629106e-02
  6.2263238e-01
  5.3927380e-01
 -4.6850863e-01
  3.4578794e-01
 -2.2403638e+00
 -3.0924630e-01
  1.5253682e-01
 -1.5925705e-02
 -1.0154723e-01
  4.4398791e-01
 -4.5734234e-02
  7.1100071e-02
  5.0220932e-03
 -2.7388471e-01
  3.8133600e-01
  7.5368494e-01
  5.7575309e-01
  2.6785898e-01
  2.5665513e-01
 -7.8157373e-02
  3.7999833e-01
  8.1058279e-02
  3.2382047e-01
  9.5767509e-03
 -3.7767420e+00
 -9.3287177e-02
 -6.4508957e-01
  3.6866230e-01
  2.1890411e-01
 -3.2208148e-02
 -1.2443631e-02
 -1.1001150e-01
  4.0540043e-01
  2.5661193e-02
 -2.9738810e-02
 -3.5763547e-01
 -1.2783876e-01
  1.8586269e-01
 -3.2712632e-01
 -1.3149853e-01
 -1.2898074e-01
 -9.6589249e-01
 -2.3210643e-02
  6.9611810e-02
  1.6235123e+00
 -4.0188083e-01
  1.0110751e+00
  8.6517024e-01
  2.1626821e-01
 -1.2531102e-01
 -1.9459911e-01
  5.0623864e-01
 -3.5243852e+00
 -1.6265202e-01
  4.6011138e-01
 -4.7230017e-01
 -2.3085123e-01
  1.2946045e+00
  1.0493663e-02
 -2.3813316e-01
  2.8135875e-01
  2.8284833e-01
 -2.5680544e-02
  1.1601126e+00
  4.1917734e-02
  1.8759464e-01
 -1.7249784e-01
  3.5056683e-01
 -5.2254403e-01
 -5.7624310e-02
 -3.7009579e-01
 -3.9215577e-01
 -2.1798407e-01
 -6.6370475e-01
  4.1545704e-01
  6.1027599e-03
  9.7825885e-02
 -6.6212982e-01
  7.7525091e-01
 -3.0048332e-01
 -1.4775729e-01
 -3.9390776e-01
 -2.2673459e+00
 -5.6796199e-01
 -4.8022935e-01
 -1.6798992e-01
 -8.6175099e-02
 -9.7736108e-01
  3.1538424e-01
  2.5628611e-01
 -1.8575914e-01
  7.6904488e-01
 -4.6709262e-02
  2.5626057e-01
 -2.1227798e-01
 -1.4952061e-01
  6.9823945e-01
 -3.0930990e-01
 -2.9410245e-03
 -2.1064359e-01
 -4.9582992e-02
  7.9480904e-01
  2.5714147e-01
  1.6712174e-01
 -1.2999903e+00
 -6.9793570e-01
  1.2566142e-01
 -6.7282976e-03
 -1.4562479e-01
 -2.5565680e-02
 -8.6399928e-02
  7.1553580e-02
  9.6994305e-01
  1.4317312e+00
 -3.2564318e-01
 -1.8347411e-01
 -2.1330720e-01
  3.7840843e-01
 -1.3068269e-01
 -2.7262622e-01
 -5.7771641e-01
  2.5889716e-01
 -3.8192667e-02
 -2.5746238e-01
 -6.2454766e-01
 -3.0037272e-01
  7.2367169e-02
 -1.2167160e-01
 -2.5111938e-02
  1.0553748e-02
  5.4922003e-01
  2.2406466e-02
  5.1956389e-02
 -1.4688337e+00
  3.0889761e-01
  3.0385807e-01
 -2.6924458e-01
  2.0131561e-01
  5.4505281e-02
 -4.9520191e-02
  6.3666117e-01
 -3.4472841e-01
  6.4521655e-02
  2.0811941e-01
  2.2112218e-01
  5.4794842e-01
  1.1292938e-01
 -9.6453436e-02
  1.1596437e+00
 -3.5124856e-01
  2.3249565e-01
  5.9512085e-03
 -6.1442387e-01
 -3.2877054e-02
  6.6190743e-01
  5.5090036e-02
  1.1751002e-01
 -2.3735793e-01
 -3.2265794e-01
 -3.2579702e-01
 -6.4771479e-01
 -6.2308311e-02
 -3.0537963e-01
 -3.9384174e-01
 -8.9981884e-01
 -3.2364964e-01
 -4.1647473e-01
 -2.1457230e-01
  2.7425584e-01
  1.2597634e-01
 -1.0669042e-01
  1.3778876e-01
 -3.4746739e-01
  1.8179517e-02
 -3.0580196e-01
  1.2293742e+00
  3.8188493e-01
 -1.5189968e+00
  5.7047522e-01
 -7.7972078e-01
 -1.1233462e+00
  1.0620484e+00
  1.4163126e-01
  1.4375378e-01
 -4.3094757e-01
  2.9217472e-02
 -2.8626648e-01
  2.8268545e+00
  3.0818915e-01
 -9.5937930e-02
 -3.4070438e-01
 -6.4555466e-02
  3.5303301e-01
  4.1750243e-01
 -1.3968247e-01
  8.9940585e-02
 -6.7108929e-02
  1.1054432e-01
 -7.4484311e-02
  8.5628107e-02
 -2.3202379e-01
  6.5639384e-02
 -4.1669390e-01
 -2.9068166e-01
 -4.3441969e-01
  7.1002001e-01
  1.0172978e-01
  1.5683448e+00
 -2.6211590e-01
  1.9542053e-01
 -4.6280116e-01
 -2.2690767e-01
 -1.0282344e+00
 -6.4501220e-01
 -3.0086014e-01
 -3.7398404e-01
  6.0176951e-01
 -7.1822196e-01
 -1.1501586e-01
  2.2830573e-01
 -4.7005963e-01
 -1.6910222e-01
  1.0611342e+00
 -1.1443690e+00
 -2.3149416e-01
  1.6915703e-02
  5.3933340e-01
  4.5273650e-01
 -1.7598905e-02
 -1.3070942e+00
 -1.0072610e+00
 -5.1504242e-01
 -3.6024445e-01
  1.0922432e+00
  6.6418046e-01
  3.0895576e-01
  6.1233205e-01
  3.4269464e-01
  2.1402462e+00
 -2.2091568e+00
  4.6816787e-01
 -1.4203999e+00
 -2.2769532e-01
 -8.2987291e-01
  3.7278727e-01
 -5.2838001e-02
 -1.3406866e+00
 -6.4268303e-01
 -6.4635068e-02
 -3.9305809e-01
 -3.2846615e-01
  2.4690252e-02
 -5.7415336e-01
  7.7857238e-01
  8.6674881e-01
  5.3574556e-01
  5.8214056e-01
 -9.1380233e-01
 -3.8495600e-01
 -1.1990846e+00
 -3.2481018e-02
  6.2344438e-01
  8.0797553e-01
 -1.5475032e-01
  1.0724137e+00
 -1.0713242e+00
  2.1246648e-01
 -2.1235883e+00
 -6.1146867e-01
  1.0897329e-01
 -4.7508812e-01
  4.6219411e-01
 -2.8961512e-01
 -4.8295185e-01
 -5.3244972e-01
  5.8282411e-01
 -3.1223553e-01
 -2.1886738e-01
 -8.3517504e-01
 -4.6043521e-01
  7.8134470e-02
  1.7490843e-01
 -2.9927948e-02
 -1.3281569e-01
  1.2024537e-01
 -1.4958434e-01
  2.5608608e-01
 -3.1912029e-01
 -2.6153174e-01
 -5.9395915e-01
 -8.7076920e-01
 -2.1457404e-01
 -1.0170479e-01
 -1.7266186e-01
  7.4159666e-03
  8.7832190e-02
  9.1916877e-01
  1.1602144e+00
 -2.2733113e-02
 -1.7663699e+00
  1.6652656e-01
  1.4043854e-01
 -6.1678402e-02
 -3.5994527e-01
 -3.5968497e-01
 -9.1060229e-02
  3.7985316e-01
 -3.3170089e-02
  8.2816488e-01
  7.0108521e-01
 -3.3056825e-01
 -4.3232817e-02
 -1.3691478e-02
  1.3820864e-01
 -1.1664729e-01
  3.4534952e-01
  3.4453171e-01
  4.2176801e-01
 -3.3291358e-01
 -6.8101060e-01
 -4.6640937e-03
  1.7772131e+00
  2.8609389e-01
 -9.0989405e-01
  1.1051153e-01
  3.4479067e-01
  8.9803827e-01
  6.4376080e-01
 -3.5260963e-01
 -7.7087618e-02
 -1.2278931e-02
 -1.4369766e+00
 -5.6468781e-02
 -3.4403056e-01
  5.5132693e-01
  1.6636746e-01
  5.9744362e-02
  3.7714347e-01
  1.7565745e-01
  8.3376337e-03
 -2.6686454e-01
 -5.4030877e-01
 -4.7136557e-01
  8.4100738e-02
  4.5374727e-01
 -2.3730592e-01
 -5.7853365e-01
  2.2814439e-01
 -2.2996682e-01
  3.7888712e-01
 -4.6180665e-01
 -1.4003317e-01
  4.3761510e-02
 -6.8750091e-02
 -2.9817647e-01
  5.8643597e-01
  4.7764152e-01
 -2.7667618e-01
 -1.3417591e-01
 -5.0665885e-01
 -3.2920158e-01
 -1.1672282e-01
  3.0108533e+00
 -8.4891242e-01
 -2.5585964e-01
  1.7256366e+00
 -9.0352871e-02
 -8.7551939e-01
  7.9940185e-03
 -8.7595470e-02
  2.6600787e-02
 -1.0310391e+00
 -3.9172417e-01
  5.6187546e-01
  2.6261124e-01
  3.0227849e-01
 -8.1221215e-02
  5.8834502e-03
 -1.4552635e-01
  3.2038975e-01
 -2.5551623e-01
  1.3910510e-01
 -8.7476008e-02
  2.6274011e-01
  7.4610420e-02
  3.3158797e-01
  4.1566488e-01
  1.6785836e-02
  3.5973045e-01
 -2.9001245e-01
 -3.9353739e-02
  5.6669325e-01
  7.5263232e-02
  2.1793361e-01
 -1.5144286e+00
 -4.6524417e-01
  1.1393580e+00
 -1.3323998e-01
  8.5112798e-01
  5.8134079e-02
  5.2804488e-01
  2.0391794e-01
  8.0947012e-02
 -1.9424546e-01
 -6.6692360e-02
 -7.4225402e-01
 -5.0414795e-01
  7.2056419e-01
  8.0703509e-01
 -9.1879177e-01
  4.4938296e-01
  8.6736947e-01
  4.2587397e-01
 -9.7442973e-01
  1.1268882e+00
  3.1758228e-01
 -1.5217301e-01
  1.1537432e-01
  1.9247735e-02
  1.6988175e+00
  5.5377670e-02
  3.6570430e-01
 -4.6431604e-01
  1.9807639e-02
  1.0507059e+00
 -1.5314081e-01
 -2.4385514e-02
  3.0778098e-01
 -3.0270898e-01
 -9.2453942e-02
 -1.1841583e-01
 -7.1052566e-02
 -3.6931232e-01
 -1.3049301e+00
  3.4608629e-01
  2.2379439e+00
  7.8736715e-02
 -1.2147020e-01
 -1.4160146e-01
  1.8209417e-01
  1.8823025e-01
  9.5954728e-01
  1.5787549e-02
  2.8506564e-03
  2.8835303e-01
 -2.0634632e-01
 -2.3212437e-01
  1.3430510e+00
  1.0187663e+00
 -2.5743177e+00
 -2.7679545e-01
 -2.2357044e+00
  3.3284020e-01
 -4.2077389e-01
 -1.6086193e+00
 -2.2309636e-01
 -5.1205200e-01
  6.2229734e-02
 -5.7159281e-01
 -7.1178305e-01
 -5.7787496e-01
 -3.0251947e-01
 -3.7122828e-01
 -4.5393270e-01
  1.0942888e+00
  5.2626472e-02
  3.6540350e-01
 -2.2035436e-01
 -1.2812586e+00
  1.2813237e+00
  5.5016845e-01
 -5.8479720e-01
 -8.2668704e-01
 -1.8491450e-01
  6.5445375e-01
  1.2469811e+00
 -5.6721356e-02
 -2.7602179e-02
 -1.6922443e+00
  8.6278543e-02
 -3.4527925e-01
  1.3609319e+00
  7.1194090e-02
 -3.3960544e-02
 -1.1807778e+00
 -8.3652698e-02
 -6.6503406e-01
  2.6009407e-02
 -5.9070911e-02
 -1.8576412e-01
  7.6658720e-01
 -1.2041386e-01
 -2.3168077e-01
 -2.9039443e-01
 -3.2730770e-01
 -7.6771581e-01
  7.4859522e-02
 -1.3526992e-01
 -5.0390708e-01
  3.0095628e-01
  2.0339209e-01
  1.3311103e-01
  7.2558597e-02
  1.4109263e-01
 -1.2398071e+00
 -2.2283942e-01
  5.2999306e-01
 -3.6968121e-01
  2.7103603e-01
  3.4626004e-01
 -3.4343264e-01
 -5.8337212e-01
 -2.6088846e-01
 -1.1285230e-01
 -1.2079347e-01
  6.1217140e-02
 -3.4058154e-01
  1.8214703e-01
 -6.7047298e-01
  7.6038891e-01
 -1.5141107e-01
  1.1159937e-01
 -1.7717026e-01
 -1.3462302e-01
 -9.4327307e-01
 -4.2786437e-01
 -7.6584786e-02
 -1.6810307e-02
  4.3630384e-02
 -3.6844936e-01
  2.5339085e-01
  4.3293479e-01
 -3.3725856e-03
  1.6260931e-02
 -6.2166971e-01
 -1.6941784e-01
 -2.1269493e-01
 -3.7469679e-01
 -1.7282841e-01
  5.7114136e-01
 -4.1711426e-01
  4.3594234e-02
  2.9784191e-01
  1.6379118e+00
  2.7822497e-01
  6.6451204e-01
 -5.6898814e-01
  6.8415260e-01
  3.2529823e-02
 -2.8499725e-01
 -3.2704595e-01
 -1.2875465e-01
 -5.9484050e-02
 -8.8901162e-01
  5.0091960e-02
 -1.9580883e-01
  4.4620517e-01
 -2.4511652e-01
 -1.3983668e-01
  3.4535155e-01
 -1.1764368e-01
  3.6209258e-01
 -1.4656635e-01
  3.0532995e-01
  4.2345250e-01
  1.8268521e-01
 -2.7680957e-01
  2.3158306e-01
 -4.7155946e-02
  6.7576623e-01
  1.5080363e-01
 -3.5622880e-01
  4.6063995e-01
 -9.5540285e-01
 -2.1908814e-01
 -6.8614066e-02
 -3.0943301e-02
  4.5316569e-03
  1.4076014e-01
  2.7437451e-01
 -5.5408353e-01
  4.3521032e-01
 -1.3497641e-02
  1.8994597e-01
  1.0932169e-01
  3.7893134e-01
 -1.4242041e-01
 -6.2672061e-01
  1.1560554e-02
  4.2652391e-02
 -1.1758235e+00
  4.3214846e-01
 -1.8730132e-01
  4.5666486e-01
 -7.4194051e-02
  9.1440171e-01
 -7.4155934e-02
  1.5732628e-01
  7.5923777e-01
 -1.4175910e-01
 -2.2391354e-01
 -2.8021958e-01
 -1.6754409e+00
  1.0711524e+00
  9.2296135e-01
  3.3352733e-01
 -5.1189244e-01
  1.0061122e+00
  1.6307038e+00
  7.7075410e-01
  4.5625437e-03
 -1.2310762e+00
 -7.7657640e-01
 -1.7106266e-01
  1.9610172e-02
  1.0050018e+00
  4.1661596e-01
 -1.1438025e-01
 -1.2690803e+00
  1.8699381e-01
  1.5622014e+00
 -4.2849627e-01
 -8.8712865e-01
  2.2693163e-01
  1.1122664e+00
 -7.3236990e-01
 -4.2829210e-01
  1.4966436e-02
  4.8950320e-01
 -1.1712592e-01
 -3.8287815e-01
 -3.8176358e-01
  2.2438952e-01
  9.9554829e-02
 -6.0281038e-01
 -1.8108038e+00
  1.3064268e-01
 -2.8929910e-01
  1.2794518e+00
  3.2410973e-01
 -2.2038005e-01
  1.7159759e+00
  4.4880193e-01
 -8.3132327e-01
 -7.7934444e-01
 -4.9309802e-01
  2.3399679e-01
 -3.3339015e-01
  3.3914968e-02
  4.6145871e-01
  7.5811436e-03
  1.3010052e-01
 -3.2398310e-01
  9.0657103e-01
 -1.2982407e-01
  5.9349421e-02
  1.3797473e+00
 -1.5232265e-01
 -1.2183553e-01
 -5.5982877e-02
 -3.0544674e-02
  2.3489439e-01
  2.3329219e-01
  4.5373172e-01
 -4.4273657e-01
 -3.5689518e-02
  2.9969716e-02
 -9.9514592e-03
 -3.0619282e-01
 -5.0654631e-02
 -9.6509740e-02
  3.2417008e-01
 -2.4419281e-01
 -6.1631255e-02
  9.4739145e-01
 -1.8317865e-02
 -4.8470389e-02
 -9.1598198e-02
  6.8780035e-01
  1.6377448e-01
 -4.1189571e-03
  7.6897345e-02
 -1.5065104e-01
 -5.9582189e-02
  4.9572237e-02
 -2.2492040e-02
  6.7602232e-02
 -6.6901550e-02
  2.4975793e-01
 -7.9903001e-01
  4.7512743e-01
 -4.2063349e-01
 -1.4383308e-02
 -1.9909048e-01
  2.0266791e-01
  8.8696547e-02
  3.7640244e-02
 -4.1498866e-02
  2.2635180e-01
 -4.5797145e-01
  1.1309264e-02
  1.0348489e-01
  6.6658646e-02
  2.9201362e-01
  9.4396651e-02
  3.1080315e-01
  5.7300496e-01
 -3.0924189e-01
  1.0286840e+00
 -6.3296860e-01
  2.5534531e-01
 -1.8586637e-01
  9.3706213e-02
 -1.5995100e+00
  7.0635933e-01
  2.5990811e-01
  1.3059324e-01
  1.2680291e-01
 -5.6104076e-01
  9.5674641e-02
  4.0595543e-01
  1.8398460e+00
 -1.2867635e-01
 -8.0578411e-01
 -5.9476405e-01
 -6.7542082e-01
  1.5366283e-01
 -2.1846533e-02
 -8.7745565e-01
  9.4280106e-01
  9.0931994e-01
 -4.9883306e-02
 -1.9108286e-02
  5.2394666e-02
  8.5930926e-01
 -2.3715990e-04
 -4.3841368e-01
 -4.0821555e-01
 -7.5280917e-01
  2.8460470e-01
  5.0144009e-02
 -6.3362695e-02
  4.4727370e-01
 -7.5420789e-02
  1.0841765e+00
 -6.4534821e-02
  1.8512736e-01
  4.7923458e-01
  3.9323071e-01
  5.0758862e-01
 -3.4475091e-01
  7.1985625e-02
  3.1457752e-01
  1.4696968e-01
  2.0680520e-01
  1.4638580e-01
 -7.3919371e-02
  2.1598969e-01
  4.0339118e-01
  1.7811166e-01
  4.1263810e-01
  1.1500714e+00
 -1.5881050e-01
 -3.9697755e-03
  3.2681641e-01
  7.6323867e-01
  9.8927027e-01
  6.8332553e-01
  2.4000365e-01
  7.6374143e-01
 -2.2329310e-01
 -3.1812202e-02
  1.2630792e-01
  3.2193050e-01
 -4.2274468e-02
  1.1472182e-03
 -1.5756461e-01
  3.1258765e-01
  3.8095087e-02
  1.1790347e-01
 -2.2805214e+00
 -4.4922349e-03
 -2.2559658e-01
  2.2822854e-01
 -4.0681505e-01
  5.9275651e-01
  9.3487006e-01
  4.3048080e-02
  5.4922074e-01
  1.9142030e-01
  9.4632089e-02
  3.9388344e-01
  1.4851324e-01
  6.4072919e-01
 -8.2345510e-01
  1.2597084e-01
 -6.3120002e-01
 -4.9729040e-01
  2.0403957e+00
 -3.8987711e-01
  2.4641332e-01
 -1.8921423e-01
  1.2781382e-01
 -1.4654197e+00
 -2.0443515e-01
 -2.6082614e-01
  1.9352253e-01
  7.0709288e-01
 -9.2384689e-02
  9.7791716e-02
  2.8838414e-01
 -1.2237475e-01
  1.3477327e-01
  1.5236659e-01
  1.5730802e+00
  2.0789281e-01
  6.0523498e-01
  1.0657153e+00
  1.2229623e+00
  4.6783051e-01
 -3.0631608e-01
  9.1333812e-01
  9.0714210e-01
  4.1757189e-02
  1.7179333e+00
 -2.0737262e-01
 -1.3391973e-01
  1.1040493e+00
  6.2385046e-01
  6.3886613e-02
  1.7181481e-01
 -2.3204212e-01
  9.6986383e-01
  6.7473787e-01
 -8.7240310e-03
 -3.0070984e-01
 -2.4605481e-01
 -6.7561395e-02
 -2.0665306e-01
 -5.6751543e-01
  2.7082148e-01
  2.0198653e+00
  3.6203951e-01
 -1.1811378e+00
  3.8305983e-01
 -2.4629392e-01
 -1.8818225e+00
  3.2264644e-01
 -1.6304575e-02
 -5.3343576e-01
  1.2602969e+00
 -9.1704585e-02
 -3.4896207e-01
 -5.5393940e-01
  8.2203329e-01
  2.7283745e+00
 -7.6596773e-01
 -1.0341913e+00
  8.5130692e-01
 -1.3346809e+00
 -4.1398630e-01
 -4.0558961e-01
  1.7842285e-01
  1.2448831e-01
  2.5129861e-01
  2.0975797e+00
  2.8096768e-01
  3.5760999e-02
  3.4786633e-01
  8.3344644e-01
 -9.2429176e-02
  1.7300235e-01
  1.7727277e+00
  6.9934428e-01
  1.6801111e+00
  1.1239754e-01
 -5.4817781e-02
 -2.2699500e-02
 -4.3802610e-01
 -4.4667390e-01
 -1.6627404e-01
  1.4799732e-01
 -2.0917596e-01
  2.6601084e-02
 -2.9684418e-01
  3.3261883e-01
 -2.9962716e-01
 -3.6782388e-02
  2.7579699e-02
  4.0638456e-01
 -1.3039137e-01
  7.7311552e-01
 -2.3428908e-02
 -1.4033772e+00
 -1.1817393e+00
  1.2200806e-01
  3.8402858e-01
  4.8642078e-01
 -4.3901017e-01
 -5.5811125e-01
  1.3238378e+00
 -1.8261403e+00
 -4.2056002e-02
  3.2896975e-01
  9.8272365e-01
  3.3295488e-01
 -1.1405728e-01
 -4.4663887e-02
  3.3785071e-02
  1.8719843e-01
  7.0842141e-03
 -3.9268631e-01
  1.1780862e-01
 -3.2164431e-01
 -9.9653445e-02
  6.3216776e-01
  5.5420017e-01
 -8.7283039e-01
  5.2880293e-01
 -7.6976758e-01
 -2.3589383e-01
  4.3724433e-01
 -1.3173643e+00
  3.7125006e-02
 -5.9567052e-01
  7.3262531e-01
 -2.7747208e-01
  5.6051213e-01
  1.0202436e-01
 -2.9699132e-01
  5.1431148e-03
 -1.5223452e-02
  1.0719572e-01
  2.4895111e-01
 -2.4242550e-01
 -3.8985300e-01
  2.3617661e-01
 -8.8776481e-01
  8.2486629e-01
 -4.9088169e-02
  8.5497163e-02
  8.0981398e-01
  8.6199903e-01
  2.1097901e-01
 -3.2858808e-02
  1.1803721e+00
 -1.8586816e+00
  3.1391674e-01
 -6.4930275e-02
  1.2674153e-01
  4.7708515e-02
 -9.5929921e-02
  5.0198609e-01
  1.0506237e+00
  2.2664742e-01
  1.0903771e+00
  3.0633429e-01
  6.1358261e-01
  2.6594952e-02
  1.6426507e-01
  2.9865104e-01
  1.0611755e-01
 -3.8043979e-01
  6.8615544e-01
 -3.9826015e-01
  4.3597761e-01
  1.4444159e-02
 -5.2648440e-02
  3.4161124e-02
  1.7340830e-01
  3.0647770e-01
 -1.0170416e+00
 -1.3509172e-01
 -5.8438498e-01
  2.1904156e-01
  9.1395140e-02
 -7.1284074e-01
 -5.0953340e-02
 -1.3599809e+00
 -2.3117724e-01
  4.4265127e-01
 -1.4024109e-01
 -1.2439834e-01
 -2.1791345e-01
 -2.3679213e-01
 -9.6826814e-02
  4.2717222e-02
  4.3214995e-01
 -1.2082758e+00
  3.0989048e+00
 -5.9590387e-01
  3.7586895e-01
  1.0573294e+00
  3.0569285e-01
  2.9546894e-02
 -2.3097755e-01
  3.6965251e-01
  6.5164402e-02
 -2.2360758e-01
  4.3422964e-01
 -1.9937766e-01
  2.1668003e-01
  1.9712534e+00
  2.2345862e-01
  3.8270935e-01
  3.5084879e-01
  1.9862044e+00
  1.3657283e-02
 -1.3569327e-01
  2.1192981e-01
 -1.2184618e-01
 -4.8793249e-02
 -1.5756075e-01
 -1.0848416e-01
  2.0030321e-01
 -9.8970719e-02
  9.8398095e-01
 -7.2640550e-01
 -4.2311874e-01
  3.7399578e-01
 -1.9021878e-01
  1.3194656e-01
  3.5055199e-01
  3.2182742e-02
  1.2217798e-01
 -7.0757937e-01
  1.9639245e-01
  8.8280499e-02
 -3.3561805e-01
  5.4391062e-01
  3.0065658e-02
  1.8887977e-01
 -8.3915874e-02
  6.6458791e-01
  2.3687369e-01
 -1.1984941e+00
 -2.2447231e-01
 -4.2018194e-02
 -1.2026110e+00
 -5.9077758e-02
  2.1074642e-01
 -1.0986837e-01
 -1.9446905e-01
  2.9287755e-01
 -3.3370209e-01
 -5.0926322e-01
 -5.3898335e-02
  1.1576647e+00
 -6.2002683e-01
 -3.4740552e-01
 -3.6817726e-02
 -1.0951948e-01
  4.2013896e-01
  2.9827246e-01
 -1.0776249e-02
 -1.1847517e+00
  6.4893609e-01
  3.1801152e-01
  1.3785884e-01
  3.4441739e-02
 -1.4628232e-01
 -4.0194452e-01
 -2.2978363e+00
  3.7767372e-01
  7.5178283e-01
  8.5596007e-01
  4.5979092e-01
 -1.1378659e-01
 -2.1489045e-02
 -1.3827039e-01
 -4.6806045e-02
  1.4261436e+00
 -8.9500594e-01
  5.2666771e-01
 -1.4262924e+00
  1.4334404e-01
 -2.3664676e-01
  1.1275848e-01
  5.1608163e-01
  9.7379357e-01
 -4.5026976e-01
 -6.0112649e-01
  1.1517879e-01
  8.8826859e-01
  5.7556480e-02
  1.0132985e-01
 -1.3767112e+00
  1.0194303e+00
  2.5593197e-01
 -2.1596698e-01
  2.1271393e-01
 -1.5367892e-01
  9.3019581e-01
 -1.9138290e-02
  1.1972453e-01
 -6.6440916e-01
 -1.7992083e+00
  9.5174819e-01
 -2.5537200e-02
  2.5890654e-01
  7.7817935e-01
  1.0301495e-02
  1.7055525e-01
  2.5326684e-02
 -3.1428918e-01
  4.3984540e-02
  1.4661851e+00
  3.1876999e-01
 -1.0056425e-01
 -7.0770788e-03
 -1.5524897e-01
  6.1601746e-01
 -1.5203428e-01
  2.6744601e-01
 -1.5590055e-01
  8.0551016e-01
  5.1876336e-01
  8.9046961e-01
 -7.3593743e-02
  2.6087152e-02
  3.3712578e-01
 -1.0635889e+00
  1.3188653e-01
  4.1512179e-01
 -5.3602380e-01
 -1.1925238e-01
  9.9456072e-02
 -2.9911375e-02
  8.8751251e-01
  1.2242096e-02
  4.6140248e-01
 -4.7343162e-01
 -4.6685241e-02
 -2.1980502e-02
  2.7817911e-01
 -1.7598756e-01
  2.5679171e-01
  1.2277436e-01
 -1.5321021e-01
 -2.3280573e-01
 -2.1228744e-01
  9.8698713e-02
  4.4962472e-01
 -3.3546078e-01
 -1.5229566e+00
 -6.3517523e-01
 -6.1928939e-02
  4.9392160e-02
  2.4880768e-01
 -4.9005282e-01
  3.9871338e-01
  3.7757289e-01
 -5.2101028e-01
 -1.0765298e-01
  7.1793967e-01
  3.1359178e-01
 -4.4247653e-02
  5.5882996e-01
 -3.2804498e-01
  2.5092411e-01
  3.8884949e-02
 -1.9646588e-01
 -5.3015508e-02
 -1.0081302e-02
 -1.0051764e-01
 -6.9345796e-01
 -1.5648925e-01
 -3.1897251e-02
 -2.5516239e-01
  2.1204227e-03
 -3.1574923e-01
 -5.6910646e-01
  1.8790427e-01
  1.4083022e-01
  4.1900307e-02
 -4.2439711e-01
 -1.5956551e-02
 -2.1637653e-01
  3.4047097e-02
  1.6443741e-01
  3.7454906e-01
  2.8633509e+00
 -3.9418321e-02
  9.1775489e-01
 -4.5429087e-01
 -5.9757960e-01
 -5.2247548e-01
  2.7234656e-01
 -2.3527351e-01
 -6.0203755e-01
 -1.0495980e-01
  6.0988881e-02
  2.3655729e-02
  1.7253865e-01
  3.9593682e-01
 -1.9490670e-02
 -5.8024995e-02
 -1.1200613e-01
  6.8576312e-01
  2.3652500e-02
 -2.2482671e-02
 -1.7366594e-01
 -3.5653940e-01
 -3.5567063e-01
 -8.9709616e-01
 -7.2832190e-02
 -8.7665409e-02
  1.0409374e+00
 -5.4098910e-01
 -3.9786938e-01
  2.4925731e-01
 -3.9170334e-01
  6.7139792e-01
 -1.6457598e-01
 -7.0930339e-02
 -1.8649793e-01
 -1.8320915e-01
  5.0250761e-02
  2.5538471e-01
  1.7827612e-01
  2.8931624e-01
  1.8376364e-01
 -1.7625953e-01
  1.7486712e-01
  1.0464159e+00
 -2.4101634e-01
 -1.9559510e-01
 -5.5011019e-02
  9.9898241e-02
  7.2462296e-01
 -1.8861035e-01
  2.7312872e-01
  4.3492144e-01
  9.0020269e-01
  1.1883392e+00
 -4.1402641e-01
  6.9338578e-01
  5.6593776e-01
  1.8889552e-02
  4.1283134e-01
 -4.3190759e-01
 -8.3387487e-02
  2.7436495e-01
 -4.7886437e-01
  3.1736606e-01
  3.6958170e-01
 -4.9565330e-01
  4.9070850e-01
  3.3450237e-01
 -3.6500070e-02
 -1.7561294e-01
  6.2360197e-01
  5.7481778e-01
  2.2519052e-01
 -4.4468984e-01
  5.0618386e-01
  8.9367777e-02
 -1.4846932e+00
 -2.8886712e-01
  2.4285166e-01
 -1.5634485e-01
 -2.0713185e-01
  1.7064485e-01
  8.3620971e-01
 -8.2804993e-02
 -1.5789907e+00
  1.1187629e-01
 -3.8009661e-01
  4.0544108e-01
 -3.7830296e-01
 -1.5362530e+00
 -3.1673071e-01
  2.9601440e-01
 -8.1377417e-02
 -2.3232740e-03
  1.8783249e-01
 -1.8260791e+00
  1.5394673e+00
 -1.0700759e-01
 -1.6219795e-01
 -1.7909421e-01
  2.9150035e-02
  4.7923382e-02
 -1.3447596e+00
  1.0178316e-01
 -1.1664851e+00
 -1.9790697e-01
 -8.0878460e-01
 -3.8695523e-01
  8.1997204e-01
 -1.9958739e-01
 -4.0045765e-01
  1.2107635e-02
 -8.1252915e-01
 -3.4380633e-01
 -1.2280343e-01
 -4.5426396e-01
  2.6801237e-01
 -3.0181361e-02
 -5.9682542e-01
  2.7606407e-01
  5.7610291e-01
  3.1098402e-01
  1.8346661e+00
 -5.6493439e-02
  4.1447241e-02
  6.0855651e-01
 -1.5353785e+00
 -7.8011169e-03
  2.9315245e-01
 -9.8899581e-02
 -3.3298945e-01
  2.7535152e-01
  1.5557528e+00
  1.3105549e-01
  1.7855124e-01
  3.6132264e-01
 -1.2646110e+00
 -3.7615365e-01
 -2.7493066e-01
  3.0340871e-01
 -3.2002413e-01
  3.6807024e-01
  1.4061514e+00
  1.0076681e+00
  2.1148066e-01
 -2.6967067e-01
  1.0564313e+00
  2.7783236e-01
  7.0829973e-02
  1.5093300e-01
  2.2479936e-01
 -1.0519820e-02
 -1.7406321e+00
  1.9546226e-01
 -7.8406954e-01
 -4.7069523e-01
  3.8061804e-01
  9.1161959e-02
  7.3101449e-01
 -4.5458250e-02
 -3.6109439e-01
 -9.2702555e-03
 -4.4567028e-01
  2.5409324e-02
 -4.6898755e-01
 -9.4329596e-02
 -2.4433234e-01
  7.5616509e-02
