nep4_zbl 4 Li P S Cl 
zbl 0.8 1.6
cutoff 8 4 135 22
n_max 6 4
basis_size 10 8
l_max 4 2 0
ANN 50 0
  4.2852229e-05
  3.7959835e-04
 -2.2828123e-04
 -2.0848398e-04
  2.1416099e-05
 -6.3794192e-05
 -2.2369312e-04
 -6.8217407e-05
  3.3005112e-05
  1.4152942e-03
 -2.1197358e-02
 -1.0400759e-05
 -5.3073160e-05
  2.8495537e-04
 -1.3588202e-04
 -2.0330065e-04
 -7.3273936e-06
  6.0884213e-05
  1.4458558e-03
 -1.8834476e-03
  1.7636117e-04
 -1.5848155e-04
  3.5517639e-04
  1.9212082e-05
  2.0890661e-04
  5.3318385e-05
  3.5639617e-04
 -1.9616720e-05
  1.7304372e-04
  3.5546393e-05
  1.6906164e-05
  3.5671292e-05
  4.7993115e-01
 -4.3978861e-01
  3.5536042e-01
 -4.2883259e-01
  5.3209186e-01
 -4.3134958e-01
  7.2730035e-01
 -2.2789562e-01
 -1.9411270e-01
  2.8002414e-01
 -5.1405663e-03
 -4.1845884e-02
 -2.8640920e-02
 -1.4480515e-01
  1.3951939e-01
 -3.3631273e-02
 -6.0376696e-02
  5.7243533e-02
 -7.2385324e-04
 -2.8689144e-02
 -4.1362843e-01
 -3.5367984e-01
 -2.2177157e-01
 -1.1460628e-01
  2.8189236e-02
 -5.3603786e-01
 -3.7894988e-01
 -5.5554356e-05
  4.6078388e-02
  2.2329170e-04
  7.6374953e-04
 -3.4417406e-02
 -1.4825429e-01
 -8.9541115e-03
  2.0019539e-01
  5.2439618e-01
 -2.6835939e-02
  5.8666471e-02
 -6.8743277e-01
 -1.8239401e-04
 -3.8110290e-03
  5.0347671e-02
  9.1430560e-02
  8.4527943e-05
 -5.5048848e-04
 -3.4836161e-01
 -1.4913107e-02
 -4.6434425e-04
  9.5841900e-04
 -2.5300501e-04
 -5.7912828e-05
 -5.4972332e-02
 -1.0296711e-01
 -8.7644126e-05
 -1.0513707e-08
 -6.3386880e-04
 -1.5423429e-04
 -3.6086033e-03
 -8.8476129e-03
  1.7445764e-04
  3.4966262e-05
 -3.4318102e-06
  5.8020993e-05
 -1.4950528e-05
 -2.7144660e-04
 -6.1619270e-05
  4.3590513e-05
  3.4175879e-05
 -4.1201632e-04
 -4.0394926e-04
 -2.2187407e-04
  1.8700991e-04
 -4.7370199e-02
  1.1284154e-05
  9.2440416e-05
  1.2804033e-05
  5.6132569e-04
 -1.0093199e-03
  7.8493895e-06
  6.8512258e-05
 -5.8738951e-04
 -5.6667184e-04
 -2.0327503e-04
  4.1717893e-05
  2.4053366e-05
 -2.5790749e-04
 -2.4069185e-04
 -1.8679915e-04
  7.0928778e-05
  4.3499636e-05
  3.4600747e-04
 -1.1541883e-01
 -5.4140354e-04
  1.6659631e-04
 -2.2047279e-04
 -2.0368553e-04
 -2.8657442e-01
  7.2216884e-05
 -7.4684910e-02
 -5.1218039e-01
  8.2813904e-02
  1.4304029e-03
 -9.9181850e-04
  3.8907959e-04
  5.9561124e-03
 -2.5571788e-05
  2.6869128e-04
 -2.2251373e-03
 -3.7605969e-05
  1.7420870e-01
  7.4539002e-04
  4.9845576e-02
 -2.8356421e-04
 -5.1716659e-03
  8.6073056e-02
  3.3495754e-01
  2.6025569e-01
  6.2282954e-05
  1.9669130e-04
  7.8846453e-05
 -1.9842874e-04
  1.5855317e-01
 -4.3162301e-01
 -5.8221910e-04
 -6.1347644e-05
 -1.0637784e-04
 -2.0230399e-04
  3.6253616e-05
  1.1971382e+00
 -1.6069798e-06
  9.8082942e-01
 -5.2406698e-01
 -4.7705463e-01
  3.0626124e-03
 -4.4526586e-01
 -2.7421236e-05
 -1.0992312e-04
 -7.2904691e-06
 -4.2908996e-05
 -5.9939597e-05
  8.1895363e-05
 -4.8671119e-02
  5.0039776e-04
 -8.7902321e-05
  1.9500334e+00
 -2.1608440e-04
 -4.8981984e-03
 -8.1850914e-04
 -3.7727179e-04
 -3.6626114e-04
  2.9276195e-04
  1.6219460e-04
  6.6928484e-04
 -3.1673364e-05
 -2.0101096e-01
  4.6765719e-02
  7.6824945e-05
  2.1360347e-05
 -1.3541567e-04
  3.7275197e-04
  9.4618859e-05
 -5.0187457e-01
 -1.5475306e-04
 -4.2034936e-04
 -1.3335403e-05
  4.1076579e-04
  3.1694963e-05
  1.4348612e-04
 -6.4745041e-06
 -1.7826627e-05
 -5.7744972e-02
  5.8722257e-05
  2.7073099e-04
 -3.9579812e-05
  3.0443021e-05
  5.1408842e-06
 -3.3571050e-05
  1.6619426e-05
  4.6746725e-05
 -2.8593058e-04
  2.8642226e-05
  2.2945888e-04
  1.2383744e-05
 -1.1807476e-04
 -3.5416898e-03
  7.2532937e-05
  3.2687790e-04
  5.3137349e-04
  1.5632984e-04
 -4.4300421e-05
  8.6056039e-05
  2.4469494e-04
  1.5766516e-03
  8.4241685e-05
 -5.1009920e-06
 -1.1539622e-05
 -1.2401898e+00
  4.9706601e-04
 -2.6758987e-02
 -2.9189412e-05
 -1.9084697e-04
 -6.6866714e-01
 -2.8510735e-04
 -1.5378612e-03
  3.3955151e-04
 -3.7505629e-03
 -3.5147698e-04
 -6.6782767e-04
  1.9751852e-04
 -4.2687763e-05
 -1.1956684e-04
 -1.0941396e-04
 -5.8378489e-05
 -3.0798098e-04
 -6.8683599e-05
 -1.1308728e-04
  2.0042044e-06
 -4.3606815e-05
 -3.1146730e-04
 -2.1766033e-04
 -3.5112523e-04
  7.5723452e-05
  3.6735721e-05
 -4.3347158e-04
  2.1827844e-01
  4.9237832e-02
  6.7971152e-01
 -1.4969347e-01
  2.5395343e-01
 -2.4465260e-01
 -3.1094697e-01
 -2.2058855e-04
 -7.8217137e-01
 -6.1685029e-02
  1.2017760e-01
 -2.2541657e-01
  4.7406588e-02
 -3.5805885e-02
  3.8468439e-02
  1.1759025e-02
 -9.5958352e-01
 -3.4188174e-02
 -2.8783265e-01
  1.5028707e+00
 -2.1726379e-01
 -5.5276036e-01
  8.6687616e-04
 -1.5203324e-04
  1.0069036e+00
 -4.4564105e-04
 -3.5753700e-01
 -1.4262202e-05
  4.9203984e-03
  4.2062227e-04
  6.0820475e-05
  3.3665093e-04
  1.3520651e-03
 -3.1709461e-03
 -3.4967637e-01
 -9.6505918e-02
  1.5843688e-01
 -1.1208165e-01
  1.8056704e-01
 -6.3962527e-03
 -1.5682367e-03
 -3.5151560e-02
 -2.1042704e-04
  5.6202607e-05
 -6.3352071e-04
 -1.8595040e-01
  4.2490987e-03
 -6.7680798e-02
 -2.2158907e-03
  3.7632397e-04
 -7.3153085e-01
 -1.2263427e-02
 -1.3262258e-01
 -4.4973698e-02
 -1.1349882e-05
  2.3143204e-02
  9.4315544e-02
 -1.3994412e-01
  1.6380336e-05
 -2.4350107e-04
  1.2082179e-04
 -8.6813845e-04
  1.4599268e-02
 -1.3414482e-03
 -3.9786886e-04
  1.9412844e-04
  9.0573354e-05
 -2.6641448e-05
  2.4516677e-04
  2.2775430e-05
 -2.8993369e-05
  9.4922369e-05
 -6.9020607e-04
 -8.0273795e-04
  2.4153870e-04
 -8.3823950e-05
  8.5568805e-05
 -1.8764051e-05
 -6.2543499e-05
 -1.0206006e-04
  1.3902820e-04
 -1.4256158e-05
  4.9293296e-05
 -4.9987296e-04
 -7.4398864e-05
 -5.5862195e-04
  6.1405211e-04
  8.4492211e-05
 -3.0719946e-04
 -2.2387948e-02
  5.9746386e-04
 -1.6031227e-04
  6.2725751e-04
 -2.9008597e-04
  1.5814420e-04
  5.8333768e-05
 -8.7982088e-02
 -2.4869372e-05
  6.6871390e-02
 -7.9781734e-05
 -7.1481999e-04
 -1.4972864e-05
  2.0785714e-04
  6.8536443e-05
  4.2194597e-06
 -9.7559017e-01
 -1.2519461e-04
 -6.7317094e-05
 -1.0992703e-04
  7.7775202e-04
 -1.8916733e-04
 -5.8020296e-04
 -3.6001304e-04
 -9.1484224e-05
 -8.3840059e-06
 -2.7765529e-04
  1.1350994e-04
  1.7767698e-04
 -2.3983954e-04
 -5.1730585e-05
 -5.3980877e-04
 -2.3071910e-04
  5.4151031e-05
 -1.0278556e-05
 -4.6805988e-04
 -3.0580635e-05
  4.7489870e-05
  2.3013232e-05
 -5.3465927e-01
  7.8919926e-04
  5.3568047e-02
 -8.0045593e-01
 -3.3103311e-01
  3.3629747e-04
  9.4648504e-01
 -1.8777610e-04
  1.0758135e-01
  8.4026011e-05
 -2.2907955e-04
 -4.7183523e-05
 -1.2601941e-03
  4.6474808e-03
 -2.7633542e-01
  3.7890792e+00
 -2.4388506e-01
 -3.1050113e-05
  1.9601306e-04
  2.4183518e-04
 -6.9897324e-05
 -7.8617304e-05
 -7.9183737e-06
  3.1334325e-04
 -2.8638088e-04
 -3.3642998e-04
 -1.9649993e-05
 -1.3062338e-03
 -8.9365094e-05
 -1.5928291e-04
 -2.4212796e-02
  2.2498771e-04
  4.2354746e-05
  3.9505401e-05
 -2.5984073e-02
 -5.9743732e-01
  6.8882143e-04
  2.8543665e-05
  5.7170016e-01
 -2.3744690e-04
  1.1890981e-03
  2.7927384e-04
 -7.7479563e-05
  9.2128367e-04
  3.2953022e-04
  6.4642471e-04
 -7.5986415e-02
 -6.0951472e-03
 -3.0697926e-04
  1.2606895e-04
  1.4469492e-01
  2.4371271e-01
  1.3479934e-03
 -3.9154201e-04
  1.0884486e-04
  6.2358907e-07
  1.3239968e-04
  9.5480173e-05
 -5.0602292e-05
  1.6592314e-03
  2.1240801e-04
  4.9577880e-04
  8.9454443e-05
 -1.4083437e-04
 -3.6075118e-03
  1.7791929e-03
 -1.2601970e-01
 -9.3508542e-01
  2.4321187e-02
 -2.8704402e-01
  7.7161860e-01
  3.7502479e-05
  3.9099714e-01
  1.5091915e-02
 -2.0310737e-01
 -1.1287584e-04
 -1.4830355e-02
  3.2639644e-01
  7.0419577e-05
  1.6564787e-03
 -2.7387274e-02
  1.7460160e+00
  1.8791743e-01
  2.8866798e-01
  3.7749729e-04
 -1.3161090e-01
 -1.3448199e-04
  1.4670973e-01
 -3.4158418e-04
  1.8905521e-04
  2.7116056e-04
 -3.8638642e-05
  2.8972402e-01
 -9.0924732e-06
 -9.6392490e-05
  2.7850442e-04
  6.7372942e-01
 -1.6176268e-01
 -2.8914484e-01
  6.0950961e-02
 -1.7374459e-01
 -1.4996227e+00
  1.0054964e+00
 -5.8313217e-05
  2.7578387e-01
  4.6784198e-01
  1.7134221e-01
  7.3274801e-04
  1.1161180e-03
 -9.5436208e-02
  1.6699561e-01
  1.5294580e-01
  6.3272971e-03
 -1.1303383e-04
 -1.8514024e-01
 -3.6813340e-03
  3.4519675e-01
 -3.9269737e-04
  3.4768633e-05
 -1.7175631e-01
  7.7191396e-03
  1.6401988e-04
 -3.2411292e-05
 -8.0635245e-06
 -2.4679684e-04
  6.4612197e-04
  2.5608215e-01
  2.0446183e-05
  1.0823160e-03
  1.0253075e-03
  6.7966324e-01
 -1.4208135e-01
  1.6485252e-03
  1.4377479e-06
  2.8046831e-01
  3.8511111e-04
  1.4788016e-03
 -1.0334954e-05
 -8.7577989e-04
 -1.4392041e-04
 -4.0772040e-05
 -3.3158652e-04
 -6.3495230e-05
  4.6440988e-04
  1.1091069e-01
 -1.8367650e-04
  1.7241460e-04
  2.3257651e-03
 -1.0691669e-01
  6.5053195e-05
 -4.8085817e-04
  3.8884490e-04
 -1.7264370e-03
  1.0836282e-04
 -2.8675687e-04
 -9.7448647e-06
 -2.5254776e-04
 -5.3671156e-06
 -1.1166541e-04
  1.1254541e-04
  9.2463672e-02
 -9.8191043e-03
 -1.4620762e-01
 -2.2616813e-01
 -1.6370805e-01
 -1.4132072e-01
  5.1211916e-02
 -2.2026592e-01
 -2.5381389e-01
 -1.7538750e-01
 -3.6586839e-01
 -5.3801000e-02
 -3.5604122e-01
 -5.0089691e-02
 -1.4056276e-01
 -6.5461852e-02
 -1.3464123e-01
 -3.3509451e-01
 -1.3199565e-02
 -1.8594516e-02
 -1.8513779e-01
 -1.9876279e-01
 -1.2422272e-05
 -6.3103909e-04
  2.0135442e-02
 -3.7810487e-01
 -2.7626902e-01
  8.8388137e-05
  5.5521574e-05
  3.1049281e-02
  4.5762666e-02
 -9.1616191e-02
  8.7749839e-02
  9.2605948e-03
  3.1689414e-01
 -5.9071142e-04
 -2.5864378e-01
 -1.4739062e-03
  1.0860669e-01
  2.9929020e-04
 -9.8043688e-02
 -6.4350395e-03
 -8.1047365e-05
 -3.8495793e-05
 -3.0295574e-05
 -1.0843512e-02
  5.9431150e-05
 -2.9454281e-04
 -1.9257601e-03
 -1.3341032e-05
 -8.4287096e-03
  5.0349900e-04
  2.8392321e-07
 -2.8527231e-05
 -1.6234352e-04
 -1.5442340e-04
  2.1141009e-04
  1.8146771e-04
 -1.8085292e-04
  3.1516316e-05
  4.7502665e-05
  9.3871250e-04
  4.9286354e-03
 -2.2425108e-04
 -1.1491022e-01
 -1.0417083e-03
 -1.6362403e-03
  1.2452214e+00
  3.9761816e-03
 -1.3424144e-03
 -6.4887458e-01
 -1.2918331e-03
  1.7701104e-05
 -3.9167898e-03
 -5.6848633e-03
  1.0035286e-03
 -1.4132205e-06
  2.0368284e-02
 -3.1907338e-04
  3.4998596e-04
  2.9436278e-05
  1.8257078e-03
  5.5826426e-01
  2.4826000e-03
  8.9978910e-04
  8.0134407e-05
  1.2569229e-02
  3.4230216e-05
  5.6357717e-04
  2.1831955e-04
  9.0675865e-04
  6.6239656e-05
  2.7137999e-03
  1.2597753e-04
 -1.4432038e-04
  3.5778983e-05
  9.5401263e-01
  6.9368808e-03
  5.8036983e-01
 -3.2361937e-01
 -1.8718542e+00
 -5.6080669e-03
 -7.4849598e-02
 -5.4065528e-04
  4.6741343e-04
 -1.6159962e-01
  4.7038931e-02
  1.1623013e-03
 -6.2476109e-05
 -2.6759288e-01
  3.8166799e-02
 -2.2310555e-01
 -1.6784663e-03
  1.1574314e-02
 -7.9938740e-02
 -8.3312541e-02
 -3.5733178e-01
 -4.6089194e-03
  8.0986822e-05
 -1.4824740e-04
  7.9982028e-06
 -2.1374298e-02
 -5.2041497e-02
 -4.3719853e-04
  3.9937240e-05
  4.1186279e-03
  9.1540883e-04
  7.0130583e-05
  2.3413973e-01
  4.8371384e-04
 -2.2857653e-01
 -3.7741221e-03
  6.5915841e-01
  1.7625958e-04
  1.2734987e-01
  1.0759271e-04
 -1.2638050e-03
 -1.7593929e-04
 -1.1761203e-05
  8.1026592e-05
  3.4653151e-04
  1.1862649e-04
  2.1400794e-05
  9.1911637e-04
  6.5804477e-04
 -1.1499166e-04
 -3.2054982e-04
  3.8999980e-04
  9.5569440e-06
  2.6725733e-05
  5.3209587e-05
 -2.1432851e-04
  2.6410594e-04
 -2.8253047e-05
 -4.7528735e-04
 -1.5237081e-03
 -4.9139235e-05
 -2.3682263e-05
  3.3593172e-04
 -6.0756694e-05
 -8.6626923e-01
 -2.1494019e-05
  1.6976203e-01
  3.5931802e-01
 -4.7431082e-02
  1.1636661e-01
  7.5624824e-01
 -3.8814844e-04
 -4.3930570e-03
 -1.9983854e-04
  1.8263251e-02
  1.0553858e-01
 -1.4736582e-04
  1.0107747e-02
  2.0735872e-05
 -4.0715327e-05
 -3.8640293e-05
  1.4639378e-04
 -9.8130014e-03
  1.3258678e-04
  1.1165038e-04
  5.6950958e-05
  6.5550848e-05
 -1.4064850e-03
 -1.7492443e-04
 -4.6887217e-04
  1.2281678e-04
 -2.2635731e-04
  2.4620982e-05
  2.4514552e-03
  5.0194627e-05
 -2.4371954e-02
  2.9885178e-02
 -5.1831803e-04
 -4.9562353e-01
  4.4295964e-01
  1.5853707e+00
  9.6521336e-01
  1.4602251e+00
  1.6701742e-01
  3.2756132e-05
  4.3083739e-02
  1.3465250e-01
  2.7689603e-05
  1.4605209e-01
  3.2114723e-01
  5.2682725e-03
  4.0113130e-01
  4.3400258e-01
  5.6085307e-02
  1.2001207e-01
 -8.3007848e-01
  4.6260986e-01
  2.9411539e-02
  1.7986645e-04
  1.3593156e-05
 -3.4072569e-01
  2.1864010e-01
  1.9638651e-04
  3.9085382e-05
 -2.5527503e-05
 -1.9392719e-05
 -2.1979328e-02
  6.6801637e-02
 -4.6533920e-04
  4.0699137e-04
 -6.9719931e-04
  1.9401476e-03
  2.3980431e-07
  6.1599560e-05
  5.9458006e-02
 -5.3141444e-05
  6.7584042e-05
  1.7051623e-04
 -3.8123730e-05
 -1.0732258e-03
 -1.4071664e-04
 -3.8233717e-05
 -6.8237081e-02
  7.4187272e-05
  1.2730062e-04
  5.1759172e-04
  4.7999329e-04
  2.0035237e-05
  1.2378060e-03
  5.5721332e-04
  4.8269259e-05
 -1.0770939e-05
 -7.7456672e-05
 -1.4943026e-04
  2.8288856e-04
 -1.0424361e-04
  6.7972353e-05
  7.1091898e-05
 -1.1576881e-04
  5.8703561e-04
 -3.0803282e-04
  2.9516593e-03
  2.9395649e-01
 -2.4251652e-01
  2.5865957e-03
  1.3470650e-04
  2.0884569e-01
 -7.9366415e-05
  5.3840897e-05
  1.1041148e-04
 -1.0126749e-04
 -9.7412216e-05
 -3.0405886e-04
 -9.3101516e-02
  1.9269360e-03
  6.0657258e-06
  2.8195546e-04
  5.6986179e-04
  2.5222071e-05
 -2.2016580e-03
 -3.1659604e-04
  1.4043802e-04
 -1.6682867e-04
  1.5334243e-05
  6.4413078e-05
  8.5026666e-05
  2.3342995e-04
 -4.9824332e-05
  9.3210525e-05
 -7.9785718e-04
 -5.9757938e-05
  1.6543113e-03
 -2.0877668e-01
  3.2760072e-02
 -3.1889535e-02
 -7.1326725e-02
  4.4598116e-04
 -7.7829179e-03
  4.8680452e-01
  1.0567821e-05
  9.9327527e-02
  2.1874027e-02
 -2.6636131e-04
 -3.3694863e-01
  2.7975230e-04
  1.8505804e-01
  4.4305448e-04
 -2.4416519e-04
  7.9045196e-05
  3.9365166e-03
  8.3209828e-02
  1.2588961e-05
  2.6137680e-02
 -1.4345994e-03
 -2.2141151e-04
 -3.0852512e-05
  1.9969886e-04
  8.1452767e-05
  5.3484437e-05
  1.7969322e-04
  5.8287285e-05
 -1.4378395e-03
  2.6037858e-04
  5.4584700e-04
  4.0429235e-01
 -3.8607011e-04
  1.0122235e+00
  1.4206843e+00
 -4.8075777e-01
  1.2639740e+00
  1.0822096e+00
  7.3670727e-01
  5.9736755e-02
  1.3684254e-02
 -1.3590124e-01
  2.0715741e-02
 -9.2007295e-04
  2.1546640e-01
 -5.3968292e-01
 -2.8211164e-01
  1.6776989e-01
  3.7012054e-05
  4.0452547e-02
 -1.8942305e+00
  3.7313206e-03
  3.6356419e-01
  3.9997361e-05
  5.1302771e-04
 -3.7728482e-01
  1.1053807e-02
  2.6164266e-01
  1.9671202e-04
  1.2279296e-01
  9.0950169e-04
  4.5371130e-03
 -4.5868021e-04
  3.0642442e-04
 -1.4041360e-04
 -2.9619766e-04
  8.0774454e-03
 -2.8644830e-01
 -2.4595438e-04
  6.5080678e-01
  5.7755184e-04
  1.9378054e-04
  2.4915609e-04
 -4.4658191e-05
  9.9761935e-05
 -1.3153449e-01
  5.0985800e-06
 -1.2898842e-01
 -3.3871889e-01
  3.8805368e-04
 -3.8337494e-05
 -1.0671928e-04
 -3.8020391e-04
  4.9289529e-06
  3.7632039e-05
  1.9339771e-03
  2.3639641e-05
 -5.3473048e-02
 -6.6098676e-04
  8.1401497e-02
  1.5227328e-04
 -3.2723570e-04
  1.5234291e-04
  5.5551017e-04
  7.0639398e-05
 -3.6375260e-03
  7.4547408e-03
  5.2781343e-01
  1.0947903e-04
  1.0532010e-03
  1.9665381e-04
 -2.9357735e-04
 -3.1887575e-05
  3.7360718e-04
  7.4231240e-05
 -1.8973494e-04
 -3.4560180e-05
  1.2292259e-04
  7.3817198e-04
  3.8488011e-03
 -7.6026059e-05
 -1.3317037e-04
  1.0112354e-04
 -1.5729159e-04
 -1.7897591e-03
 -6.4944129e-06
 -5.7148235e-04
  1.9521553e-02
  1.0269228e-04
 -1.1737783e-04
 -1.3346033e-04
 -1.5976359e-04
  4.5548295e-05
  9.5058611e-05
  1.2478232e-05
 -3.3518902e-04
 -5.5780978e-04
 -1.0695022e-01
 -2.7990463e-05
  9.7575942e-03
  4.0602303e-01
  2.1387906e-01
 -1.7007616e-04
  5.2216369e-01
 -2.4095739e-04
 -9.4258157e-06
 -3.1192487e-04
 -6.2097084e-02
  7.3979184e-04
 -1.3120618e-04
 -1.3710669e-01
 -1.2471971e-04
 -8.3054620e-05
 -9.6515032e-05
 -3.1707023e-04
 -2.5027642e-02
  2.1639541e-04
 -1.4232464e-04
 -9.6701107e-05
 -8.2628161e-05
  1.8285061e-04
  1.6377677e-04
  2.0761405e-05
 -2.4561680e-04
 -3.6980436e-04
 -3.9977831e-04
 -1.0851645e-04
  2.5186138e-03
  3.8241560e-05
 -5.2544579e-02
 -1.0245200e-04
  9.5524228e-01
 -1.0236651e-01
 -2.0002106e-03
  1.2970763e-01
  5.8543984e-02
  2.4334557e-05
 -3.4572950e-05
 -6.9439566e-06
 -1.4683865e-01
 -3.4603427e-04
 -1.1373454e-03
  2.1338025e-03
 -6.9130189e-03
 -3.9034981e-02
  1.6911102e-03
  2.0959867e-04
  3.8867337e-03
 -1.0019636e-04
  1.0904170e-03
  4.5155740e-01
  8.7820430e-05
  1.7474569e-01
  1.2839996e-05
 -1.3097596e-05
 -1.8057804e-05
  4.8426387e-04
 -2.0583201e-04
  6.8014153e-05
 -1.9659103e-04
  5.4230297e-04
 -2.0035704e-05
 -1.1109362e-04
  1.0104482e-05
  1.0801689e-04
 -2.2187456e-04
 -1.0396875e-06
 -3.9897441e-05
  1.6082771e-04
 -9.1549574e-04
 -3.9068921e-04
 -9.1033507e-05
  1.4196476e-04
 -5.4425327e-05
 -4.5268674e-04
 -2.8258928e-03
 -8.4879699e-05
 -2.1685778e-04
  1.5112205e-04
  1.9598148e-04
  1.6001474e-04
  2.5709267e-05
 -2.7805433e-04
  2.8923463e-05
  2.8900906e-06
  5.0583731e-05
  2.2870251e-03
 -1.9173425e-04
 -8.1764148e-05
 -3.0036916e-05
 -1.4621051e-04
  1.1283449e-04
 -8.9203968e-04
 -4.6027732e-01
 -2.9691824e-05
  1.7210860e-02
 -3.7796047e-01
 -5.7594471e-02
  1.9144409e-05
  5.3953687e-03
 -2.9689493e-04
 -1.0206877e-01
  1.4173593e-02
 -2.6273646e-04
 -5.6744606e-04
  1.7121532e-04
 -3.2755977e-03
  2.4852864e-02
 -3.6770885e-05
  4.4821060e-04
  7.3201774e-04
 -5.5241449e-05
  1.4493628e-04
 -7.4830763e-03
 -4.2285215e-02
 -2.0534776e-03
 -3.5327664e-04
 -1.6848522e-04
 -5.0372183e-03
 -4.1060860e-04
  2.2047496e-05
  5.3122151e-04
  2.9522022e-03
  3.0082432e-04
 -2.3559573e-04
 -6.9258003e-06
  3.2519936e-04
  1.7490410e-04
 -1.3812581e+00
  2.1357631e-04
 -4.2857559e-04
  5.4431410e-04
 -3.2498085e-04
 -6.1850689e-05
  3.3754672e-04
 -8.0338126e-05
  5.6606037e-05
  9.0709720e-05
 -6.4711692e-04
 -1.8702395e-04
 -2.5940230e-04
 -3.7462130e-04
  5.8719179e-05
 -4.8010912e-05
  7.3291631e-05
  3.9135157e-03
 -1.6531811e-04
 -3.5011370e-04
 -3.0528903e-05
  1.5025263e+00
 -4.2995164e-04
  5.8179070e-05
  5.0807139e-04
 -6.2835989e-06
 -2.2828946e-04
 -1.6873626e-05
 -2.5875617e-05
 -1.8407816e+00
 -1.0806492e-04
 -1.3928270e+00
 -6.9087344e-01
  6.1157060e-01
 -1.6741382e-01
 -1.9112891e+00
  7.4908126e-04
  6.9902960e-04
 -2.3200859e-05
  3.4845960e-01
 -1.4708893e-01
  1.4694390e-03
  1.2559907e-01
 -8.0729648e-04
  5.7005692e-01
 -1.8995444e-05
  1.4402952e-04
  1.3569219e-01
  1.2224371e-04
  8.2745923e-05
 -2.7664803e-02
  1.1975967e-05
  2.6410870e-04
 -6.4759239e-05
  6.0906776e-05
 -6.2175830e-05
 -1.2594198e-05
 -6.9355464e-04
 -3.0474190e-04
  7.9772790e-04
 -1.2170825e-04
  6.7927271e-05
  8.8303182e-03
 -4.2115887e-05
  5.6049742e-02
 -2.2844669e-01
  6.0340116e-04
 -3.3583071e-03
  1.2486782e-04
  5.8940477e-05
  3.6548823e-05
  1.8834500e-05
 -3.3872671e-02
 -4.3479929e-05
  1.5415424e-04
  1.7547035e-03
 -1.0258467e-04
 -1.1066685e-05
  1.3163792e-04
  2.1434849e-04
  1.8882165e-04
 -1.0897045e-04
 -1.5617564e-03
  1.2340561e-04
 -2.3542522e-04
  4.4778615e-04
  3.1088599e-05
  1.6292352e-04
  2.4229030e-03
 -7.7927943e-05
 -5.1849941e-04
  1.5138491e-04
 -4.4953533e-05
 -1.9472165e-02
  8.8279247e-02
 -2.8004029e-01
 -5.8725095e-01
 -2.2755836e-01
  9.1056200e-04
 -2.0270135e+00
 -4.8130314e-05
 -9.9917156e-01
 -1.8296327e-02
 -3.8671833e-02
 -8.4437411e-03
 -9.9655516e-02
  2.4354985e-02
 -8.4347896e-02
 -5.2057111e-01
 -7.3391102e-02
  4.0445775e-02
 -3.6650088e-02
 -2.3807813e-03
  1.2333020e-04
 -2.8737266e-02
  3.4998302e-04
  1.2215083e-03
 -2.5407879e-05
 -3.2450629e-05
  8.1046499e-05
  8.8570800e-05
 -4.6496181e-04
 -1.5601728e-02
 -2.5496794e-05
 -4.0651960e-03
 -2.2391462e-01
  3.5512468e-05
 -3.4211817e-01
 -7.8843302e-01
 -1.7486657e-04
  6.3665681e-02
  9.3142994e-02
 -8.3748350e-04
 -5.3336105e-05
 -1.0838085e-04
 -4.6317804e-05
  2.8193141e-05
  1.6450114e-04
  2.5623743e-04
 -2.8165792e-05
 -3.2171316e-05
  1.3649973e-04
  7.9460989e-04
  8.8498557e-05
  6.7713672e-01
  3.4778242e-03
  5.6619296e-04
  7.8592690e-05
  5.1511000e-05
 -4.1089064e-04
  3.9732794e-04
 -1.8110372e-04
 -3.6487214e-05
  2.8352477e-04
 -1.5616935e-04
  1.6737364e-04
 -6.6452631e-06
 -4.6633211e-01
  1.1564041e-03
  3.4202310e-06
  1.4175908e-04
 -1.5416031e-04
 -1.5974896e-04
 -2.8136218e-04
 -6.0204420e-05
  1.4218407e-04
 -4.2784770e-05
 -1.1726272e-04
 -3.8723996e-05
 -2.2002125e-04
  1.9893236e-03
 -5.2600086e-04
 -6.9365476e-04
  2.9947909e-03
 -2.6447162e-05
  6.1147538e-04
  5.8145553e-05
  4.7991321e-05
  8.7984727e-06
 -9.2445171e-06
 -3.5291864e-04
 -3.0384486e-04
 -4.1527630e-05
 -1.5414075e-04
  2.0322338e-04
 -2.4959512e-05
 -1.1024821e-04
  1.7224796e-04
 -2.6609286e-04
  9.5099771e-05
 -1.1212838e-04
 -5.4272395e-01
 -9.3533781e-05
 -7.4374708e-05
 -1.1473151e-05
 -1.0908207e-01
  7.1471586e-05
  2.3549049e-04
 -1.2104474e-04
 -4.7961636e-05
  1.3799187e-04
 -4.2659085e-05
 -2.3893421e-04
  7.8595296e-04
  2.1201334e-04
 -3.7690284e-04
  1.2565780e-04
  3.9847198e-04
 -6.0437876e-01
 -1.8254270e-04
 -1.8238914e-04
  2.2671843e-04
  2.5331436e-05
 -1.5202959e-04
  2.6768231e-04
 -8.3147890e-05
 -3.5755979e-04
 -7.9431093e-06
  3.0713109e-04
 -1.5088466e-04
 -4.4890121e-01
  3.4541255e-01
 -4.3347778e-04
  5.7677215e-01
 -7.9129380e-01
 -7.9091007e-01
  1.6471851e-01
 -1.3302686e+00
 -3.4476340e-02
  3.0031251e-03
  2.6173064e-02
  1.8673535e-01
 -2.7959540e-01
 -3.9145267e-01
  1.3055676e-01
  2.9240048e-01
 -1.4680055e-01
 -1.6012944e-01
 -3.6661166e-01
 -7.1721382e-02
  4.6250955e-04
 -1.1715754e-03
 -2.0032644e-01
 -2.1005204e-01
 -4.8534665e-01
  1.2888463e-01
 -3.6178544e-01
 -2.5052881e-01
  4.5871537e-04
  2.0477350e-01
  5.3978087e-03
 -4.4603450e-03
 -3.3155810e-02
 -9.8082036e-02
 -4.0717734e-04
  1.0733560e-01
 -8.0178101e-03
 -2.8026453e-01
 -4.7401350e-04
  2.3108263e-02
  4.9031922e-01
  1.9505576e-04
 -6.4798478e-06
  9.7647171e-05
  7.0546259e-05
  1.1434910e-04
 -1.0244957e-04
 -3.1471921e-03
  3.3409591e-04
  3.2351432e-05
 -4.9182394e-04
  5.5069481e-06
 -3.8959543e-04
 -4.5604644e-05
  4.0764362e-06
  1.6286704e-05
  6.2362546e-05
  3.7492300e-05
 -2.1956828e-04
 -5.3783378e-04
 -1.9180588e-05
 -1.3322955e-04
  3.5959025e-04
  1.3464583e-04
  3.5790849e-01
  2.1026565e-03
  1.9350813e-03
 -1.4795776e-01
  6.4325738e-01
  5.4134075e-03
  1.9124782e-04
 -3.2554245e-01
  1.1658664e-04
  5.6727637e-02
 -6.0574425e-04
 -5.8144215e-04
  5.2046345e-04
 -6.4546324e-04
  8.8411786e-02
  8.7617991e-05
 -7.7952520e-04
 -2.5438468e-04
 -1.5251357e-03
  1.5314952e-04
  5.9284216e-01
  5.2508373e-02
 -3.5300304e-06
  1.2158182e-04
  1.1132545e-02
 -1.5981378e-04
  3.8396244e-04
  9.3272341e-05
 -2.7056323e-05
  5.6020708e-05
  8.5281019e-05
 -1.2310884e-04
  1.4185832e-01
 -5.5641586e-01
 -5.7049769e-05
  1.9612902e-05
  1.1688354e-03
  1.5357694e-04
 -1.0383738e-04
 -1.2215192e-04
  1.3020691e-04
 -6.1118633e-05
  1.7797352e-05
 -7.3027411e-05
 -1.6556842e-04
  1.5406093e-05
  2.6104644e-02
 -1.4154465e-04
 -4.3423515e-05
 -4.0352976e-04
 -2.8108162e-04
 -4.5382003e-05
  7.6356978e-04
  2.2038998e-04
 -2.5659637e-04
 -2.9378618e-05
  1.1451435e-04
 -1.1748675e-05
 -1.9076219e-04
  4.8458587e-05
 -2.0738612e-03
  3.2818725e+00
  2.9013757e-04
  8.9334753e-05
 -1.8606306e-04
 -1.2422072e-04
 -5.2672322e-04
  7.5002179e-05
  4.6592092e-04
 -3.1005577e-04
 -1.6656618e-04
  2.1164145e-04
 -6.5927343e-05
 -1.2064740e-04
 -2.2723569e-04
 -7.0491451e-06
  3.5439402e-06
 -7.0366682e-06
 -1.8493881e-04
 -8.6761038e-06
  1.1464720e-04
 -7.6445809e-05
 -1.0485310e-04
  6.6964421e-05
  2.6255721e-04
  2.6161708e-05
 -7.2071001e-05
 -5.9254824e-05
  7.6230226e-06
 -3.3474840e-05
  4.8954338e-05
 -1.2484781e-01
  1.9625591e-05
  3.8702903e-05
 -1.1251591e-04
 -2.6928217e-04
  2.6024989e-04
 -2.7365056e-06
  9.2687929e-05
 -9.4561678e-05
  6.6201050e-05
  3.3682296e-05
  8.5264903e-05
 -1.7947827e-02
  3.8337705e-05
  1.8363326e-05
 -5.8617141e-05
  6.7368710e-05
  6.3364227e-05
 -3.4645789e+00
  4.8213097e-04
 -5.6209794e-04
 -3.0698359e-04
 -4.3352044e-04
  1.1890129e+00
  1.9477773e-03
 -4.5933865e-04
 -6.6569948e-05
  4.1731666e-05
 -1.5724884e-04
 -9.7669159e-05
  6.1982556e-04
  3.0107450e-04
 -7.8389552e-05
 -8.5767002e-05
 -9.7627439e-05
  1.8304629e-04
 -1.5765790e-02
  7.8560508e-05
  5.3245074e-01
 -1.5024441e-02
  2.3244810e-01
 -3.3727056e-01
 -2.4644947e-03
  1.1343238e-01
 -4.2518532e-01
 -1.0935533e-05
 -1.0581036e+00
  6.6398731e-03
  1.7743236e-05
  1.6728577e-03
 -6.5926537e-02
 -2.8972861e-01
  1.8162334e-02
 -9.5778912e-02
  4.0818635e-01
 -9.8970778e-02
 -6.7000401e-01
 -3.6979344e-02
 -2.3925127e-01
  1.5015027e-03
 -5.2802301e-05
 -2.8854969e-01
 -4.6747784e-05
 -1.8007989e-01
 -8.5414897e-05
 -1.0406761e-05
  5.6216544e-03
  3.1090882e-01
  8.7418441e-05
 -2.4331115e-02
 -1.3204983e-04
 -8.4871050e-07
  2.1349004e-04
  4.2907402e-02
  3.7695505e-04
  1.0654709e-04
  2.9873627e-04
  2.8009125e-04
 -1.4479880e-02
  2.3732538e-05
 -6.4891283e-05
 -9.4037960e-06
 -1.7533189e-04
 -3.5236728e-05
 -7.8774896e-04
  5.4692133e-05
 -1.7496952e-04
 -6.4052932e-05
  8.3727289e-05
  3.4888671e-04
  2.9535375e-05
  1.0715346e-04
 -3.3646051e-05
 -5.9217506e-04
 -1.8487156e-04
 -1.0095536e-04
  8.2883757e-04
  5.6424126e-04
  1.6812391e-04
  2.6189604e-05
  2.1819607e-05
  3.7543890e-05
  1.6561022e+00
 -1.1250522e-03
  5.6780356e-01
  1.9404712e-01
 -9.8565288e-02
 -6.1223778e-04
  2.0847189e+00
 -2.6798795e-04
  2.1502633e-04
 -1.5016118e-04
  5.6503084e-04
 -2.0581893e-04
  1.8175640e-04
 -2.0144552e-04
 -4.0759120e-04
  3.5949185e-04
 -2.1932110e-04
 -7.0522120e-04
 -2.4364066e-04
 -1.6898023e-04
  2.4649434e-02
 -2.8528128e-04
 -1.6202059e-04
  8.0918777e-04
  1.7280334e-01
 -4.5947876e-04
 -3.7455533e-02
  3.4778265e-04
  5.2769770e-05
 -4.9369546e-06
 -5.4507965e-04
  1.0114236e-04
 -9.0757214e-07
  7.4257392e-01
 -2.5643474e-01
 -2.1581168e-03
  8.0412872e-02
  4.1946685e-01
  1.9180095e-04
 -5.2792352e-02
 -3.7110302e-01
  2.1272758e-01
  4.9191882e-04
 -3.4719912e-04
  1.1586152e+00
  1.0363976e-02
  3.4284282e-01
  1.4493163e+00
  8.0441344e-01
  7.1289176e-01
 -1.2844910e-03
 -2.3653954e-02
 -7.2846270e-01
 -2.4558434e-01
  2.9363039e-01
 -2.3936400e-01
  2.0974286e-01
 -4.4840734e-02
  6.2542903e-01
 -1.0626431e+00
  5.6093806e-01
  6.0892403e-01
 -6.5543234e-01
  4.5297253e-01
  3.7024020e-05
 -4.6861000e-04
  1.2169061e-04
  3.0094764e+00
  8.0187505e-01
 -5.9597675e-02
 -3.5495904e-01
  3.9900795e-05
  4.8446789e-02
 -1.0650612e+00
  1.1189388e-01
 -2.7401644e-01
 -4.9607784e-01
  1.7746646e-04
  2.0900207e-04
 -8.6022007e-01
 -4.9164963e-01
  5.0395423e-01
  1.2610805e-05
 -3.1910105e+00
 -1.0035729e+00
 -1.2821090e-04
  4.2788380e-01
 -2.6722836e-01
 -7.4671890e-04
 -3.5550174e-01
 -1.3278307e+00
 -5.3487605e-01
  8.1260409e-04
 -7.2777018e-02
  2.7601941e+00
  6.9398397e-01
  1.3971597e+00
 -1.8795860e+00
  1.5782967e+00
 -1.4735805e+00
 -3.1694812e-01
  8.4935975e-01
 -6.9835591e-01
 -2.8388593e-01
 -1.4125304e+00
  5.5578512e-01
  1.5956362e-01
  3.7483931e-01
  1.4438982e+00
  6.8058443e-01
  1.2735174e+00
  5.4033291e-01
 -3.2549670e-01
  1.3049248e+00
 -4.5264795e-04
 -4.9337110e-01
  8.5908202e-03
  4.7588921e-01
  3.8131607e-01
  2.9298871e+00
  1.9754663e-01
  1.6180719e-01
  1.3896452e-01
 -2.8755496e+00
 -2.8274032e-01
  8.1019443e-01
 -9.7298779e-02
 -1.0443542e-03
 -9.7705036e-02
 -1.9599150e+00
  1.4948888e-01
 -6.4045858e-01
 -1.1738880e+00
 -2.7740973e-01
 -9.3168363e-02
 -1.6886672e-01
  9.8810339e-01
  3.7363541e-01
  1.1953864e-01
 -3.3747616e-01
 -3.2966945e-01
  1.2213040e-01
  5.8749378e-02
 -3.7105513e-01
 -1.1933824e-01
 -8.7107420e-02
 -1.8758294e-01
 -5.5910337e-01
 -5.3620815e-02
  6.3676172e-01
 -1.0549805e+00
 -3.5253310e-01
  6.2501037e-01
  3.2853428e-01
  1.2391812e-01
 -8.0140710e-02
 -3.8157618e-01
  2.7783084e-01
  4.2960566e-04
 -6.2946767e-02
  1.1144790e-02
 -2.1071246e-01
 -1.8382648e-01
 -1.2884433e-03
  2.6054602e-04
  6.4257145e-02
 -2.1740067e-01
  1.6657010e-02
 -2.0084651e-04
  1.1651207e+00
 -6.6268658e-05
 -1.5838611e-03
  1.9666599e-04
 -1.4640096e-01
 -5.6579142e-05
  6.4154540e-07
  2.3853582e-04
 -5.5581000e-05
  2.9857465e-04
 -2.0850022e-01
 -6.4024382e-05
 -7.1907634e-05
 -1.4453208e-01
  3.5006355e-04
 -6.0033493e-02
 -2.7431226e-05
  1.2774903e-03
  1.7055588e-04
  5.2067742e-04
 -1.0173887e-04
  6.6898517e-02
  5.4694974e-04
  1.5738825e-04
  2.3958841e-04
 -2.3492079e-03
  1.1120812e-04
  5.0828165e-01
 -1.0961472e-04
 -9.5078355e-01
  7.3125768e-01
 -2.1355689e-05
  3.3491830e-04
 -6.3259964e-04
 -9.6617892e-05
 -8.3619525e-06
 -1.3045357e-03
 -1.4083086e-04
 -6.4839100e-05
 -9.7401841e-03
 -2.4843484e-02
 -1.5148547e-03
  9.0857060e-04
 -1.4684217e-04
  1.7140740e-04
  1.8883236e-02
  2.0006490e-04
 -1.0149060e-01
 -2.5350176e-04
  9.1965616e-05
  2.1526458e-04
 -2.1084989e-04
 -1.4560581e-05
  5.0028866e-05
 -6.1738316e-04
 -1.3634680e-04
  5.6373559e-05
  3.5692347e-04
 -2.0450359e-04
 -9.5791451e-04
 -5.2980619e-04
 -8.7649620e-04
 -2.1722187e-04
 -8.7308901e-05
 -5.3542267e-06
 -6.1941841e-03
  9.5300982e-03
 -2.6451608e-03
  5.5626006e-04
 -3.6453542e-03
  2.9480388e-02
  1.8394556e-03
  2.0523094e-04
 -9.6633780e-04
  4.2930938e-04
  2.5675906e-04
  2.6355917e-04
 -5.1023229e-04
  4.5351433e-05
 -3.0552590e-05
  4.6590958e-05
 -2.8765740e-04
 -3.9519294e-04
 -1.9141666e-04
 -3.9544788e-01
 -2.3285205e-04
 -4.5027162e-04
 -1.4126333e-04
 -5.1071518e-05
  2.0373622e-02
 -1.0022293e-04
 -3.5179389e-01
 -1.2092494e+00
  2.3655912e-01
  4.6814266e-01
 -4.7834319e-01
  2.1398622e-01
  6.2098461e-01
 -1.7751671e-01
 -3.4180406e-02
 -7.0890598e-02
 -6.2612798e-03
 -4.5935190e-01
 -6.7091829e-01
  8.7565392e-01
  3.0851309e-04
 -7.1528846e-01
 -1.6863227e-01
  5.6218169e-06
  2.9550772e+00
  1.0841428e+00
  1.1749377e-01
 -8.8238381e-03
 -2.7201229e-01
  7.7392548e-02
  5.9759170e-01
  1.5326867e-01
  2.7013541e-04
 -4.6700460e-01
 -4.5138691e-04
  1.2574562e-01
  2.1719258e-01
  1.3045399e-01
 -6.0285878e-01
 -5.6239814e-01
 -2.3679584e-01
  1.5906956e-02
  9.5224357e-05
 -4.1471326e-01
 -2.3121161e-04
 -2.5620952e-03
  5.7212633e-01
  1.8751968e-04
 -1.6342942e-04
  3.7837657e-05
  2.7449328e-02
 -8.7263121e-04
 -5.2265012e-01
 -7.3888056e-02
 -4.1797548e-04
  1.0133216e-02
  6.4028823e-01
  2.6763754e-04
  9.1259710e-02
 -1.8104922e-04
  4.7867247e-04
  1.6964176e-04
 -7.3030748e-04
  3.1676972e-01
 -1.8397383e-04
  6.8946733e-06
  6.6125009e-05
  3.0795563e-04
 -7.3269016e-01
 -4.8634738e-05
  7.4189889e-01
  4.9601662e-05
  3.6534646e-05
  7.8420911e-05
  1.7090011e-05
  7.4263746e-01
 -1.4921360e-01
 -6.0262151e-05
 -2.7173778e-04
  1.1974390e-04
 -3.2100920e-04
 -8.0479532e-07
  8.2028724e-05
 -1.1182482e-04
  3.0334268e-04
  3.3201792e-04
 -9.7447092e-04
  1.4502615e-04
  1.2374329e-04
 -1.3667646e-04
 -5.6876986e-05
 -3.1822725e-05
  3.9681971e-01
 -4.1650393e-04
 -3.1425015e-03
  1.4827501e-04
 -2.6686696e-04
 -5.3333008e-04
  1.3043731e-05
 -6.9489040e-05
 -5.6191664e-05
  9.8225838e-03
 -2.2717088e-06
  2.3587435e-04
  1.3343069e-04
  1.4042974e-04
 -1.6772391e-04
  1.0130519e-01
 -7.6164324e-06
 -3.1832176e-05
  4.0366050e-02
 -3.7665690e-05
 -2.0016026e-04
  2.4555500e-05
 -3.2092683e-04
 -5.8167043e-05
 -2.8883840e-05
 -1.4594506e-04
 -5.7980200e-05
 -4.2379688e-05
  1.9939978e-05
  3.7063978e-04
  5.0106257e-05
 -6.6347908e-05
 -5.3424861e-05
  1.4318948e-04
 -2.4145427e-04
 -2.2019960e-04
  6.7984183e-05
 -4.3836579e-04
  2.7128484e-04
  1.6734657e-01
 -9.6025979e-05
 -8.6107568e-05
  1.5533477e+00
 -5.8314526e-01
 -1.4457868e+00
 -5.4523820e-04
  6.3229434e-04
  1.4451522e+00
  4.4201731e-04
  7.6862743e-06
  9.3849776e-05
  9.4834670e-02
  9.8039135e-02
  3.1312048e-02
 -1.1150963e-01
 -6.8245679e-02
  4.2937841e-05
 -1.5656282e-01
  1.6633505e-01
  2.0980314e-04
 -1.6461685e-04
  3.7086065e-05
  1.2350146e-04
 -3.9888258e-05
  4.1996798e-04
 -2.8909151e-06
  3.0240067e-04
 -1.1306985e-01
 -3.5081830e-05
  7.2379982e-05
  1.1141121e-04
 -1.3391650e-04
 -1.1616757e+00
 -2.3133627e-05
  1.5933338e-03
 -1.0500130e-02
  4.6186239e-02
 -6.7401910e-04
  2.6289973e-04
 -8.8803854e-06
 -4.5611116e-05
 -5.1642910e-06
  6.5396707e-05
  2.6640744e-05
  2.4685154e-03
  3.8897952e-03
 -6.7055196e-05
 -7.0894030e-06
 -3.4033097e-04
  6.5916312e-05
  1.1218820e-03
  6.0316270e-05
 -9.9796080e-04
 -4.9351249e-04
 -2.9874528e-03
 -6.5554725e-04
 -5.8400205e-06
 -5.5771707e-05
  6.0751179e-05
  4.7764282e-05
  5.8717975e-05
 -6.7734363e-05
  3.7489913e-04
 -2.1153238e-01
  1.7028498e-05
 -8.8085864e-05
  1.3984929e+00
 -1.5886305e-01
  1.1914188e+00
  4.2380282e-01
  3.2318380e-01
 -1.1039987e+00
 -4.0780587e-04
  2.5340665e-02
 -7.1735036e-01
 -1.1891232e-01
 -8.4698863e-02
  2.7453211e-01
  1.4354333e+00
  5.0544336e-02
  1.5059577e-03
  1.5310593e-01
 -1.1869433e-04
 -1.3258278e-01
 -4.9968172e-02
  2.2448536e-03
 -1.0505497e+00
  2.2354219e-05
 -3.6654603e-01
 -3.3771342e-01
 -3.2470794e-04
 -3.4896925e-01
 -7.5212149e-05
 -2.4158730e-01
 -3.5645786e-01
 -2.8752642e-05
  1.1515440e-01
  1.1792809e-03
  6.0899448e-01
 -2.5616871e-02
  1.4936261e-01
 -2.4789062e-05
 -2.0060479e-04
 -6.6271075e-04
 -8.2962975e-02
 -7.0788094e-04
 -1.5265660e-02
  2.9936270e-04
 -1.5083539e-01
 -2.5293865e-04
  4.3694852e-03
  5.0999108e-04
 -2.7875800e-04
  7.3729752e-05
  6.0976045e-06
  2.6921459e-04
  6.0411968e-04
  2.8058600e-01
 -3.5349349e-03
 -4.7701772e-04
 -9.2018628e-04
  1.0385448e-03
 -4.2352862e-05
  5.7279569e-04
  6.0531791e-05
 -4.7931485e-04
 -5.9730635e-04
 -2.0165481e-04
  7.9660420e-04
 -5.2452675e-04
  6.3717075e-02
 -5.0873314e-05
 -4.2694137e-02
 -1.1149904e-04
  1.0993378e-03
  1.0847526e+00
 -2.0597069e+00
  6.7042172e-05
  1.5305890e-05
 -4.6230285e-04
 -1.2632927e-05
 -4.4713562e-04
  2.9919899e-01
  4.0963944e-04
 -5.6990877e-05
 -2.4678720e-05
  2.2070030e-04
 -1.4520885e-01
 -6.8864346e-02
  2.3813195e-04
  2.5056178e-02
  2.2926450e-05
  1.3444345e-05
 -1.3068942e-03
  3.2772728e-05
 -5.2174095e-05
 -2.0625810e-04
  1.6290946e-04
 -1.0201093e-04
 -7.2112314e-05
  1.9792971e-04
 -4.9326805e-05
  2.6703659e-02
 -2.4285089e-02
 -7.9297704e-01
 -1.9884996e-05
 -1.3214433e-04
  1.2828232e-01
 -6.5727130e-02
 -1.6572620e-04
  1.0699638e-03
  3.5493065e-02
 -2.1144716e-02
  1.7041273e-02
 -1.2548675e-04
 -1.4800884e-01
  9.6963413e-02
  4.5195982e-05
  1.6182974e-02
  1.3168459e-04
  5.2735530e-02
 -5.2244723e-04
 -1.1148844e-01
 -9.3265797e-04
 -5.8891615e-05
  5.5470689e-05
 -2.5899896e-02
  3.7110000e-04
 -2.9527600e-04
  3.2497403e-05
  7.3820562e-03
 -2.3084582e-04
  3.6667883e-02
  4.7160240e-05
 -1.5249275e+00
  6.3447892e-03
  3.9199628e-03
 -2.0800229e-02
  3.8650855e-01
  6.8857871e-02
  8.5150480e-02
 -5.9360234e-05
  2.6606905e-04
 -2.2751122e-04
  5.5370126e-02
  6.5064196e-05
 -9.1621645e-05
 -9.4620474e-03
 -1.2469737e-04
  1.1758255e-03
  1.1467372e-04
  1.2906278e-04
 -3.4324214e-01
 -1.2122290e-04
 -8.2021847e-04
  1.4445227e+00
  4.7558748e-05
 -1.8124850e-04
 -5.3960948e-06
 -5.4432428e-04
  4.8221573e-05
 -4.6902841e-07
 -2.8119358e-04
  7.3817487e-06
 -8.7162181e-05
  1.8169398e-04
  1.3024812e+00
 -1.6516443e-02
 -6.0657509e-02
 -7.3528133e-02
 -3.3359800e-02
  1.5691207e-03
 -1.0143236e-02
 -1.6023581e-01
  4.7437076e-02
 -7.2074646e-01
 -3.8430503e-01
 -1.1044419e-04
 -1.0031047e-02
 -3.9760020e-02
  8.5398364e-01
 -2.9688194e-01
 -6.1134156e-04
  4.9028394e-01
 -3.0923784e-05
  2.0901895e-01
 -5.3231257e-01
 -2.1332382e-05
  7.2139746e-01
 -1.8072218e-06
 -4.1080983e-03
  1.9697472e-01
 -4.7193331e-05
  1.5804415e-04
 -1.3216198e-03
  8.2460590e-02
  4.3652344e-05
 -8.5916242e-04
 -3.0099100e-01
 -1.1168882e-01
  9.9145752e-01
  5.5315483e-01
  3.2018536e-01
 -2.5693157e-01
  4.2400056e-01
  9.4072938e-02
 -3.3003402e-01
  2.8072443e-02
 -4.8998132e-02
  4.7540855e-01
  2.4728975e-01
  2.1541139e-01
 -6.2523866e-01
  1.1572739e-01
  1.3148489e+00
  2.3746857e-02
 -8.9109875e-02
 -5.2906561e-01
 -2.9174851e-02
  5.7867187e-01
  1.7866103e-02
 -1.0712217e+00
  5.2864663e-03
 -2.3196514e-01
  5.4081571e-01
  2.6373303e-02
 -5.1521206e-01
  4.9792347e-03
  1.4312138e-01
 -1.3469088e-01
  3.1950080e-01
  5.3399622e-01
 -3.4846482e-01
  3.5737717e-01
 -9.0562242e-01
 -2.1168169e-01
  3.0940385e-03
  9.8646276e-02
 -7.1572468e-02
 -2.3815645e-01
 -2.1538205e-01
 -5.8083814e-01
  4.7230032e-01
 -4.9187842e-01
  3.6570561e-01
 -4.8902172e-01
  1.0499963e-01
  4.2555559e-01
 -5.2928939e-02
  7.2560680e-01
 -1.4708142e-01
 -1.8473798e-04
  1.6556339e+00
 -1.5302821e-02
 -1.5629655e-01
  2.9093918e-04
  8.5981539e-04
 -2.3802130e-01
  1.7467042e-04
  4.7132012e-02
  9.4412160e-01
 -1.7655006e-04
 -2.0906592e-03
 -2.2321381e-01
 -4.8963662e-02
 -3.6132999e-05
 -1.0747850e-03
  8.0439068e-02
  3.3316431e-03
 -2.8167540e-04
 -2.5414248e-04
  1.5476833e-05
 -2.2599492e-02
 -2.8553200e-01
  1.1807399e-02
 -9.6700955e-03
 -2.6071554e-02
  5.9210411e-03
  5.8393266e-06
  2.1296635e-04
  1.1003943e-03
 -3.9768658e-04
  1.5479873e-04
 -7.4941211e-04
 -4.8973406e-04
  3.4663565e-03
  3.4203458e-05
  7.7535202e-05
 -5.5093202e-04
 -1.0597174e-04
  3.9919658e-05
 -4.1973432e-05
 -7.1897535e-05
 -5.2657124e-05
 -2.0408217e-04
 -2.6267176e-04
 -3.0064190e-05
  1.0485289e-04
  2.0555296e-04
  1.1574735e-05
  4.5929305e-04
  3.1947799e-04
  6.9247530e-05
  3.4190035e-01
 -4.0151316e-04
 -8.0139411e-04
 -1.0661763e-02
 -1.4706352e-04
 -1.1131877e-04
 -7.1766692e-05
  1.7894017e-04
  2.1013018e-04
 -3.3876969e-04
 -1.7566723e-04
  2.1184795e-04
 -4.0921496e-04
 -2.0978771e-04
 -5.3454361e-05
 -1.0310648e-04
 -4.8854006e-05
  1.2434523e-04
  2.6553487e-05
  3.6729264e-04
  1.3934513e-05
 -1.2220233e-04
 -2.6280369e-04
 -1.0699775e+00
 -3.2118812e-01
  3.4573889e-01
  2.7059979e-04
 -1.1473668e-01
  9.4018579e-02
  4.5804221e-02
 -2.4361138e-01
 -6.9880866e-02
  3.9224196e-02
 -3.0737974e-02
 -1.0458564e-01
 -2.2322756e-04
  8.0831230e-01
 -1.2450389e-01
  2.2706729e-03
  8.4210289e-05
 -3.5748220e-04
 -3.7480258e-05
  1.7422943e-01
 -2.0985959e-02
 -4.3026111e-04
 -2.3630536e-01
  4.1295445e-04
  6.0585611e-05
  1.5348052e-04
  5.6148808e-02
 -4.0731587e-02
 -4.3114920e-05
  3.2813466e-04
  9.9172229e-01
  2.8837149e-04
 -9.9093419e-01
 -1.0056273e-04
 -4.8193598e-01
  1.6920572e-02
  3.3682361e-02
 -1.8088224e-04
  1.1675889e-01
 -5.6588568e-05
  1.6432859e-01
  1.2802933e+00
  1.1128461e-02
 -2.7129517e-04
  1.6650993e-05
  2.9781294e-01
  1.3232146e-01
 -2.0903574e-02
 -1.1852939e-02
  1.7789463e-04
 -2.7274516e-01
  2.4294094e-03
 -8.0223240e-02
  9.5500387e-03
  1.0154291e-05
 -1.4441616e-02
 -3.4280258e-06
 -1.2956909e-04
 -9.8904064e-05
 -3.7348846e-06
 -2.8654435e-04
  5.4056436e-02
  2.1582759e-05
 -1.5884894e-04
  1.5469722e-01
 -1.1686767e+00
  2.4288042e-01
 -7.9738641e-01
 -3.5244688e-01
  1.2459139e+00
  1.0933042e-01
 -9.1345191e-01
 -7.2171319e-01
 -5.2849513e-01
 -7.8741080e-01
  2.4615281e-04
 -3.1977153e-01
  5.9099656e-02
 -1.3891281e-01
  2.9197817e-03
  3.1797178e-02
 -3.1667683e-01
  1.3092162e-01
 -1.0997664e+00
 -1.7179753e-01
  9.2047187e-05
 -9.1214446e-05
 -8.9641029e-01
 -7.9006505e-01
  1.6146457e-02
  2.5678103e-04
  2.3872252e-01
  2.2607533e-02
 -3.7079638e-01
  6.6003665e-02
  2.6025262e-05
 -3.5610792e-01
 -5.7385963e-01
 -2.7468377e-01
  4.5287532e-01
 -1.1500287e-01
  1.6004802e+00
  1.1577363e-01
  1.4954113e-02
  9.3000102e-01
  6.3088614e-01
  8.0564106e-01
 -1.3880698e-02
  3.7953170e-04
 -2.4423465e-01
  6.5910733e-01
 -4.6841350e-01
 -4.4351360e-01
  3.1878976e-03
 -2.4121292e+00
 -3.1124514e-01
  2.7220830e-01
  5.3759007e-04
  6.3143997e-03
  2.3930849e-04
 -4.5731377e-02
 -2.4620073e-01
  1.3831945e-03
  6.7469882e-05
 -1.5563764e-02
 -1.5040332e-01
  4.1241601e-02
 -2.1239025e-04
  5.6067313e-04
  1.1464189e+00
 -5.8922225e-01
  4.9884472e-04
  8.9446169e-01
 -6.2663805e-01
  1.9706036e-03
  1.0016427e+00
  1.8421318e-01
 -3.8636558e-02
  4.7654939e-01
 -5.7021107e-06
  1.3218434e-01
  2.1725781e-03
  4.3716286e-03
 -1.7140741e-03
  2.4208654e-02
 -2.8776797e-04
 -2.4252159e-03
 -1.3992721e-05
 -9.0738919e-05
 -1.7783885e-03
  2.7564844e-05
 -8.6428538e-02
 -1.1656670e-04
  3.8509184e-05
 -3.2751752e-05
  4.4029413e-05
 -4.0144994e-04
 -1.0591948e-04
 -1.3231084e-01
 -6.6082395e-04
  4.8395446e-01
  2.5447077e-06
 -1.7123544e-04
 -3.5168294e-05
  4.8079379e-05
 -6.4066655e-05
  3.2504430e-04
  1.1109384e-04
  2.1906980e-04
 -1.6276505e-04
 -1.7818571e-04
 -1.5844597e-04
  1.6066521e-04
 -3.3388231e-05
 -1.5075422e-03
  1.0147583e-04
 -2.2117390e-04
 -3.6630110e-05
  3.0838477e-04
  2.0310536e-05
 -1.0863485e-04
 -3.7752412e-05
 -9.8772383e-05
 -3.3112505e-05
 -1.1117307e-04
  1.1870045e-05
 -2.4217681e-05
  2.4916844e-01
  4.5094275e-04
  1.8629022e-05
  1.5748678e-04
  4.3139811e-05
  2.0670713e-01
  7.6308146e-02
  1.3912766e-01
  5.1908439e-01
  1.4511512e-03
  1.1579773e-01
  1.3940566e+00
  7.9577893e-02
  1.1041418e-04
 -1.0247097e+00
  3.5899717e-01
  2.3978126e-05
  5.0758086e-03
 -3.8590796e-02
  4.7653023e-02
 -4.5613670e-01
 -1.2102395e-01
  6.1442988e-05
  8.1375909e-01
  2.2311402e-02
  5.8709109e-01
  1.3865202e-05
 -3.8601269e-05
  3.1000561e-01
  3.1878099e-06
  3.1815041e-03
 -1.0119974e-04
  3.3359497e-04
  6.1769240e-02
 -1.6468588e-02
 -7.8217511e-04
  1.9367447e-04
  4.9571374e-01
 -1.5486592e-01
 -7.1297908e-01
 -2.2064275e-01
 -2.1313763e-01
  1.7779261e-02
  5.9809629e-02
  5.2626598e-01
 -6.7362398e-01
 -2.8348686e-02
  6.7300469e-01
  3.2015440e-01
  2.8742212e-01
 -1.4869322e-01
  3.5975821e-02
  5.0457262e-02
  2.9893473e-01
 -2.0513147e-02
 -8.1411339e-02
  1.9836824e+00
 -3.3347934e-01
  2.5618181e-04
  3.1960240e-04
 -4.1486654e-02
  1.7222738e-01
 -3.9698365e-01
  9.1882522e-04
 -6.7566471e-05
  1.5463505e-05
 -2.5499439e-01
 -3.3735104e-02
  3.0176682e-04
  1.8165544e+00
 -7.3195890e-02
  2.0122001e-02
  5.2939047e-04
  8.0584401e-01
  1.7690811e-01
 -1.4835199e+00
  3.6008042e-01
  4.2576230e-01
  4.7609825e-05
 -1.2361542e+00
  1.4671296e-04
  2.9811850e+00
 -8.1556237e-01
 -1.7248347e-02
 -3.2153714e-01
 -2.3822832e-01
 -1.5361899e-03
  3.6393045e-04
 -1.1874709e-05
 -5.5690156e-04
 -2.2897226e-04
 -2.7772409e-03
 -6.9956863e-05
 -1.7249216e-05
  5.8569711e-01
 -5.3712560e-05
  4.5655367e-01
 -2.9433828e-05
  7.9458885e-02
  6.9156620e-03
  6.1656360e-04
  8.3613135e-03
 -1.2545042e-04
  7.0249718e-01
  7.8067169e-02
  5.0471172e-05
 -3.9586973e-01
 -3.0895721e-05
  1.4809557e-05
 -5.9424201e-06
  3.6940316e-03
 -5.5280052e-02
  4.5826819e-04
 -8.1580906e-04
  2.0020173e-04
  1.4101746e-05
  1.9465475e-03
  1.8079440e-05
 -5.7723885e-04
  2.8137416e-03
  8.9638626e-05
 -1.1612724e-03
 -1.7541771e-04
  2.3066506e-04
 -1.9618501e-04
 -4.2765638e-05
 -5.2603532e-06
  6.1529041e-05
  9.3920178e-05
  1.0295126e-04
  8.8546352e-05
  2.2716649e-02
  1.2337861e-03
  1.0748336e-01
  4.6117514e-02
  9.4095993e-01
  4.0086749e-01
 -5.0145775e-01
  8.8642240e-01
  4.5486361e-01
 -1.6590124e-01
  1.9005339e+00
  2.5124940e-01
 -2.7217811e-02
  5.3042179e-04
 -1.0441469e-01
 -5.4718918e-01
  8.6807215e-04
  1.6129501e-03
  2.9114305e-04
 -5.0694309e-04
 -7.7177429e-01
 -6.0044926e-02
 -1.9900943e+00
  4.4575536e-05
  6.2202220e-04
 -2.1560761e-01
  2.8368153e-04
 -2.7195856e-01
 -4.1714530e-03
  1.0833478e-04
  2.2888934e-04
 -3.9222912e-04
  2.0602720e-06
  1.5871489e-04
 -2.4176118e-01
 -3.9879040e-05
  6.3810182e-01
  3.3179116e-01
 -7.1563816e-05
 -5.0365019e-01
  1.0015267e-05
  1.2777232e-05
  3.9859633e-03
  1.4200114e-04
  1.8638694e-01
 -2.3104822e-04
 -9.3377181e-05
  4.7306476e-05
  3.7800004e-07
 -9.4341767e-06
 -1.6895145e-04
 -2.4691923e-05
  1.0718105e-04
  3.8444894e-04
 -2.0623862e-04
  3.8157879e-05
  3.3202730e-04
  3.5416216e-04
 -2.4304229e-05
  3.6570931e-05
 -8.9884874e-05
 -7.7156896e-05
  1.3869301e-03
 -2.1259162e-05
 -1.9229768e-04
  1.4259295e-04
 -8.1706059e-01
  2.6803997e+00
 -1.9504814e-01
  4.0176412e-01
 -1.3212670e-03
 -1.2332683e-02
 -3.9048539e-04
 -4.3849882e-01
  8.9517061e-04
  3.4996688e-01
  2.5775561e-03
 -7.4988693e-02
  4.3619582e-01
  6.5133604e-04
  1.5044083e-01
  1.4704212e-02
 -3.5462204e-01
 -3.9810220e-05
  1.5484812e-04
  2.6298389e-01
 -2.5789583e-01
  2.3047058e-04
 -1.7456695e-02
 -3.2415101e-05
  3.2448751e-04
 -1.8515400e-04
 -2.2699176e-04
 -2.0167996e-05
  1.3964253e-05
 -2.1640067e-04
 -8.1506027e-05
  2.9294434e-01
 -6.6479224e-05
  3.8597455e+00
 -2.1861399e-04
  2.7667169e-02
  2.0718855e-04
  1.2052162e-01
 -4.7707111e-01
 -1.2301216e-04
 -2.9210676e-05
 -2.8861780e-03
 -1.8980041e-02
 -1.1145430e-04
 -3.2641596e-04
  1.7054372e-03
 -5.7248228e-05
 -5.0365224e-02
 -2.2399185e-04
 -7.7119716e-05
  4.5627017e-02
  6.4815663e-06
  8.7273763e-03
 -1.6923517e-04
 -3.4739097e-04
  9.6829660e-02
  7.2450981e-05
  4.8647686e-05
  5.0903524e-05
  6.2516716e-05
  5.7418956e-06
  5.3165299e-05
 -4.9367885e-05
  1.4025069e-04
  5.6492310e-05
  1.3041421e-04
 -8.1836522e-05
  6.8211972e-05
  2.9185499e-04
  1.8846933e-06
 -5.7426132e-05
  8.2193986e-02
  4.9214961e-04
  9.2995506e-06
 -1.0990088e-04
  1.4275841e-04
  1.7691951e-06
 -2.7902304e-05
 -1.7540397e-01
  5.8779588e-05
  1.1619147e-05
 -6.1581275e-05
 -2.4346331e-05
  2.3261335e-02
 -8.4652222e-04
  1.9870060e-04
 -1.8685545e-04
  4.2149181e-06
 -9.9684221e-05
  1.8215285e-05
 -3.0722955e-04
  9.6482027e-04
  3.0358922e-05
 -2.6316857e-05
  1.2683881e-06
 -3.9060321e-04
  2.5531058e-03
 -2.0241201e-02
  1.9478146e-04
 -2.2026333e-04
  3.6499550e-04
 -4.5490378e-05
 -1.3201065e-04
  6.3902677e-05
  2.9307404e-05
 -9.3874022e-02
  1.2166606e-04
 -8.6848748e-05
  2.5315134e-05
 -5.2921809e-05
  9.0670837e-05
  1.3963439e-04
 -1.9856896e-05
  1.9551640e-04
  6.1408886e-05
 -3.0912801e-03
 -7.0416449e-05
  7.9839410e-06
 -1.6095478e-04
  6.8119793e-06
  2.0027065e-04
 -1.2863890e-04
  5.5440407e-05
  3.3112202e-04
 -8.7390727e-06
 -1.7458998e-04
 -2.5003598e-04
  3.0291820e-04
 -2.1050121e-01
  4.6312723e-01
  5.7522625e-01
 -5.2015066e-01
  2.6772752e-01
  3.0680390e-02
 -1.6200893e-01
 -1.0213449e+00
  2.1576292e-03
  2.2753134e-01
 -7.2070020e-01
  3.3906000e-03
 -1.0157787e-01
 -4.0277141e-01
 -1.5570826e-03
 -2.3976438e-01
  2.6884910e-02
  3.2074764e-01
  4.0856219e-04
 -2.5834088e-04
  4.3763080e-01
  1.7841773e-04
  2.3336919e-01
 -2.2914117e-04
 -1.8771861e-01
 -3.6190572e-01
 -6.6438032e-04
  7.3155306e-02
  1.5847022e-03
 -4.1840869e-01
 -2.3662762e-01
 -1.3917156e-02
 -1.6382031e+00
  7.0355642e-01
 -9.3681002e-01
  6.0493535e-01
  1.3308381e+00
  8.7183291e-01
 -6.4288396e-01
  2.8868704e-03
  3.9730970e-02
  4.9866583e-02
 -4.4821445e-02
  5.0724350e-04
 -6.4325511e-01
  1.0656601e-02
 -8.7995273e-01
 -1.1141336e+00
 -5.8889938e-05
  1.9736128e-04
 -2.7089331e-03
 -2.2909714e-01
  3.6613699e-05
  2.9895771e-05
 -4.0864938e-01
  6.4947293e-05
 -2.0828118e-04
 -1.0198655e+00
  7.9610996e-05
  1.8599414e-06
 -3.2408509e-05
  2.1546541e-01
 -9.8243567e-05
 -1.5105518e-05
  2.6224825e-05
 -1.8507559e-04
 -1.0474370e-05
  1.6234249e-04
  2.9671415e-05
  1.2487065e-04
  1.8021719e-04
 -2.3674134e-05
 -1.0004916e-02
  2.7787167e-04
 -3.3786375e-05
  5.3670508e-05
  1.9654991e-04
 -1.0369006e-01
 -1.2320044e-04
 -7.0473617e-01
 -1.2078818e-03
 -3.8871378e-05
  5.5374438e-01
 -3.1870481e-04
 -3.6182581e-05
 -6.5831911e-05
  7.4083393e-05
  1.7421320e-04
 -1.2996039e-04
 -2.0180090e-01
 -9.7872835e-05
 -7.4000445e-06
  4.0835843e-05
 -7.1440800e-04
 -1.4403592e-04
 -2.0344904e-05
  3.3868711e-02
 -2.0443993e-03
  2.4699937e-01
 -7.0305174e-04
  4.6042918e-05
  2.8175771e-01
  1.8705325e-05
  4.5578934e-05
 -1.0821036e-01
  3.4631189e-04
  1.0697306e-05
 -1.1712718e-04
 -4.7365796e-05
  3.7889151e-04
 -4.2621829e-04
  3.0784719e-04
 -1.5972987e-04
 -3.5036555e-05
  8.8169007e-04
  8.1043087e-05
 -1.5690941e-01
 -5.2793481e-04
 -1.8023068e-04
 -1.5734723e-04
 -4.5939891e-05
  5.6254220e-07
  1.0592899e-04
  3.0819439e-05
 -2.7949109e-05
 -5.8481918e-04
 -1.6795943e-04
  1.7479381e-06
  5.2792835e-01
  2.7215829e-01
 -1.4503835e-01
  8.0082931e-02
 -1.1374123e+00
 -1.8691109e-02
 -1.4211733e+00
 -8.2951749e-04
  4.3974367e-01
  2.3194276e-01
  3.2695978e-05
 -9.9562691e-04
  1.6800511e-01
 -2.3142823e-03
  4.7629347e-01
 -2.6668179e-01
 -5.5036882e-05
  6.5652651e-01
 -3.0201663e-05
  1.8611974e-04
 -4.6314117e-01
  1.6360833e-01
  8.2925564e-01
  3.4410050e-04
  1.2833285e-02
 -1.6549747e-03
  2.7783588e-04
  3.2737320e-03
  2.0046858e-04
 -3.5573039e-04
  6.3334182e-02
  6.7063758e-07
 -5.4703187e-02
 -2.4607918e-01
  1.5562844e-02
  4.5177919e-01
 -1.4860371e-01
  3.1761944e-03
 -1.4809102e-02
  1.0306050e-04
 -2.8494409e-01
 -8.3108060e-04
 -3.1314796e-01
  2.3876592e-04
  6.0909766e-01
 -6.5788394e-04
 -2.5204805e-04
 -1.5471421e-02
 -4.0505966e-04
  8.6940090e-05
  6.9506764e-02
 -1.2920731e-04
 -1.2944883e+00
 -1.5983869e+00
  1.0671510e-04
 -2.3224109e-03
  1.0635038e-01
 -1.1643405e-04
 -3.8753293e-04
 -5.0591307e-06
 -1.3525598e-03
 -4.8546112e-04
  3.8325174e-03
 -2.2241193e-05
  1.2762201e-04
  1.3502630e-03
  1.8037604e-04
  2.7177029e-04
 -1.5818336e-04
 -2.1831384e-01
 -1.0120642e-04
 -2.7513170e-05
  1.5876323e-04
  2.2797849e-05
 -3.2132026e-05
  1.1535792e-04
  5.5770768e-05
  9.0708240e-04
  1.0073531e-04
 -9.1225811e-05
  5.8525860e-05
 -1.9921708e-06
  1.4070690e-05
 -8.1895530e-05
 -6.1539191e-05
  7.1663380e-04
  1.9104412e-04
  5.4255186e-04
  8.3338426e-05
  4.7784120e-05
 -4.2690113e-02
 -1.0389109e-04
  2.8701080e-04
  2.1918930e-05
  6.9453904e-06
  6.8874124e-06
 -5.7227355e-01
 -2.0399563e+00
  2.8957701e+00
  2.9519060e-01
  1.3437994e+00
 -9.8633754e-01
  7.3376328e-01
 -6.3123834e-01
 -5.7312292e-05
 -3.7870449e-01
  1.1301045e-02
  1.0835624e-01
 -1.3302506e+00
 -1.9726761e-01
 -3.8894108e-03
  3.1986490e-02
 -6.6075271e-01
 -4.1537525e-04
  2.3310396e-01
 -7.0808220e-01
  5.5100548e-01
  3.4514250e-04
 -1.3506055e-01
  1.0152269e-05
 -5.8760816e-01
 -4.7005799e-01
  2.2995922e-04
 -4.6240861e-05
  1.9828850e+00
 -3.1953326e-01
 -5.1406909e-02
 -1.9212989e-02
 -1.5960987e+00
 -4.8591784e-01
  1.7787908e+00
  1.7050202e-01
 -2.1945778e-04
  2.6219705e-01
 -3.2345325e-02
  5.5419815e-01
  3.0838317e-01
 -3.9285202e-05
 -1.1481292e+00
  2.6745248e-01
 -3.0629525e-03
  2.1037373e-03
 -1.2671831e-04
  2.4740723e-01
 -3.2921415e-04
 -2.0992607e-04
  2.3644320e-04
  2.1383165e-04
  2.0976877e-02
 -1.3220834e-05
 -4.7679245e-03
 -4.9932336e-05
  1.6617899e-01
  2.4019569e-04
  5.7455745e-05
 -1.0665703e-04
  9.0162015e-01
  3.1139651e-02
 -1.9978632e-05
  1.7351950e-04
 -1.1305394e+00
 -2.5792006e-01
  1.9816680e-01
 -1.8355112e-01
 -2.2583219e-01
 -1.6174172e-01
 -5.2310848e-01
 -9.1242790e-01
 -2.9452425e-01
 -6.6007655e-03
 -1.5656942e-01
  1.0410589e-03
  9.6745376e-04
  1.4954396e-01
 -1.7633298e-01
 -7.0918411e-01
  1.1696859e-01
  4.4549738e-06
 -1.6214389e+00
 -3.3838362e-03
  6.4671808e-01
 -2.3866141e-01
  1.3701572e-02
 -9.1165602e-03
 -7.6814898e-04
 -7.4680454e-01
 -5.7700461e-01
 -9.6180543e-02
  1.0019452e-03
  3.0760511e-05
  1.1003654e-01
  2.2594021e-03
  5.9631914e-01
 -2.3953496e-01
 -7.1686804e-02
  7.3151432e-02
  3.7448019e-02
 -6.3182288e-01
 -4.2728840e-05
  2.3761413e-01
 -1.2820688e-01
 -1.5085532e-02
 -3.0304380e-02
 -9.4460183e-01
  2.3916194e-01
 -6.7887968e-01
 -8.0833146e-03
 -1.4797722e+00
 -1.7398375e-05
 -2.2196872e-04
 -5.2283011e-02
 -1.1040151e+00
 -8.6641729e-01
 -2.9656163e-05
  9.1986585e-05
 -3.1641185e-02
 -1.3687469e-03
  2.5960469e-05
 -3.6927770e-05
  3.5490535e-04
  3.7101376e-01
 -6.9204152e-02
  4.4146258e-02
 -2.5699439e-04
 -7.4155331e-01
 -2.5629881e-01
  1.0716041e+00
 -8.7559575e-01
  1.5710534e+00
 -1.9624846e+00
  1.8162307e+00
 -9.9529371e-02
  6.4504468e-01
  3.8042244e-01
 -2.1813461e-03
  1.1286671e-04
 -3.5254610e-01
 -6.3126504e-02
  1.3027042e+00
 -1.0064378e-02
 -5.7405227e-01
 -3.8700752e-02
  2.1291695e+00
 -5.9886348e-02
  1.1633409e+00
  3.2741493e-01
 -2.2541037e-02
  7.2213121e-02
  1.9063675e-04
  1.2727125e-04
  3.5206689e-05
 -3.4475760e-03
  1.9370083e-02
 -2.3638808e-04
 -1.0213051e+00
  2.8122820e-05
 -5.0330017e-04
 -6.9482645e-05
  1.0972327e-05
  6.9532980e-05
 -3.0057595e-04
 -2.1342617e-04
  7.4938660e-05
 -5.5011419e-06
  2.9814578e-04
 -3.0887101e-04
  1.2442981e-05
  7.5609161e-05
 -2.3922256e-04
 -4.5217341e-04
 -2.4512288e-04
  1.1232427e-05
  1.4600986e-04
  1.3215275e-04
  3.1607240e-04
  1.5110470e-04
 -4.9291027e-04
  4.8672940e-04
  1.1527626e-04
 -3.0127892e-04
  7.9934725e-05
 -5.3297153e-05
 -1.1703793e-05
 -2.8607303e-05
 -6.3002728e-05
 -2.3633070e-04
  1.0355365e-04
  2.1727427e-04
 -9.1844314e-04
 -1.1646573e-01
 -7.3041785e-01
  1.7975095e-01
 -1.4124271e+00
  7.0563745e-01
  8.2085095e-02
 -8.0515021e-01
  5.1910514e-01
 -3.1748793e-01
 -9.3466288e-01
 -4.0289895e-03
 -4.8871199e-03
  4.8007196e-01
  4.8849595e-01
 -7.4622817e-03
  1.1516040e-04
 -2.2025610e-05
 -9.0838023e-02
 -9.2266101e-01
  3.2910267e-01
 -1.1304353e-04
  1.0271485e-01
 -2.1345925e-03
 -1.5839392e+00
 -4.7961387e-01
 -7.6918065e-04
  3.8788778e-01
 -7.8385949e-02
 -1.4960109e-01
  3.6076203e-01
 -5.0747130e-05
  4.8125230e-02
  4.5513302e-01
  7.5774744e-02
 -1.2404015e+00
  2.9305163e-01
  3.1290112e+00
 -2.0507017e-01
  1.4102484e-04
  1.1529665e+00
  5.3198713e-01
 -1.4309347e+00
  4.7957304e-01
  1.5931386e+00
 -4.1774544e-01
  7.9428226e-02
  1.3283387e-01
  4.9809629e-01
  8.5641098e-01
  9.7057509e-01
  4.1897795e-03
  1.2535649e-02
 -6.4216919e-02
 -1.8523555e+00
 -1.1669071e+00
  3.9379993e-01
  5.6350295e-04
  5.3190994e-01
  3.4843095e-02
 -2.0711730e+00
  4.7859489e-03
 -6.4866000e-01
  5.7052791e-01
 -2.5272765e+00
 -4.5662147e-01
  9.3491355e-05
 -3.4925985e-01
 -1.7864704e+00
  1.3095282e+00
 -1.0305540e-04
  1.5514402e-03
  6.1175388e-01
 -2.0273890e+00
  9.0442059e-05
 -6.4136219e-01
 -1.3332286e+00
 -1.1682253e+00
 -1.7589767e+00
  1.6103413e+00
  9.7633660e-05
 -3.7414080e-01
  1.8485347e+00
  5.1891589e-01
 -2.8119785e-01
 -1.3669667e+00
 -9.5712531e-01
 -2.3869221e+00
 -1.7463474e-01
  1.6389474e-04
  5.6923777e-01
  2.2055170e-01
 -5.5344850e-01
 -9.4051588e-01
  3.0181965e-01
 -1.1496432e+00
  3.8443378e-01
  1.2651215e+00
  1.8924891e+00
  1.0179263e+00
 -6.6598576e-01
 -8.1669495e-02
 -8.2697266e-01
  1.4932333e+00
 -9.4774210e-01
  1.0065290e+00
  4.3732536e-01
 -1.3070086e-01
  5.5993837e-01
  6.7382222e-01
 -7.3979479e-01
 -2.6188698e-01
 -6.6624713e-01
  2.8613007e-01
 -2.7601411e+00
 -6.0464013e-01
 -4.8570111e-04
 -1.4013655e-01
  1.5514302e+00
 -4.7433040e-01
 -6.5419085e-02
 -2.7460149e-01
  8.7558335e-01
 -1.8292965e+00
  6.0786825e-02
  1.1278541e+00
 -5.8933306e-01
 -2.7782121e+00
 -1.1160895e+00
 -8.9640516e-01
  2.7039906e-04
  1.0284742e+00
 -1.2736605e-01
  1.7528364e-04
 -1.2284538e-06
  9.5577794e-01
  5.7970379e-03
  3.8874397e-05
 -1.4826235e-03
 -5.6152944e-03
  4.9862154e-02
  1.9307408e-05
  1.0494872e-03
 -2.7702203e-05
 -5.0761411e-04
  5.6062229e-03
  1.4208383e-02
 -1.4990527e-02
  3.0723083e-04
  3.5847927e-04
  5.7778030e-05
  1.1553258e-05
  1.4084143e-05
  3.0340247e-05
 -1.3839579e-04
  1.6460840e-04
  1.2902282e-04
 -5.1192651e-06
 -1.4296325e-04
  1.0692520e-04
 -1.2767027e-04
 -1.3630479e-04
  4.3847693e-05
 -1.6671003e-04
  7.7260149e-01
 -1.1181237e+00
  5.1774265e-04
 -6.6602238e-02
 -4.2067578e-01
  1.4926639e-01
 -8.2351929e-03
 -4.6453081e-04
  7.2159809e-03
 -4.4499916e-06
  3.6031827e-03
  3.1284302e-02
 -5.6364940e-04
  3.1211525e-03
  2.9071865e-03
  3.1907896e-03
  8.9801964e-04
  2.1217472e-03
  1.4337944e-05
  3.8044967e-04
  1.3265075e-04
 -2.0213756e-05
 -7.9708501e-05
  1.6587269e-03
 -2.8825848e-04
 -4.0519270e-05
  1.8235654e-02
  7.4598291e-05
  1.0856544e-03
 -2.7267283e-04
 -4.7206755e-05
  4.4883342e-05
  5.1397586e-04
 -2.1037580e-05
 -3.3368188e-04
 -1.8815442e-04
 -1.0952135e-04
 -1.3929633e+00
  8.5297448e-05
 -2.2041531e-01
  8.2499228e-02
  1.5559084e-05
  1.6287554e-02
  8.3531952e-04
  4.9479050e-04
  8.5824874e-04
 -2.4223804e-05
 -7.2226707e-05
 -1.9798093e-04
 -2.2824797e-04
 -4.2017175e-05
  1.9965916e-04
 -1.4579900e-04
 -7.2708359e-04
 -7.0629979e-04
  3.1507441e-06
 -2.1409804e-05
 -1.9516078e-04
  2.1623239e-04
  7.6472788e-06
  4.2904817e-06
 -1.4312984e-04
 -2.9475745e-04
  1.7005725e-04
 -5.5770050e-03
 -2.1037290e-01
 -2.6316249e-01
  4.7924377e-02
 -3.7623435e-01
  1.1265453e-02
  5.1437847e-02
  2.5355276e-01
  2.0797048e-03
 -1.0960654e-04
  5.7978642e-01
 -1.7802063e-02
  1.7780989e+00
  9.2894673e-01
  8.0261223e-02
 -1.3880137e+00
 -4.3699425e-03
 -6.7139554e-05
  5.3158420e-01
 -1.8996310e-05
  5.2614975e-01
 -5.5764680e-04
  2.0111369e-02
  4.2785905e-02
 -8.0518203e-04
  8.7082762e-01
 -1.4816425e-05
  8.7155939e-05
  6.3141165e-03
  2.6449222e-02
  4.2378572e-01
 -1.8789057e-01
  3.6178416e-01
  6.6824216e-01
 -1.0900061e-02
 -2.2947703e-01
 -8.4027857e-01
  3.5674432e-01
  3.8902813e-01
  1.5094814e-01
  2.3141531e-02
 -3.6958146e-01
  2.7407095e-01
  7.8656152e-02
 -7.2544283e-01
  1.7797823e-01
 -4.5644721e-01
 -6.8055159e-01
  3.3874360e-01
 -5.7133939e-02
 -5.6034201e-01
 -3.0664198e-06
  5.0609237e-01
 -2.3590601e-05
 -4.8214525e-02
 -1.2349686e-01
  3.0590407e-05
 -5.3013855e-01
 -2.1582662e-01
  8.1051007e-02
  1.0673635e-01
  4.3246823e-06
 -3.8780205e-02
  4.5392653e-03
  1.0165956e-01
  1.0907772e+00
  7.8632694e-04
 -2.0689107e-02
  7.8976521e-04
  2.5283722e-02
  2.6003355e-03
  6.3711160e-04
 -2.0912807e-01
 -6.1782317e-05
 -7.8446257e-01
 -1.4179739e+00
  5.9549415e-01
 -5.9235311e-01
 -2.2679737e-05
 -3.5884532e-01
 -6.3691461e-03
  1.6058733e-04
 -3.5367489e-02
  1.1366746e-04
  2.2117444e-03
 -1.1102889e-05
  6.3083648e-06
 -2.8900173e-04
  1.8601981e-04
  7.4196677e-04
  3.0836181e-05
 -4.8925322e-03
  3.6250645e-01
 -7.5707935e-06
  3.4838969e-01
 -3.5402912e-01
 -2.6236312e+00
  5.2527523e-01
  6.6434932e-01
 -1.9245195e+00
  4.2922605e-02
  1.1720865e+00
  1.3700733e+00
  1.8404216e-02
 -8.2023531e-01
 -3.5011945e-07
 -4.1817549e-01
  6.8203562e-01
 -3.0757891e-04
 -5.4511559e-01
  8.6612649e-02
  6.1290288e-01
 -2.8399241e-01
  7.1573985e-01
  1.5112071e-01
  6.3441455e-04
  1.4051286e+00
  2.1183181e-05
  1.9434605e+00
  3.2343414e-01
 -3.7599614e-04
  4.1806939e-01
 -1.1253572e-01
 -1.0530429e-04
 -4.2273992e-01
 -1.4374542e-04
 -2.1629664e-01
 -2.6656088e-01
 -1.5922900e-01
  1.2296064e-04
 -1.1523228e-05
 -1.5101378e-01
 -4.2352924e-05
  4.8580582e-04
 -6.3075963e-03
 -1.3478150e-03
  7.6499087e-04
 -3.9134513e-05
  7.0759468e-04
 -1.4301161e-01
 -3.2763659e-05
  4.8969790e-02
  1.5842126e-04
  5.7018608e-01
  2.3756576e-04
  1.1391628e-05
 -7.1544806e-04
 -7.4115429e-05
  4.8977818e-05
 -1.2515238e-04
 -2.2463821e-04
  2.0317875e-03
 -4.0692717e-05
 -3.9230070e-01
  3.1757518e-04
 -4.1179090e-05
 -1.6916050e-01
  4.1390964e-04
  3.6455720e-04
 -1.1282570e-05
  1.0120615e+00
  5.1618975e-01
  6.5880567e-06
 -6.5126189e-04
  6.2590669e-04
  7.5023316e-05
  7.9041747e-05
  4.9146498e-04
 -8.8632753e-04
 -1.4541648e-05
  1.9668685e-01
  1.7130462e-05
 -1.4910851e-04
  5.4128748e-05
  2.0702828e-05
  2.4630179e-05
 -1.1971368e-04
  8.4315255e-02
  1.3226144e-04
  2.9200346e-05
 -3.0585565e-05
  4.9239752e-04
  2.6151459e-04
  1.8964101e-04
  2.0671978e-04
  1.2370694e-02
  1.0311892e-06
 -1.0991321e-05
 -7.7182864e-05
  5.1397207e-04
  1.4923411e-04
  4.0033160e-06
 -2.2589700e-02
 -2.5157848e-05
  3.3652040e-04
 -4.7522585e-04
 -8.0171978e-04
 -4.1887182e-05
 -3.5555990e-05
 -1.4318206e-04
  1.6575339e-03
 -3.6020396e-05
 -7.8279600e-03
 -9.5770876e-05
  2.4799997e-04
 -1.3705759e-01
 -7.1906470e-05
 -2.8574761e-04
 -3.6789075e-05
  4.7266865e-05
 -1.1091684e-04
  2.1338009e-04
  5.2575691e-05
 -1.1606061e-04
 -9.0281334e-05
 -8.6061795e-05
 -1.9742959e-04
 -8.7339449e-04
  9.1586342e-05
  1.1582300e-05
 -7.1509174e-05
 -4.6281627e-04
 -2.2790155e-05
 -6.8813910e-07
 -9.7655302e-01
 -7.1819082e-02
 -9.5986283e-01
 -2.3538783e+00
  1.4483144e+00
  1.1841078e+00
  2.8667364e-01
 -5.7334024e-01
 -1.0673443e+00
  4.6823153e-04
  2.8924164e-01
 -1.0053401e+00
  1.2042817e-04
  1.7210488e+00
 -4.1864026e-01
  4.6061348e-02
 -3.8076151e-02
  4.4001703e-04
  1.2702115e-01
 -8.3704165e-04
  3.8768086e-01
 -3.1262493e-01
  2.7929878e-05
  1.5365399e-01
  1.0177756e-03
  1.0052826e-04
 -5.1683393e-05
 -1.1684045e-04
  1.1783799e-02
  1.3123351e-04
  4.9012569e-01
  2.2632596e-01
 -1.5797161e+00
  8.8187510e-01
  1.4728177e+00
  4.7895202e-01
  5.0715011e-01
 -9.3118185e-01
 -5.6236106e-01
  1.3721451e+00
 -1.0107746e+00
 -7.9142079e-03
 -1.5735425e+00
  3.0412045e-01
  8.2710171e-01
 -1.4718822e+00
  3.3199617e-01
 -1.6355225e+00
 -3.5766456e-02
  9.0211141e-01
 -5.1868296e-01
  8.0526812e-04
 -9.3840837e-01
 -4.5355377e-03
  1.4315906e-04
  2.3853660e-01
 -6.6776622e-05
 -4.7767243e-01
  1.0293508e+00
 -9.6438480e-06
 -5.3383820e-03
 -3.9568948e-04
 -3.4650933e-02
 -4.1395309e-05
 -1.6783478e+00
 -3.4102169e-01
 -9.9811263e-02
 -2.7725494e-01
  6.5815486e-02
  7.0980340e-02
  9.7146147e-04
 -6.9727141e-01
 -8.5838832e-04
 -6.0975354e-02
  3.6570582e-01
  4.1803304e-02
 -1.2170913e-01
 -1.4076275e-01
 -1.4007086e-01
  1.2068214e-04
  4.6722859e-02
 -9.6715257e-02
 -5.7297271e-05
 -1.1763202e-01
  2.0977289e-04
  4.7893334e-02
 -1.3187336e-04
  7.0735456e-05
 -2.3599554e-04
  1.1698662e-01
 -3.1000695e-01
 -7.8489453e-02
  4.1917543e-04
 -8.7799948e-05
  4.0308299e-04
  2.5275362e-01
 -3.4711491e-02
  9.2844689e-01
 -1.2731343e-03
 -6.5647043e-02
 -2.3884600e-04
 -4.3506381e-01
 -3.6352947e-01
 -4.4825146e-04
  2.1309879e-01
  1.4210383e-02
  3.3022565e-01
  8.8358469e-02
  6.7196006e-01
  4.5021540e-01
  4.5224530e-01
  2.5559144e-02
 -8.6907315e-01
  3.8375285e-02
  9.4397523e-02
 -1.8629538e-04
 -1.4918540e-01
  6.4489281e-01
  2.4425075e-05
  3.6302415e-01
 -7.7863701e-04
 -7.2814286e-04
 -1.5067696e-04
  4.5634058e-01
  1.7265461e-03
 -3.0243860e-04
  2.3988062e-04
  8.2649189e-05
 -3.0352487e-03
  1.0676121e+00
 -1.0631559e-04
  9.3234330e-03
 -1.4382100e-04
 -1.4883475e+00
 -2.1580441e-02
  1.3751801e-04
 -1.4073870e-01
 -1.0560748e-04
  2.5206827e-02
 -1.3881545e-03
 -1.1055105e-04
 -7.6016968e-01
 -4.3270999e-04
  1.0325422e-01
 -3.1731194e-03
  7.0344371e-04
  7.3015917e-06
 -2.8736691e-04
  2.1619266e-03
  4.3171644e-03
  2.4610561e-05
  2.5682306e-04
  8.0337160e-04
 -3.1029682e-05
 -1.9934899e-01
 -2.6661772e-04
  1.4379650e-03
 -1.1924974e-04
 -5.9578440e-05
  5.4508634e-04
 -9.2645961e-01
  2.4067898e-01
 -6.4892501e-02
 -2.4537694e-05
 -8.9115681e-05
  4.3704861e-04
  8.6837237e-05
 -1.4095644e-04
  1.2678500e-01
  9.3849842e-05
 -2.7651247e-04
  1.8529072e-02
  9.4767573e-04
  2.4738733e-04
 -3.0269884e-04
 -1.3950081e-01
  1.1407613e-04
 -6.3836813e-01
 -6.8595476e-04
  4.0472860e-05
 -1.4556063e-05
 -5.7784036e-05
  2.9305523e-04
 -2.0874770e-04
  8.5204039e-05
 -1.7624648e-04
 -1.0950448e-05
  7.8339256e-02
  1.6869381e-01
 -1.6680475e-02
  1.9816165e-04
  1.1433721e-04
  3.3769956e-01
 -8.5988885e-01
 -5.1388688e-05
  3.8024351e-01
 -1.4847853e-04
 -1.1491763e-04
  3.0388730e-04
 -8.5552638e-05
 -6.5061116e-01
 -3.1577799e-04
  7.1924209e-05
 -1.5186411e-04
 -3.1740099e-04
 -3.2975313e-01
  3.3250570e-04
  2.8756526e+00
 -9.3929142e-05
 -1.1229183e-04
  8.5698621e-04
  3.4517809e-05
  2.0596270e-04
 -2.0835081e-03
 -2.9720837e-04
  3.3965138e-05
 -2.7968508e-05
  9.4059498e-05
 -2.2301247e-04
 -1.2807309e-03
 -6.5868924e-04
  1.6017945e-04
  5.2156695e-04
  5.2856300e-05
 -2.1495598e-03
  2.9721960e-01
  1.3901992e-04
  9.5405507e-05
 -9.8825796e-05
  4.7285089e-04
 -5.6724127e-02
 -7.4795354e-03
  8.9225598e-04
  4.2835702e-04
 -2.5698642e-04
  9.8560681e-04
  2.3763956e-04
 -2.9467657e-04
 -1.2520692e-04
  1.7373286e-04
 -8.2713144e-05
  9.3531053e-05
 -3.7593942e-04
 -1.1390443e-04
 -1.0554267e-04
 -9.8291894e-06
  2.6478674e-05
  2.4507195e-04
  2.3059026e-04
  4.7490383e-05
  1.8188310e-05
  1.2453107e-04
  2.7612338e-04
 -1.4738976e-04
  3.7586422e-05
 -2.7331890e-04
  8.3189167e-02
  1.4495926e-01
 -4.8205894e-03
 -1.6821291e-01
 -9.6323645e-05
  2.0326364e-05
  2.4178991e-05
 -5.2080877e-02
  9.7058488e-05
 -5.1200791e-04
  3.6896594e-02
  1.3403973e-04
 -2.3277204e-04
 -1.8272446e-03
  2.2524657e-02
  8.9634887e-06
 -5.9507869e-04
 -1.2086355e-01
 -5.1842199e-04
  2.0957926e-04
 -2.0710993e-05
 -5.2073934e-05
  1.8284249e-04
  5.7091104e-04
 -6.8435941e-07
  1.3542745e-05
 -4.6614288e-05
 -1.3739483e-03
 -2.1207090e-02
  8.2253544e-05
 -1.5216101e-04
 -3.7688746e-03
 -3.0735666e-01
  1.7908983e-01
  2.2345967e+00
  9.3088225e-02
 -5.7385009e-02
 -5.1654235e-02
  2.2770634e-02
  8.7341771e-04
  1.7826681e-01
 -2.7523320e-05
  4.4940662e-02
 -7.5567394e-01
  3.3928847e-01
  4.2940673e-01
  8.2016625e-02
  1.1409382e+00
  1.6723191e-02
  6.2489170e-01
  8.2307933e-03
 -6.4365209e-05
 -1.2397152e-05
  3.0757964e+00
 -3.5969185e-04
  5.3264829e-04
 -1.0740611e-03
 -1.8926212e-01
  1.0977877e+00
 -1.8023718e-04
  1.1790831e-04
  7.9035417e-05
 -7.6475253e-06
 -1.8462707e-06
  6.1267302e-03
 -5.2436045e-04
  5.3052827e-05
 -1.2749173e-04
  2.7757802e-04
 -4.0983501e-05
  9.6205232e-04
 -1.5476116e-04
  9.7810134e-06
  1.0748620e-06
 -1.4706289e-05
  1.9232418e-04
 -1.3251687e-04
 -6.5007029e-05
  2.9983532e-04
 -2.5525271e-05
 -7.2063587e-05
  1.5346530e-04
  1.3937701e-04
 -9.7915334e-05
 -3.9667531e-04
  1.2279122e-01
 -2.1783806e-05
 -3.6233981e-04
  2.6073609e-04
 -9.9750228e-05
 -4.6676287e-05
 -1.3563294e-04
  5.8085621e-05
  2.2383696e-04
  4.0989918e-05
  4.1781655e-05
 -7.7327347e-01
 -1.6126922e+00
 -2.9810511e-02
  4.6872863e-01
 -2.8873538e-03
  1.9464493e-01
 -3.8457666e-02
  7.6333340e-04
 -3.5270405e-04
 -1.1439614e-06
 -3.4947201e-04
 -2.6153347e-03
 -3.1682365e-02
 -2.9593395e-05
  1.0485676e-04
  1.9779701e-04
 -3.2303069e-04
  3.0219514e+00
 -1.2458295e-05
  3.0753380e-04
  1.0507366e-05
 -3.8374105e-01
  9.6605144e-02
 -8.0233738e-05
 -1.6223668e-05
  1.8959824e-04
  1.1561923e-04
  7.8119578e-05
  6.5620523e-05
  7.5029784e-05
 -3.1030999e-05
  1.7768851e-05
  3.8008684e-01
  2.7122068e-01
 -2.2501900e-04
 -1.9644367e-05
  6.7695102e-05
 -9.8432042e-04
 -4.0021510e-04
 -2.6304383e-06
 -4.0548525e-04
  1.4361821e-04
 -3.0840203e-02
 -2.0156397e-01
  1.0743731e-02
 -9.3691414e-03
 -1.5964001e-01
 -1.4502837e-04
  9.1542385e-04
 -3.1088483e-05
 -7.0934359e-04
 -7.0332695e-04
 -3.5920806e-04
 -7.8618665e-05
 -1.1804916e-03
 -2.1057478e-04
  5.2733044e-04
 -8.8317255e-03
  1.0177059e-03
  2.2551398e-04
 -5.5314635e-04
 -1.8895755e-02
 -9.1391135e-05
  2.1238191e-04
  9.1182637e-01
  4.8134834e-01
 -8.1868656e-02
  1.5747799e+00
 -2.0792851e-02
  2.3349922e-02
  1.3225836e+00
 -1.5544996e-04
 -1.9642836e-01
 -8.0371856e-06
  1.2743032e-02
 -4.4962978e-01
  1.7635527e+00
  8.0859323e-04
  1.9771782e-01
 -4.6126959e-05
  6.3604549e-02
  4.7742260e-01
  8.5690059e-05
  1.0695157e-01
 -3.3612558e-04
  2.9662420e-04
  1.4721439e+00
  1.3102383e-03
  2.2954508e-04
 -5.0625582e-05
  1.2598142e-02
 -3.3122644e-01
 -6.1217150e-05
  2.5647110e-03
  3.4643930e-05
 -1.7608467e-01
 -1.4389923e-01
 -2.0190072e-01
 -3.3846481e-03
  7.1335193e-03
 -2.4824265e-01
 -2.0955998e-05
 -6.7685782e-03
  3.0898672e-04
 -4.0218241e-05
 -4.8677546e-05
  3.4216532e-01
 -1.9467469e-02
 -4.1541252e-06
 -2.6807135e-01
  1.4975542e-04
  2.0692027e-03
  1.4595404e-04
  6.9347312e-05
 -2.9976602e-05
 -3.5176407e-05
  5.8904616e-04
 -3.4599562e-04
  6.5453547e-05
  2.5811940e-04
 -2.2378187e-04
 -4.6271522e-02
  1.0161551e+00
  8.4727821e-05
  7.3492840e-05
  1.3090960e-04
  1.2235193e-05
 -7.5300879e-05
  4.0490159e-01
 -7.7961840e-02
 -2.2637196e+00
 -6.7303854e-01
  4.8631343e-01
  3.2307017e-01
 -3.8874575e-01
 -3.2084844e-01
  1.7129961e+00
  4.1583613e-01
 -1.5098244e-01
 -1.1855297e-01
 -9.4522126e-02
  4.1457018e-01
 -1.8817845e-01
 -3.1387243e-02
 -7.4465019e-01
 -1.2255755e-01
  1.6510248e+00
 -2.1178187e-01
  3.2523277e-01
 -8.4405255e-01
 -9.5840521e-02
 -1.6655409e-04
  6.4933938e-06
  9.0533733e-02
 -1.7604197e-03
  6.1420724e-02
  9.8485827e-02
 -1.2553710e-04
  5.5801541e-01
 -8.7262206e-02
  1.6952989e-01
  3.7656303e-02
  1.6284931e-02
  6.4024993e-05
  3.0787458e-04
 -2.2285732e-05
  4.4440912e-04
  2.4992903e-03
  1.3293981e-04
  1.8074694e-04
 -7.7148498e-04
  3.8627077e-02
 -6.3528751e-05
  9.8571327e-05
 -1.1702508e-03
 -4.7593570e-04
 -4.6081091e-06
 -1.8591355e-04
  3.2112544e-04
  4.2977859e-05
 -3.2838372e-05
 -4.2883406e-05
 -7.4280019e-06
 -2.8084655e-04
 -1.5823050e-05
 -4.8176807e-05
  9.8847646e-05
  3.0571598e-04
  2.0012057e-04
 -8.3584717e-05
  1.1121226e-04
 -1.0774176e-04
 -1.6987620e-01
  3.6522321e-02
 -1.9987482e-01
 -1.2890810e-02
 -1.4616741e-01
  3.6797710e-04
 -8.4285617e-02
  5.1740706e-02
 -2.6825458e-01
 -6.1020523e-04
  1.3934680e-02
  3.9477155e-01
 -4.5428326e-04
 -8.2630295e-01
  3.6485615e-01
 -1.9750861e-02
  2.6220754e-01
  9.7243690e-01
  1.1592060e-02
 -1.4601944e-01
 -1.1267050e-01
  1.0084567e+00
 -2.8110257e-01
 -3.2575285e-01
 -1.9369426e-04
  1.2054935e-04
 -7.1179576e-02
 -1.0096821e-01
  4.3656856e-02
 -1.1784091e-05
 -5.7621775e-05
 -1.2704212e-03
  1.9456553e-01
 -5.8602174e-05
 -2.0133190e-05
  5.2863525e-05
  1.8866600e-04
  1.6196616e-05
  3.2730468e-04
  8.7722536e-04
  2.1360470e-04
  1.4121596e-04
  1.9028659e-04
 -4.2185102e-06
 -1.0104060e-05
 -2.2338154e-03
 -3.5035064e-05
  1.7068044e-06
  6.7172025e-04
 -1.2272000e-05
 -1.4053452e-04
  2.9752433e-05
 -3.2874275e-05
  8.3561150e-05
  1.9856211e-04
  2.2966637e-04
  2.8045954e-05
  2.4873815e-03
  1.0138131e-04
 -6.7503832e-05
 -4.5275241e-03
 -1.1375326e-04
 -1.2005544e-02
 -1.6002039e+00
  1.9029402e+00
 -1.1368655e+00
 -8.9251888e-01
 -4.9060777e-01
  1.3056170e+00
  2.7463254e-01
  6.6614315e-02
 -5.3346741e-01
 -4.0368900e-01
  4.7249605e-06
  5.7299310e-01
 -2.6871908e-01
  2.5202850e-01
  2.4489190e-01
 -2.2065118e-01
  2.4771696e-02
 -6.9578700e-02
  2.0515567e-02
  4.6772364e-01
  5.0491210e-05
  4.0644839e-01
  6.0222340e-01
  4.4412214e-01
  1.3276610e-01
  4.0803596e-02
  4.8125613e-02
  1.9459148e-01
 -3.6949903e-05
  1.3132182e-01
 -3.9611041e-04
 -2.0444248e-02
 -2.4032643e-01
 -3.5522225e-01
 -3.1294709e-01
  6.3931261e-04
 -1.8845708e-04
 -1.2488707e-03
 -5.0090458e-02
 -3.4921789e-03
 -5.2391074e-04
  7.5308443e-03
 -6.3851827e-01
  8.9396461e-05
 -1.4795662e-03
 -9.7357024e-06
 -6.4156584e-02
  8.5066572e-02
 -6.9109548e-04
 -1.0284346e-04
  7.2009832e-05
  2.2389863e-04
  4.9689017e-05
 -5.7291032e-05
  2.2680924e-04
  3.4066529e-03
 -1.6177826e+00
  4.8143589e-05
 -1.3696788e-04
 -4.6319114e-05
 -7.3099090e-04
  1.2716327e-03
  1.6710603e-04
 -2.3743223e-06
  5.7540194e-05
  6.5095854e-01
 -5.5963254e-01
  5.2849318e-05
 -1.8629003e-01
  2.0573089e-01
  2.3494966e-05
  6.1424708e-01
 -3.1877029e-01
  7.0076966e-01
  7.4550354e-01
  4.0474144e-01
  7.7202539e-03
  2.2662027e+00
 -3.5252661e-01
  4.0323494e-04
 -1.5375780e-02
 -1.3463832e-02
  4.3517119e-01
  4.2487448e-01
  4.0851221e-05
  1.6431265e-01
 -2.0130686e-01
  5.3080693e-02
  1.9210984e-04
  6.7223574e-04
  6.6476023e-01
 -2.7168887e-03
 -7.0459966e-05
  2.4787669e+00
  1.0409299e-03
  2.3338577e-01
 -9.0769669e-03
  7.9318434e-01
  2.9948488e-01
  1.0149340e-01
 -2.0213349e+00
 -9.9776126e-02
  9.0746954e-02
  1.1839205e-01
  2.1787120e-05
  8.4549062e-02
 -7.4194366e-05
  1.0890878e-01
 -9.4741988e-01
  1.6586042e-03
 -2.0273608e-01
 -4.0195649e-05
  1.2716320e+00
  1.6263361e-01
  2.2517397e-05
 -5.0940663e-03
 -1.8993679e-04
 -2.5117260e-01
  4.2448190e-04
 -2.1801413e-04
  4.7838237e-04
 -2.1943790e-04
 -1.2481828e-05
  3.0125930e-05
 -6.1808765e-04
  3.8769569e-02
  1.5423879e-04
  2.7416859e-04
 -5.3486710e-05
 -5.9161752e-01
 -6.4630806e-01
  1.1666069e+00
 -3.2666508e-02
  1.2779230e-01
 -1.0623587e+00
 -1.7643303e-01
  1.4194049e-01
 -8.7311268e-03
  8.9765823e-04
  1.4367441e-03
  5.7727214e-02
  7.3701143e-01
  4.8083067e-04
 -6.3555865e-03
 -5.7801741e-01
 -7.9413503e-03
 -6.1957914e-01
  9.0259349e-04
 -1.3997333e-04
 -6.2506064e-05
  7.1510261e-01
 -2.3696488e-02
 -4.0609051e-05
 -3.2561308e-01
 -1.2302866e-04
 -3.6209753e-01
  1.8800586e-01
  6.5368906e-05
  1.8874394e-04
 -1.5489939e-03
  1.6314225e-05
  3.2234761e-01
  6.2831859e-05
 -1.0812160e-03
 -5.5082484e-05
  8.6389773e-05
  1.8439603e-05
  9.8061305e-04
  5.1722873e-02
  8.9069072e-05
 -4.0434392e-05
 -1.8760480e-01
  4.3496538e-02
 -1.0363315e-03
  1.6525526e-02
 -6.8369081e-05
 -3.1565487e-01
 -1.2864878e-03
  2.7479742e-05
  1.3314799e-04
 -8.7822549e-04
  3.7264399e-04
 -1.8116343e-03
  2.2281340e-05
 -2.0601151e-03
  1.7833622e-04
 -3.6668655e-04
  4.7926907e-05
 -2.3444470e-04
  1.6666681e-04
  1.6052923e-04
  2.5868159e-05
 -1.1214969e-04
 -8.3797514e-01
  1.6590557e-01
  3.4537911e-01
 -1.8720739e-06
  1.1611699e-01
  2.8696310e-02
 -9.0096393e-05
 -1.6170853e-01
  1.8877387e-02
  2.8355265e-02
  7.2630799e-01
 -2.3367313e-01
  4.9618252e-02
 -6.4468700e-01
 -1.4436757e-04
  4.4979376e-01
  1.7404528e-02
  1.7088783e-01
  1.3585392e-01
  5.0236219e-01
  3.3889967e-01
 -1.7896638e-04
  5.8307583e-03
 -4.8476858e-03
 -9.1225863e-04
 -2.6429570e-01
  1.0175568e-01
 -6.1449345e-02
 -3.6946228e-01
  4.7468487e-04
 -4.3624632e-02
 -3.1367257e-01
 -2.8596613e-05
 -5.1507705e-01
 -7.1179750e-04
 -1.8160168e-05
 -9.1278569e-05
 -1.1919539e-04
 -3.4566081e-05
  1.8748517e-05
 -2.4220608e-02
  4.2290922e-05
 -7.8949786e-05
 -1.6993243e-04
 -1.0204369e-03
 -1.5863328e-04
  2.2819933e-05
 -1.8596635e-05
  1.8853945e-05
 -1.3800674e-04
  9.3228657e-05
  2.2993951e-04
  6.7849141e-05
  5.9768492e-05
 -4.7158072e-05
 -3.0495807e-05
 -1.0349011e-01
 -1.2321474e-06
 -1.5316966e-04
  5.8375201e-05
  3.8032155e-04
 -1.1243290e-04
 -2.0330734e-04
  1.7210008e-06
 -5.9458248e-02
  5.3947085e-01
 -7.4153228e-05
 -1.1346440e-03
 -7.4699623e-05
 -1.6274017e-04
 -2.0183662e-04
  8.0508925e-04
 -4.2020583e-05
 -1.0848450e-05
  5.9462156e-02
  1.5067689e-03
 -3.2555252e-02
  1.1137244e-01
  1.6749913e-01
  3.9194818e-03
 -7.3209661e-03
  1.7591803e-05
  7.2739342e-05
 -2.6132575e-06
  4.0852342e-04
  1.6633149e-04
 -3.3279208e-05
  1.4660834e-02
  1.2046309e-04
  2.5795199e-04
 -8.8082743e-04
  3.0226127e-05
 -1.9824017e-04
 -2.0099310e-04
 -4.0285933e-05
  2.4113797e-04
  1.2140324e-02
 -2.0810621e+00
  1.9378012e-05
 -1.0987291e-03
 -3.6116081e-04
  4.8070647e-02
  9.0689748e-05
  5.1509310e-04
 -1.3338080e-04
  3.4111516e-05
  1.8761069e-06
 -1.3553527e-01
  1.4226959e-05
 -2.4474511e-04
  9.2229435e-05
  7.2716567e-04
  1.3198255e-04
 -9.9623180e-04
 -1.6274035e-04
  1.0386304e-04
 -9.1381270e-01
 -4.5652461e-04
 -8.4138522e-04
  1.8032404e-05
  9.5280884e-05
 -1.5171584e-04
 -2.5995992e-05
 -1.2112543e-04
 -3.6022466e-04
 -3.9991788e-05
  4.9390830e-04
 -5.2043697e-04
 -5.9282821e-02
  5.0032221e-02
  5.7312554e-01
 -6.6533405e-01
  2.0131187e-01
 -6.5680748e-01
 -5.0524608e-03
 -4.9979460e-01
  4.3977386e-01
  1.1229161e-04
  2.2452287e-01
 -4.5484316e-02
 -6.4306301e-01
 -3.7418365e-02
 -3.2201841e-01
 -3.2996812e-01
  1.5377446e+00
 -4.0496100e-04
  1.3148734e-01
 -5.6165241e-02
 -6.6278118e-01
 -1.4709798e-01
  6.3544599e-04
 -2.7665941e-03
  8.9341447e-06
  3.9724645e-01
 -6.7477663e-06
 -5.6905852e-04
  4.7037786e-01
 -1.2254610e-04
 -2.3069733e-01
  2.7925586e-05
  1.2436293e+00
 -9.6693593e-01
 -4.5091375e-03
 -3.7593700e-02
  4.8254993e-02
  4.8272142e-01
  1.4577946e-01
 -5.2149754e-02
 -2.4188487e-01
 -5.5078808e-03
  6.3096322e-02
  3.0765973e-03
 -3.5750228e-01
 -8.0379725e-01
  1.1495585e-03
  1.7210522e-01
  6.3385904e-02
  1.4213242e-01
  7.5304084e-02
  6.6527148e-04
  1.2570826e+00
 -1.1283515e-03
  9.1406197e-05
 -4.6226387e-03
 -2.5386648e-02
  1.1302848e+00
 -5.0135358e-04
 -5.5714700e-05
 -3.2476958e-02
 -6.3948275e-05
  6.8831592e-05
 -1.4067319e-03
 -2.3066502e+00
  2.6338228e-05
  4.4930025e-04
  8.3383840e-01
 -1.9022881e-04
  1.6173536e-04
 -1.2101487e-04
  1.8470620e-05
  1.2961985e-04
 -4.0768424e-05
  2.0205115e-04
  1.4720506e-04
  3.6878121e-01
 -6.1633560e-05
 -3.3009313e-05
 -1.2826502e-03
 -6.1142076e-05
  2.6878357e-04
  3.3834982e-07
 -9.5521158e-05
 -2.4253345e-04
 -1.1171454e-05
 -7.3373049e-05
 -4.2969346e-05
  8.9572299e-01
  4.9183673e-05
  6.8599707e-05
  1.3810142e-05
  3.2475885e-04
  2.2107912e-05
  3.3800461e-04
 -2.3916150e-04
  2.4550740e-02
  1.1850061e+00
 -8.8259140e-03
  4.4322578e-04
  2.2072384e-06
  1.1729332e-02
  1.0160477e-01
 -3.7812244e-02
  6.9763712e-03
 -1.9895426e-05
 -4.8363716e-03
 -4.9001593e-02
 -1.2361669e-03
  7.5367410e-05
 -5.7300140e-06
  1.1985910e-01
  1.4137413e-01
  4.0090852e-04
  8.2282285e-04
 -1.5989030e-04
 -5.9310743e-05
 -7.2208213e-06
 -1.0942540e-04
  6.2200369e-04
  1.3673969e-04
  2.5136575e-05
 -1.3524443e-02
 -2.1164642e-01
 -9.6787943e-04
 -1.3120683e-05
  1.0346898e-04
  3.7814231e-04
  1.5874425e+00
 -1.2197728e+00
  1.5785194e-04
 -3.2384321e-01
 -4.3312493e-03
  1.0665898e-04
  4.5723915e-01
 -3.5819758e-05
  3.3863685e-03
 -1.3840479e-03
 -5.4644365e-02
  5.3854840e-04
 -9.3887729e-06
  2.2329284e-02
 -1.4760881e-04
  1.3816957e-01
  3.2974797e-04
  5.4682579e-02
  1.2410340e-04
 -2.6561818e-04
  2.5860581e-04
 -9.9253430e-06
  7.3678260e-05
 -2.4547160e-04
 -1.2380103e-04
  1.4179438e-05
  2.1492528e-04
 -4.3391927e-05
  4.1959197e-03
 -1.6042129e-04
  2.2822251e-05
 -3.8793715e-04
 -5.2965462e-01
  1.0429337e+00
 -5.7090551e-01
  1.6985019e+00
 -9.8785949e-01
 -7.5711989e-01
 -4.9080135e-04
 -1.7245358e-02
 -4.5438573e-01
 -1.9124425e-03
  2.7852160e-01
 -2.7588809e-01
  1.7624542e-01
 -6.9633573e-01
 -2.6469303e-02
 -3.7383041e-01
 -3.3613005e-01
  5.3971610e-04
 -1.1261276e+00
 -4.2380981e-02
 -7.5438082e-01
 -2.4998054e-02
 -5.2498453e-03
 -8.4932524e-01
  8.6786883e-04
 -1.4941555e-01
  2.5816586e-02
  6.7456240e-05
 -6.5371954e-01
  1.6628522e-04
 -3.0103222e-01
  1.3250865e-01
 -3.0443811e+00
  1.6406111e+00
  2.5387125e+00
  6.5901989e-01
  6.5190607e-04
  3.5100353e-01
 -6.7767972e-01
  4.6164143e-01
  9.9890791e-02
 -2.8285627e-05
 -4.3853011e-02
  2.5194782e-01
  3.9557981e-01
  1.4972621e+00
  1.1830395e+00
 -3.7980229e-01
  6.8702704e-01
  3.1309393e-01
  2.5442425e-02
 -1.5628456e-04
 -3.6594510e-02
  5.3785503e-01
 -3.7359572e-05
  8.7375623e-01
  8.0376458e-01
  4.5659712e-01
  4.8968250e-01
 -1.1513304e-04
  1.3642858e+00
 -6.2692782e-04
  1.5443963e-01
 -7.0367721e-05
  6.3455355e-01
 -1.3135582e-01
  8.0280222e-02
 -3.5520099e-02
 -4.0249214e-01
 -4.8383272e-01
 -5.1169622e-01
  7.5006914e-01
 -1.7623872e-01
 -9.9642063e-04
  5.0954424e-02
 -2.0131483e+00
  2.9684034e-01
  3.5880700e-01
  5.0048447e-01
 -1.2401626e-01
 -2.3404716e-02
  3.0902400e-05
  9.0273015e-02
 -2.5887543e-01
 -9.5597690e-04
 -2.8460135e-03
 -5.5387372e-04
  1.6861593e-02
 -1.5020885e-01
 -2.2401584e-02
 -2.4570967e-04
  5.8595859e-05
  5.1503431e-02
 -1.0112029e-04
 -4.0764278e-01
 -1.3762573e-02
 -9.4311178e-01
 -9.8692797e-02
  7.2243947e-01
 -7.0070617e-02
  8.6006140e-03
 -2.3429786e-01
  4.6502829e-01
  8.2191363e-02
  1.2922572e-02
  1.8116594e-03
 -2.2612812e-02
  1.1826055e-01
 -2.2696991e-01
  2.1426575e-01
 -5.1638669e-01
  2.0388372e-01
 -8.0500758e-01
  1.7412145e-02
  3.1601370e-03
  5.4891920e-01
  4.7178734e-02
  3.8562721e-01
 -8.8170953e-02
 -1.7626922e-01
  3.8726720e-01
 -4.5929441e-01
 -8.1757449e-02
  4.0695369e-02
 -1.1998614e-01
 -1.9408202e-04
 -3.2236282e-02
 -3.8923003e-02
 -3.9139241e-02
 -5.2874166e-01
 -8.4119802e-03
 -4.8605956e-02
 -9.8097438e-01
  3.5663328e-01
 -4.1471835e-06
 -1.1333118e-02
 -2.9200250e-02
 -5.4212836e-05
 -7.6447499e-01
 -4.9428847e-02
 -2.5603347e-02
 -7.2408050e-01
 -3.1164167e-03
  2.9766471e-03
  1.8236513e-01
 -2.5230407e-04
 -1.4255817e+00
 -2.7065977e-04
  4.0810642e-01
 -2.6734208e-04
  1.2114058e-04
 -2.3554524e-03
 -1.8205009e-04
  7.7150929e-01
 -9.7298856e-05
 -6.7753412e-05
 -1.3134073e-02
 -1.7878503e-04
 -2.5332096e-01
 -1.3089917e-03
 -4.0080972e-02
  1.1363895e+00
  1.4715992e+00
 -4.1761633e-02
  2.1642174e-01
 -4.3788472e-01
 -6.3896066e-01
  8.2695556e-01
 -2.6555660e-01
 -5.9650767e-01
 -2.9622349e-01
  3.8856454e-02
  5.0328761e-01
 -1.1003861e+00
 -5.0753921e-01
 -4.5820066e-01
  4.6502873e-01
 -7.7125434e-05
 -2.4321534e-01
 -6.1176455e-04
 -1.0403256e+00
  1.8978249e-05
 -3.7051711e-04
  5.2377836e-05
  4.9845414e-04
 -3.0521752e-02
  3.0065706e-01
  1.1637154e-04
 -3.6692834e-01
 -4.4780396e-07
 -4.5476827e-01
 -1.3233548e-01
 -3.8894251e-01
  6.4703280e-01
  1.0001663e-04
  1.3166796e+00
  2.5734470e+00
 -3.2490347e-02
 -3.9023882e-01
 -2.4395047e-03
 -4.4863230e-01
  1.3908706e-04
 -8.3606303e-01
 -1.5367347e+00
 -3.8892215e-01
  2.9501185e-01
  9.6360433e-01
 -2.5964692e+00
  8.3770180e-01
 -2.6304313e-04
 -4.9132651e-01
 -3.1148780e-03
  8.3874613e-05
  1.0771081e+00
 -5.7794040e-01
 -6.4100635e-01
 -5.6435943e-01
 -3.4534761e-01
  1.8573727e-06
 -5.3943694e-03
 -3.9957580e-05
 -6.7752078e-03
  1.2586386e-02
 -1.7445230e-01
  5.3123480e-01
  9.1516858e-01
  4.5512192e-05
  6.3155526e-01
 -1.0460107e-04
  2.2137499e-01
  2.3164744e-03
 -2.8969547e-01
 -1.1668248e+00
  2.6670924e-01
  6.6837691e-02
  3.7703586e-01
 -2.7206349e+00
 -2.5998528e+00
 -1.2306798e-01
 -6.4851311e-03
  1.9570948e-01
  2.5406964e-02
  1.6217338e-01
  2.1483250e-01
 -9.0386651e-02
  3.1947872e-01
 -6.6058207e-01
 -2.9152593e-01
  3.2868522e-01
  1.3761517e-01
 -2.3149951e+00
 -5.9273873e-02
 -3.6185029e-01
  8.6124283e-01
  1.6571336e+00
  3.7031201e-01
  2.1080808e-01
 -8.9841682e-01
 -1.2045866e-01
 -9.0099052e-02
  4.2462224e-01
  6.3044316e-01
  1.9075025e-05
  1.9213902e+00
 -1.0769426e+00
 -2.4549253e+00
  1.7999564e-01
 -6.6369098e-01
 -1.5894493e-01
  4.4469965e-01
  6.9107115e-02
 -1.4665215e+00
  4.3765908e-01
 -9.3903947e-01
  2.3555365e+00
 -2.3205073e+00
 -2.4580169e-01
 -7.7091050e-01
  1.2065630e-02
  2.8152230e-01
  1.1794891e+00
 -7.9751772e-01
  2.8398602e+00
  3.5437722e+00
  8.0285883e-01
 -1.6668825e-01
 -5.8539075e-01
  9.7401214e-01
  4.2245138e-01
 -1.3954979e+00
 -3.7099034e-01
 -5.2439821e-01
 -1.7023164e-04
  3.5573646e-01
 -6.9136873e-02
 -1.5978749e-05
  4.8233374e-04
  3.5635414e-05
  5.8406878e-01
 -1.2809740e-04
 -3.9801400e-04
  7.0576811e-05
 -5.5426110e-05
  2.4705792e-03
  1.2637945e-03
 -1.0474546e-04
  2.3038199e-04
  5.4639015e-05
  6.3451094e-05
 -2.9629521e-04
  1.1190261e-04
  3.7144869e-06
  2.5946542e-04
  2.3672601e-05
  1.6018869e-04
 -1.0229127e-04
 -2.0310620e-04
 -4.9889431e-04
 -2.5047219e-04
  6.9561111e-06
 -5.7675218e-04
 -2.8805144e-04
 -2.8064454e-01
  1.9322633e-04
 -1.1681719e-03
 -2.3380245e-01
  7.4198583e-06
 -3.0401547e-04
 -1.0979517e-03
  5.0465678e-05
  2.1970874e-01
  4.8463140e-04
  1.0233070e-02
 -3.9180485e-03
 -1.4133766e-02
 -9.6156626e-05
 -2.4169236e-02
 -2.8694363e-04
  8.0993101e-03
 -4.8273749e-04
 -2.2675666e-04
 -4.4164760e-04
 -1.6701587e-04
  4.1380480e-02
 -5.3724524e-04
 -1.0821119e-05
 -9.7828137e-04
 -1.2642807e-04
 -8.0679316e-04
 -8.6775640e-07
  1.6740762e-04
  3.9958623e-03
 -5.0258567e-04
  5.2447862e-04
  1.3093442e-04
  2.0796347e-04
  7.7883096e-04
 -1.1089713e-04
  1.0540592e-04
 -3.8702765e-05
 -9.7298383e-05
  7.8186411e-01
  1.7239421e-04
 -9.2545301e-03
  1.0324996e-04
  3.8927855e-04
 -5.1784554e-07
 -3.0428029e-04
 -1.7073922e-04
 -1.1845689e-04
 -1.1448995e-04
 -2.9197487e-04
 -8.4622414e-05
 -1.0490775e-04
  3.2177508e-05
  6.2579071e-05
 -9.8597979e-05
  3.4046065e-05
  2.3752752e-04
 -3.6470752e-04
 -1.6464949e-04
 -1.7063938e-04
 -1.1539975e-04
  2.7500575e-05
 -1.5956408e-05
  7.7573780e-04
 -3.4449058e-05
  1.2909717e-04
  2.2341588e+00
 -2.0621295e+00
 -4.5720065e-01
 -9.4334596e-01
 -8.8749635e-01
 -1.4309058e-01
  1.6074982e-01
  1.3984674e+00
  4.3648567e-02
  9.0491086e-02
  4.3015322e-01
  3.0903373e-04
  4.9586514e-01
  1.2295073e+00
 -4.0486845e-01
 -9.3435146e-02
  2.4355009e-01
  1.6032304e+00
  1.7731304e-01
  3.8147840e-01
  3.0790564e-01
  5.1219738e-03
  6.1188942e-01
  4.0389657e-01
 -7.3065508e-05
 -1.8834977e-05
  1.2739998e-01
  2.3100618e-03
 -2.3534662e-05
 -6.0118712e-04
 -4.0578142e-01
  1.3104548e-01
  1.8574099e-01
  1.3502131e-02
 -6.5415306e-04
  1.0692071e-03
 -8.4218613e-05
 -3.4639169e-02
 -4.0258327e-01
 -9.2365238e-04
 -7.9157202e-05
  5.6163008e-05
  2.9761612e-01
  1.6119426e+00
 -1.7583025e-01
  6.5294717e-04
 -3.6284365e-02
 -3.8384166e-04
  1.1459178e-01
  4.8731807e-05
  4.0564734e-01
  1.5813181e-01
 -1.4015428e-05
 -1.9769784e-02
 -8.5544516e-06
  2.9058740e-03
 -3.3105902e-05
  1.3565437e-01
 -3.1965268e-05
 -1.2613578e-04
  3.1609667e-05
  4.0900817e-05
 -2.9366648e-01
  2.9796526e-02
 -1.0427675e-04
  3.0952247e-02
  2.6676905e-01
 -1.6296412e-04
 -1.7081718e-01
  2.4488878e-03
 -3.3969411e-01
 -1.1570951e-04
  3.7306902e-04
 -1.3318959e-01
  1.1840336e-04
  1.5108531e-03
  4.5411882e-04
  2.2872159e-04
 -4.8638904e-03
 -1.8534753e-01
 -3.0541749e+00
  1.4608829e-04
  1.9909038e-04
 -5.0554529e-05
 -4.0543411e-04
 -2.0991213e-04
 -1.2131808e-03
  9.9437930e-05
  1.3808918e-04
  6.0916163e-06
  7.2745141e-04
  1.0197441e-03
 -1.6623379e-04
 -2.1171471e-04
  9.8081073e-05
  1.9184718e-02
 -2.0398915e+00
  1.3689584e+00
  9.1901109e-02
  1.7363061e-04
  3.9665896e-01
  4.6272900e-02
 -4.8961487e-01
  1.3645834e-01
 -9.0390199e-01
 -4.3994125e-02
 -3.6057371e-01
  8.2261401e-01
 -3.3950362e-01
 -1.6272153e-01
  9.0375863e-02
  9.1366601e-01
 -1.1725349e+00
 -1.9146297e-02
 -1.6780081e+00
 -4.6336022e-01
  1.1705085e+00
 -1.1051077e+00
 -4.2096758e-01
 -1.2889238e-02
 -7.9082775e-01
 -7.6989226e-02
 -3.1641139e-05
 -3.6461197e-02
  4.5740922e-05
 -4.7575042e-05
  9.9592522e-02
  1.2700690e+00
 -3.2108808e-01
 -9.3482566e-01
 -2.1490205e-02
  9.6454489e-05
  1.6179481e+00
 -4.5362636e-01
  1.5500498e+00
  2.3753879e-05
 -2.3783282e-04
 -1.1130768e-05
  2.8519717e-04
 -7.6383531e-02
 -9.1112254e-04
  1.1451870e-04
  6.8871734e-05
  7.0449297e-04
  2.1570075e-02
 -9.0167659e-06
  4.1092702e-04
 -2.2160955e-02
  8.9346133e-05
 -1.4439687e-03
  1.4774236e-04
  4.1024774e-05
  2.4343295e-04
  2.6505339e-05
 -2.9474261e-04
  8.1610749e-05
  7.8025419e-05
 -2.4573348e-04
 -3.8958655e-04
  1.0783098e-03
 -7.7065879e-01
  8.7262154e-02
  2.3756306e+00
  3.5832480e-01
  1.9263431e-04
 -8.4548034e-02
  8.6050707e-01
  8.3313680e-01
  6.1748544e-04
 -1.0423972e-04
  1.4443675e-01
  6.2834665e-02
  9.3110874e-02
  1.2524408e-02
 -8.3943479e-02
  3.6609048e-01
  2.9035887e-01
  1.3788527e-01
  2.6767818e-02
 -4.2847103e-01
  2.7698424e-04
 -6.3407099e-01
 -3.0264450e-04
 -7.0546979e-05
 -1.1251083e-01
 -1.3192166e-02
  1.1032617e-03
  2.7564604e-06
 -3.4558158e-02
  1.2503464e-04
 -3.8820925e-01
 -4.6621785e-03
 -2.1437952e-02
  5.3124797e-01
  3.5543572e-02
 -6.3887078e-01
 -2.1877775e-03
 -2.3698693e-05
  2.7256307e-01
  3.3681419e-02
 -3.8434684e-02
 -1.7212668e-01
 -1.2954611e-01
 -3.2644716e-04
 -1.2199597e-04
  3.6396965e-02
  1.6719009e-01
 -7.9021287e-01
  1.5557365e-01
 -1.0987875e-04
 -2.8543341e-01
 -5.8583349e-01
 -4.6742719e-01
 -1.4676413e-04
 -5.7417251e-02
 -2.6054243e-03
 -6.6709048e-03
 -6.1322695e-01
 -1.8314437e-04
 -7.8688044e-04
 -4.0946486e-03
  6.8898432e-02
  4.8459563e-04
  1.9969777e-03
  6.9706766e-05
  5.6919316e-03
  1.3528137e-04
 -4.0370600e-05
 -4.4224894e-04
  4.8574508e-04
 -4.8943990e-01
  1.9374826e-04
  4.5723296e-04
  4.7647223e-05
 -2.4955563e-04
  5.5380201e-04
  3.8329579e-04
 -6.4553489e-05
  2.2057687e-04
  9.2425043e-06
  4.6498061e-04
  2.7006652e-05
 -1.8718911e-04
 -5.0401315e-05
 -9.0705900e-04
  2.8557141e-04
  3.6455528e-04
  8.1071586e-05
 -1.1240981e-05
 -3.2255121e-03
  1.7338878e-01
  4.9461512e-05
 -8.6239568e-05
 -7.2869450e-05
  2.0453437e-05
  2.0660153e-04
 -3.2962099e-01
 -3.1090084e-02
  9.5722295e-02
  1.3215357e-01
  1.4733652e-05
  7.2569221e-01
  1.2488614e-01
  4.1589892e-04
 -2.6863660e-05
 -3.9078927e-04
 -2.7793858e-03
 -5.9853581e-04
 -5.8922800e-03
 -5.7625218e-04
 -9.9682227e-02
 -5.7528954e-02
 -1.6574864e-01
  4.9667895e-05
 -2.8552499e-03
 -1.6104309e-01
 -6.7840028e-04
 -1.2319504e-02
  1.2213715e-04
 -6.4429820e-02
 -5.4935715e-04
 -7.6677252e-06
  9.3302864e-05
  4.2116956e-04
  2.8473508e-04
  1.8398181e-05
 -1.7582039e-04
  5.9818860e-05
  6.1466228e-02
  3.8633231e-02
 -2.1969879e-02
  1.2699795e-04
 -1.2281198e-02
 -9.0915084e-05
  9.2221302e-01
 -2.7767167e-04
  2.1607820e-04
  1.7529665e-03
  2.1921149e-01
  7.7997742e-05
 -2.1687654e-01
  1.5250748e-01
  1.5745991e+00
  4.8903883e-02
  2.4259181e-03
  2.1802032e-04
 -3.7504251e-06
 -6.7681576e-06
 -2.1275575e-07
 -3.3783156e-04
 -1.3445597e-04
 -4.2965046e-05
  4.1661423e-04
 -9.9771336e-02
  3.9494954e-04
 -3.6521070e-04
  2.6459154e-04
 -4.3606647e-06
  2.8365206e-05
 -8.2050632e-05
 -4.9882306e-05
  5.3607482e-01
  3.7385762e-05
  3.2294358e-06
  1.4568970e-04
 -2.4877014e-04
  6.1760902e-01
 -2.3922113e-04
  4.0264439e-04
  4.2896948e-04
  2.2890259e-04
 -2.5718307e-04
  6.8567839e-04
  5.6786459e-02
 -1.1284550e-04
 -4.4942963e-01
 -8.6529626e-06
  6.5588581e-05
  6.8092675e-05
  2.4913708e-04
  1.9544162e-04
 -1.5894087e-05
 -1.6676690e-04
  5.3000465e-05
 -9.5792464e-05
  5.4804932e-05
  1.9680654e-05
 -4.7214126e-05
 -4.8686081e-05
 -5.4139947e-04
 -1.1073472e-03
 -7.8714016e-05
 -7.7610713e-01
 -4.3838954e-01
 -1.4502710e+00
  1.1897815e-01
  6.4054392e-02
  7.9545790e-01
  4.9358690e-01
  1.1534926e-02
 -3.5583052e-01
 -1.8967697e-01
  3.1223753e-01
  6.3294031e-02
  5.8448404e-02
  4.6351656e-02
  9.5430980e-05
 -1.9116889e-01
 -1.3314949e-01
  6.8709299e-02
  1.1372280e-01
 -1.6677882e-01
 -2.9003510e-01
 -1.8996854e-01
  4.1621613e-05
 -1.3807261e-01
 -3.3372551e-05
 -5.8825321e-02
  3.2486159e-01
 -6.9325004e-04
 -3.5860518e-01
  8.3630284e-06
  6.9631517e-02
 -1.0605546e+00
 -1.6080815e-01
 -1.8285659e-01
 -8.6323071e-01
  4.3951924e-05
 -4.9741953e-03
  8.9836391e-03
  5.2418023e-01
 -4.1066715e-01
 -3.9828192e-02
  1.9965611e-01
 -2.8798410e-01
  6.4679705e-02
  4.9667045e-01
  1.0516063e-04
  4.1567584e-04
  5.0668371e-01
  2.0671622e-03
  1.4941616e-02
  1.5179488e-02
  3.0151296e-03
  9.2037423e-03
  2.7582287e-03
 -4.0218813e-05
  9.4765846e-06
  2.2423610e-02
  2.8557498e-02
 -1.6041948e-04
 -1.0995656e-02
 -5.2689575e-05
  2.0925674e-05
 -1.2254126e-03
 -7.7284440e-02
  3.1701040e-01
 -8.6575694e-02
 -1.4989173e-01
 -1.2186756e+00
  6.2728373e-05
  9.1793452e-05
 -7.0045215e-01
 -1.1347424e+00
 -7.8378275e-02
  5.9071422e-01
  5.5076724e-01
 -1.3178271e-01
 -1.5035219e-04
 -7.7541304e-01
  3.5168059e-02
  3.6567074e-01
 -3.1122880e-02
  5.7108984e-05
  1.6782988e+00
 -2.4426152e-01
  6.3592005e-01
 -5.7176421e-06
 -3.0516592e-04
 -8.3986866e-05
  3.1983759e-02
  2.9284525e-01
 -4.6136621e-02
 -2.1022011e-02
 -5.4921931e-01
 -2.8105341e-03
 -1.7670525e-05
  8.0661371e-04
  1.1392870e-01
  8.7396584e-02
  1.2177001e-01
 -2.9913682e-04
 -8.8152425e-05
  3.6223489e-01
  1.0292236e-02
 -2.6399121e-04
  5.4164156e-02
  4.5244229e-01
 -4.5786688e-05
 -2.2984877e-01
  5.1786341e-03
  3.2732099e-01
  5.9770741e-02
  1.2008193e+00
 -4.7139480e-04
 -6.5872706e-02
 -1.2277602e-01
  1.7535786e-01
  3.1169467e-03
 -1.0018325e-04
  4.8987648e-01
  8.8343819e-05
  4.5182377e-01
  2.1725549e-01
 -4.4669727e-05
 -7.0324587e-04
 -2.7384551e-04
 -9.6547788e-01
 -2.8378788e-01
  6.9526345e-01
  5.9886903e-02
 -2.7517883e-02
 -1.5295720e-04
 -4.5384259e-05
 -8.2501516e-05
  1.8777520e-05
  9.8539340e-01
 -2.2216080e-04
  1.7842702e-03
  1.9542278e-04
 -1.8238006e-04
 -3.1395439e-02
 -2.8904638e-01
  1.3839915e-01
  8.2247175e-04
  6.5592468e-02
 -3.5709284e-02
  7.2444417e-02
  6.0840748e-04
  1.0746350e-01
  2.4073061e-03
  3.9203373e-05
 -7.3671997e-02
  2.9374278e-04
  4.5814726e-04
  1.5689111e-03
  1.3500580e-04
 -1.2034895e-04
 -6.4583430e-05
  2.1928712e-05
 -7.4736039e-05
  3.2469665e-04
 -7.6070833e-01
 -8.5654750e-02
  4.5783916e-01
 -2.1496904e-04
  3.9951989e-01
 -3.0758232e-03
  1.0858748e+00
  3.7434441e-04
  1.7466251e-02
  1.8333946e-01
  2.2212388e-01
 -8.5132957e-02
 -3.4166339e-01
 -1.2884539e-04
 -3.7586095e-05
  2.2402471e-01
  1.6444434e-04
 -1.1534436e-05
 -1.0642925e-04
  3.1507827e-04
  1.0101775e-01
 -8.1644917e-05
 -2.3415848e-04
  1.7051885e-04
  1.8431713e-04
  1.6751554e-03
  7.9583004e-04
 -2.0616309e-01
 -1.5634915e-04
 -1.8188356e-04
 -1.6524318e-04
  1.9308225e-04
 -3.4390677e-02
  2.9690170e-01
  4.4671129e-04
 -1.1072550e-01
  1.4622773e-02
  4.6664743e-05
  5.2554381e-01
  1.7941526e-04
 -7.8177080e-02
 -5.3784498e-03
 -3.0304497e-01
 -2.9659413e-03
  7.2349583e-05
 -5.6605626e-07
 -1.2643576e-03
 -3.7872482e-03
  1.4532905e-02
  1.7541030e-01
 -2.0236084e-04
 -2.8527444e-04
 -2.7733099e-02
 -2.9565498e-02
  3.7614327e-02
 -1.3566948e-04
 -3.5401110e-03
 -2.0432293e-01
  3.5810575e-04
  5.2551751e-04
 -1.7955814e-05
  5.1477039e-04
 -1.7521410e-04
 -3.0552503e-04
  3.2896569e+00
 -1.3095584e+00
  2.3568469e-01
 -3.3284768e-02
  4.8799664e-01
  1.7246615e+00
  4.8672557e-01
  7.9563659e-01
  3.5003244e-04
  2.7127561e-01
  8.3162606e-01
 -1.4535027e+00
  1.5331149e-01
 -4.9745277e-02
  4.7678274e-01
 -3.9544475e-01
 -7.0358741e-01
  6.8716431e-01
 -1.0110096e+00
 -2.7874039e-02
 -6.5918639e-04
  2.0371317e-05
 -3.7683712e-03
 -9.3644405e-05
 -3.6423546e-04
 -2.6495138e-01
  1.2743708e-05
 -1.6937285e-05
 -7.7439709e-06
 -3.2312593e-05
  4.4667151e-02
  5.2415254e-03
  5.1901168e-01
  3.5966851e-02
  8.1549746e-01
  7.0227217e-04
 -1.3470469e+00
 -4.9313661e-01
 -3.3978128e-01
  2.2385606e-01
 -5.0627504e-02
 -2.1145731e-01
  4.4251263e-01
 -1.1972409e-04
  4.9292833e-01
 -2.5548947e-01
 -2.6064272e-05
 -7.7795595e-02
 -4.5581810e-02
 -4.0641309e-05
  8.2675344e-01
 -4.2121905e-01
 -7.2194642e-01
  2.6984425e-02
  1.2437397e-03
 -3.3035766e-02
 -3.2226795e-01
 -2.5550970e-01
 -7.9413562e-04
 -8.9289993e-03
 -1.1927648e-02
  9.4245872e-05
  8.2920166e-03
 -2.2615767e-01
  3.0773349e+00
  1.8210487e+00
  9.2693383e-01
  1.5179330e-04
 -5.6517231e-01
  3.2745041e-02
 -1.5588336e+00
 -2.9011519e-04
  5.4425018e-05
 -9.0880506e-04
 -2.3084857e-02
 -4.2300955e-05
 -9.6690201e-04
 -6.5142388e-04
  1.6329411e-04
  1.0817792e-03
  5.2886599e-01
 -2.4906239e-01
 -2.5247734e-06
 -2.9516298e-01
 -3.4543853e-05
  6.9879483e-05
  8.3204098e-03
 -2.9015308e-04
  7.4795826e-05
 -2.9557961e-04
 -1.8848968e-04
  1.4370969e-06
  1.5312998e-04
  3.9156424e-04
 -4.1096247e-04
  3.0328430e-02
 -2.0574890e-01
 -1.2338098e-01
  4.8571268e-01
  2.0016680e-04
  3.6283261e-01
 -2.6575115e-01
  5.6830847e-01
 -3.9602450e-01
  2.8902188e-01
  6.7087728e-01
 -2.0653626e-03
 -1.1450473e-01
 -3.8262206e-01
  1.6764021e-01
 -1.4065886e-01
 -5.4242587e-01
 -3.4274080e-01
 -3.0267730e-01
 -1.6191879e-01
  8.8280469e-01
  5.4714644e-01
 -6.5936640e-02
 -2.4441488e-01
 -2.4383256e-04
  5.0533386e-03
  9.9402815e-01
 -1.9072528e-01
 -1.5663807e-04
  3.7124380e-01
 -2.7037489e-01
  6.7291462e-01
 -2.0097813e-01
  3.7512710e+00
 -8.4297580e-01
 -1.6883657e-04
 -3.6188361e-05
 -6.3642532e-02
 -2.4950266e-05
  1.8046943e-02
 -8.1812788e-04
  2.1005369e-04
 -1.9900100e+00
  3.6293912e-01
 -4.3733456e-04
  7.5374588e-02
 -3.6437899e-01
 -1.3642870e-03
  1.7570401e+00
  9.6058901e-03
  1.1560687e-04
  1.3470788e-01
  3.1214524e-05
  2.4725680e-04
 -1.0356970e-04
 -1.4817352e-05
 -5.0122148e-05
  2.9299374e-05
  1.2432548e-04
  8.8952336e-04
 -4.2698353e-05
  2.4288700e-05
  9.4148105e-05
 -8.4403969e-02
  1.0926890e-04
  3.1676803e+00
 -1.3896079e+00
  3.7605181e+00
 -5.3125052e-05
 -2.5080875e-04
 -6.1814202e-04
 -3.1161988e-01
 -9.3443994e-04
  2.8702564e-04
  5.5477396e-04
  2.1817748e-01
  2.4282357e-04
  5.5090892e-01
 -3.9784049e-04
  9.1518688e-01
  2.7059224e-01
  3.5433743e-05
 -2.0905386e-04
 -1.0095067e-01
  8.5940810e-05
  2.2031388e-03
 -2.8072676e-04
  3.8438824e-01
 -2.0440710e-01
  6.3164893e-04
  1.5541885e-04
  9.5781706e-06
 -3.1627620e-05
  1.7706827e-04
  1.6062672e-04
 -6.3462096e-05
  7.4256015e-05
  1.2410712e-01
  4.0265352e-02
 -1.9824589e-02
 -1.3688518e-02
  2.1932465e-03
 -4.8405540e-04
 -5.5238569e-01
 -1.6623939e-05
 -2.4652780e-05
  4.4824919e-04
  9.3394023e-01
 -5.9094313e-03
  2.4183702e-01
  2.5133395e-01
  5.1152503e-01
  4.0509957e-03
  1.6086508e-01
  4.0618861e-01
 -2.4879301e+00
 -9.1563357e-04
  7.1418607e-01
 -2.5445834e-04
 -9.0493624e-05
  1.3835802e-04
 -6.9867617e-01
  1.0776019e-03
 -6.2446721e-04
 -1.4966053e-01
  9.5150164e-05
 -1.5227473e-04
 -5.3904227e-05
  7.6784760e-05
  3.1521384e-05
 -2.3987508e+00
  7.5510010e-02
 -1.2507346e-01
  2.4444751e-01
 -2.2879106e-04
 -1.1319797e-02
  2.1177458e-02
 -3.6957674e-05
  1.3638374e-04
  1.0456487e-01
  6.8521249e-04
 -3.1130323e-05
  7.5875992e-05
  4.9013871e-04
  3.3388069e-01
  4.4397771e-02
  1.4624188e-03
  4.6379803e-04
  4.9693545e-04
  1.4793617e-04
  3.4629662e-05
 -6.3421372e-05
  1.6495012e-04
  1.0824455e-04
 -6.3657113e-05
  7.1318761e-02
 -1.0941651e-02
 -1.7585660e-05
 -3.8525512e-05
 -1.9926314e-04
  9.8676846e-06
  6.3256128e-03
 -3.0176132e-03
 -5.6224711e-02
 -5.1388092e-04
  2.8784457e-03
 -8.2458624e-05
 -1.0107393e-01
 -5.1059085e-04
 -3.9839590e-05
  3.3314317e-04
  3.9185878e-05
 -9.8149336e-05
 -7.1469003e-05
  2.8532706e-04
 -4.7830297e-05
  1.2969848e-04
  3.6869466e-04
  8.8516310e-05
 -1.7473832e-05
  2.5449309e-02
  3.6697078e-03
 -1.4059488e-06
  5.9839704e-06
  4.2281096e-04
 -4.7966278e-05
  2.8041974e-01
  1.5348257e-04
 -9.3526673e-03
  7.0002316e-05
  3.1036095e-04
 -6.2399072e-04
 -2.7374958e-03
  3.7703022e-01
  2.5430653e+00
  2.4492977e+00
  1.6389537e-01
  2.1406474e+00
  2.2793919e-04
  2.4628165e-01
 -5.7545083e-05
 -2.3019678e-04
 -8.7562717e-02
  7.3134124e-02
  2.9302225e-03
 -1.3810978e-04
 -1.1049602e-03
  4.0561886e-06
  2.4964717e-01
  1.5918779e-03
 -2.0646141e-04
 -5.8663590e-04
 -1.1499954e-02
 -4.2264666e-02
 -6.0418720e-04
  3.6333583e-04
 -1.0357179e-04
 -2.3573932e-05
 -2.9474526e-04
  3.1591571e-06
  3.6392696e-02
  7.7783252e-04
 -1.0378577e-04
  4.5248591e-05
 -1.5559988e-04
 -1.2924051e-01
 -5.7978902e-02
 -9.5478004e-01
  1.7856880e-06
  2.4373863e-02
 -9.0344611e-04
 -1.0423334e+00
 -5.1429897e-04
  4.7009358e-05
  5.4487051e-03
  8.8668370e-01
  7.0911222e-03
 -3.8088276e-04
  2.0662775e-04
  7.0907339e-04
  7.1987321e-05
 -2.4098964e-04
 -1.1004238e-01
 -3.5237821e-04
 -6.8816116e-05
  3.6426318e-01
  2.1884887e-02
 -1.6115395e-05
 -7.0513204e-05
  1.5363689e-04
  2.1900080e-02
  6.2541585e-05
  7.4293316e-06
  3.2405279e-04
 -1.7054820e-04
  6.9173606e-05
  2.9526718e-05
 -4.7425669e-02
  1.7907791e-01
  3.1336884e-05
 -1.3359871e-05
  1.6100431e-04
 -8.8658868e-05
 -1.9837658e-01
 -7.2724656e-06
  5.8286030e-05
 -1.8617607e-04
 -2.5146146e-04
  3.7323789e-05
  2.4278322e-04
  7.8861020e-05
  6.3500088e-03
  5.1636089e-05
  5.8099149e-06
  2.7092117e-05
  5.1570146e-06
 -9.3100389e-05
  1.0336500e-04
 -3.8832721e-05
 -7.9953380e-02
  1.3974533e-06
 -2.9952271e-04
 -1.4928255e-05
 -1.8015305e-04
  3.1980241e-04
 -7.0834008e-06
  5.5891980e-04
  6.4411361e-05
  2.8733939e-05
  2.8012380e-05
 -2.3027005e-05
  2.5339026e-05
  1.0084797e-05
  2.3851477e-05
  1.5065685e-04
 -1.1479439e+00
 -1.4577663e-04
 -6.5360975e-05
  9.6354174e-04
  1.3235105e-02
  5.9292306e-05
 -1.2459556e-04
  9.4467330e-05
  1.3138825e-04
  6.3599720e-05
 -2.2504704e-04
 -1.1661697e-06
  1.7228232e-04
 -1.7315864e-04
 -1.7807411e-05
 -8.5826607e-05
 -1.7514588e-04
  3.3862230e-05
  1.1263055e-04
 -1.0731522e-04
 -5.6928530e-04
  4.5012632e-05
  9.1292583e-05
 -1.2336663e-04
  1.2961618e-04
 -4.3720537e-04
  1.4000365e+00
  2.1969693e+00
 -9.6263087e-05
 -1.2920397e-05
 -7.9956776e-01
 -1.6185305e-03
 -1.6255881e+00
  3.8833494e+00
 -5.5786491e-05
 -3.5412060e-05
  7.9136733e-03
  6.4338429e-04
  1.0293074e-04
  1.3934620e-01
  9.0211804e-05
  2.8721964e-01
  9.1052665e-05
 -3.5127017e-05
  2.5871559e-04
  1.2424416e-04
  7.0328337e-05
 -7.3343668e-05
  2.2474030e-04
  5.7231326e-04
  1.0892565e-04
 -1.3832207e-04
 -4.6359775e-05
 -1.8613365e-04
 -2.1436812e-05
 -9.4933093e-01
 -2.3808143e-01
  7.7662489e-04
  4.9190735e-04
  9.6009047e-05
 -7.4998325e-01
  1.6736378e-05
  8.5767475e-05
 -1.2116063e-01
  1.4305532e-03
 -1.0673111e-04
  2.9317991e-05
  6.8783913e-05
 -2.9457477e-04
  2.3530503e-05
 -4.0944666e-05
  1.0831493e-04
  1.1410903e-04
 -1.6577806e-03
  3.7917758e-05
  1.2710033e-04
  5.7022688e-05
  8.9143601e-04
 -4.7505735e-05
 -3.3965018e-05
 -4.1717990e-06
